//Numpy array shape [1024]
//Min -2.406593561172
//Max 1.404830694199
//Number of zeros 0

#ifndef B139_H_
#define B139_H_

#ifndef __SYNTHESIS__
model_default_t b139[1024];
#else
model_default_t b139[1024] = {-0.0364, 0.1857, -0.1158, 0.3172, 0.2554, -0.2228, -0.5505, -0.1915, -0.0151, 0.3755, 0.0289, -0.5937, -0.4803, -0.2223, 0.6969, 0.6249, -0.4859, -0.0065, 0.2216, 0.0187, -0.5581, -0.2447, 0.0334, 0.0033, -0.6968, -0.5194, -0.1135, 0.2554, -0.0425, 0.1804, -0.6865, -0.1246, 0.0755, -0.2552, -0.3121, -0.4842, 0.0789, -0.3367, -0.2448, 0.2828, -0.0518, 0.2356, 0.0715, -0.2979, -0.2555, -0.3679, -0.1353, -0.6604, 0.0400, -0.0325, 0.0915, -0.1401, 0.4826, -0.2839, 0.1522, 0.0917, -1.0123, -0.3783, -0.2764, 0.0308, -0.1052, 0.0978, -0.2679, -0.1248, -0.0465, -0.0192, -2.4066, -0.1413, 0.2415, -0.2611, -0.0794, 0.2211, 0.2401, -0.0778, -0.3238, 0.1068, -0.1625, 0.0062, -0.0970, 0.6196, -0.1648, 0.2552, -1.1412, -0.1768, 0.3137, -0.1881, 0.2201, -0.1421, -0.0760, -0.2975, -0.2802, 0.0899, 0.0826, -0.0468, 0.4711, 0.1472, -0.4590, -0.2092, -0.0217, -0.1469, 0.0900, -0.2127, -0.0398, -0.0662, 0.0519, 0.1964, -0.1464, -0.1395, -0.5774, -0.2051, 0.4286, 0.0512, -0.1690, -0.1617, -0.0565, 0.0729, -0.4851, -0.1309, -0.1082, 0.0298, -0.3990, 0.2748, -0.1814, -0.6275, 0.0203, 0.0615, -0.2738, -0.0264, 0.0203, -0.4678, 0.1989, 0.4061, 0.3970, 0.4003, -0.1818, 0.0168, -0.3740, 0.0357, -0.2047, 0.1007, 0.2980, 0.5544, -0.0754, -0.3749, 0.0578, -0.0757, -0.6170, -0.2297, -0.2832, -0.3175, -0.0611, 0.6853, -0.4701, -0.2935, 0.0614, -0.1417, 0.1373, 0.0289, -0.0123, -0.3158, 0.0038, -0.6076, -0.0581, 0.0895, -0.1762, -0.0182, -1.0056, -0.3047, -0.1001, -0.2480, -0.2351, 0.1206, 0.1778, -0.0650, -0.2050, -0.2333, -0.0391, -0.0206, -0.7065, -0.0020, -0.0539, 0.2337, 0.0610, 0.1165, -0.3949, -0.4257, -0.3577, 0.0365, -0.2095, -0.2544, 0.0429, 0.0947, -0.0943, -0.3075, -0.0766, -0.1668, 0.4245, -0.2354, -0.2946, 0.5180, -0.4910, 0.2516, 0.1551, 0.2622, 0.3416, 0.3460, 0.2512, -0.1883, -0.5064, -0.0723, 0.3521, 0.5550, -0.4630, -0.1732, -0.1722, -0.2258, -0.1020, -0.1678, 0.3470, -0.2899, 0.0351, 0.4633, 0.2690, -0.0804, -0.3522, 0.3519, -0.1461, 0.0507, 0.0312, 0.2738, 0.5082, 1.0359, 0.3097, -0.0061, -0.1279, 0.0509, -0.2975, -0.1784, -0.3092, -0.2126, -0.2750, -0.4080, -0.1924, -0.0320, 0.2176, -0.3651, 0.0025, 0.0208, 0.1278, -0.0225, -0.2260, -0.2985, -0.0907, -0.3543, 0.0625, -1.1213, -0.2371, -0.5678, 0.0163, -0.7401, -0.8028, -0.3377, 0.2581, -0.2442, 0.2352, -0.4857, 0.0615, 0.0764, 0.1178, -0.0525, 1.1726, -0.2695, -0.6596, -0.3210, -0.2285, -0.5573, 0.0423, 0.0524, 0.2399, -0.1072, 0.3616, -0.0553, 0.2178, -0.0048, -0.0236, 0.3984, 0.0667, -0.1376, -0.2005, -0.1446, -0.2635, 0.1025, -0.0654, 0.0524, -0.3988, 0.2238, -0.1389, -0.0182, -0.4470, -0.5762, -0.4028, 0.5787, 0.2893, -0.1410, -0.1881, -0.0725, -0.1905, 0.0228, -0.2348, 0.0376, -0.0304, -0.3437, -0.2555, 0.4812, 0.0012, -0.3295, -0.2808, 0.2805, -0.3258, -0.3790, -0.3666, -0.0298, 0.0441, 0.0924, -0.1816, 0.2515, 0.0048, 0.3057, -0.4064, -0.5066, 0.3409, -0.0357, -0.3325, -0.2922, 0.4834, -0.5567, -0.5924, -0.1642, -0.0229, -0.0375, -0.1255, -0.0044, 1.2474, 0.1400, -0.2157, 0.1374, -0.1290, -0.1770, 0.0739, -1.1038, -0.2878, 0.1065, -0.2214, 0.4945, 0.1388, 0.5646, 0.7023, 0.0279, -0.1941, 0.4718, -0.1887, 0.0303, -0.0003, 0.6700, 0.5359, -0.1273, 0.0163, -0.0213, -0.3087, -0.4246, -0.0530, 0.6509, 0.0517, -0.3101, -0.1530, 0.1629, 0.0893, 0.0402, 0.1074, -0.2400, -0.1512, -0.3047, 0.5775, -0.1202, -0.0464, 0.2570, -0.0236, -0.4542, -1.4955, -0.0072, 0.0424, -0.5757, -0.9702, -0.1589, -0.0527, 0.3348, -0.0486, -0.4147, 0.0701, -0.4197, -0.3988, -0.3475, -0.0274, 0.0118, -0.0280, -0.0077, -0.1545, -0.2544, -0.1966, -0.8081, 0.0205, -0.5706, -0.8109, 0.4272, -0.3139, -0.4685, -0.1616, -0.1992, -0.1063, -0.2917, -0.0797, -0.1682, 0.1057, 0.0352, 0.1055, -0.0829, -0.1512, 0.5825, 0.2754, 0.1505, -0.3045, -1.2654, -0.4173, -0.2909, 0.0401, -0.1314, -0.1564, 0.1776, -0.1851, 0.0436, -0.1413, 0.2160, 0.4597, 0.0498, 0.1377, 0.1977, -0.0279, -0.0883, 0.7776, -0.0850, -0.0006, -0.1699, -0.1696, -0.0361, -0.1423, -0.0198, -0.1206, 0.1454, -1.1614, -0.2589, 0.5890, -0.3703, -0.1192, 0.1424, 0.3023, 0.5891, 0.1755, -0.1281, 0.3673, -0.2131, -0.1083, -0.0089, 0.0275, -0.2308, 0.0625, -0.4035, -0.0076, -0.0505, -0.4025, -0.2029, -0.5212, -0.0746, 0.2028, -0.0116, -0.2981, -0.5362, 0.3609, -0.5757, 0.3118, -0.1910, -0.0506, -0.1603, 0.4163, 0.1268, -0.1666, -2.0445, -0.0887, 0.3345, 0.0612, 0.2614, 0.4952, -0.9835, -0.0954, 0.0090, -0.0324, -0.3940, 0.0899, -0.1061, -0.1219, 0.1851, -0.4498, -0.1387, -0.2788, -0.1050, 0.7282, -0.2996, 0.0730, 0.1864, 0.4131, 0.3642, -0.1093, 0.5960, 0.0928, -0.3007, -0.2007, -0.3182, 0.0458, 0.6415, -0.2844, 0.1070, -0.1865, -0.0686, 0.3288, 0.0446, -0.1492, 0.0229, -0.2227, 0.4642, 0.2193, -0.2072, 0.0657, 0.2141, -0.0151, 0.0116, -0.5100, -1.2489, 0.6120, 0.8579, 0.2617, 0.1535, -0.0726, 0.0384, -0.3808, -0.0546, -0.1104, 0.3557, 0.2465, -0.1296, 0.0608, -0.4195, -0.0163, -0.3027, -0.0062, -0.4023, -0.2667, 0.0558, -0.3354, -0.3163, -0.8356, 0.5548, 0.0325, -0.3484, -0.8124, -0.3080, -0.0454, -0.3721, -0.4229, -0.0428, 0.1698, -0.0304, -0.1920, 0.3955, 0.3436, -0.2130, -0.3297, 0.2988, -0.3432, 0.4503, -0.2311, 0.0015, 0.8914, -0.3995, 0.0177, -0.1467, -0.0850, -0.2070, -0.4841, -0.0847, -0.2685, -0.1398, -0.3196, 0.4229, -0.0511, -0.3405, -0.1086, 0.2133, -0.3583, -1.5810, -0.2291, 0.1036, -0.1658, -0.2998, 0.0350, 0.1293, -0.3243, -0.5176, 0.1171, 0.1400, 0.2006, 0.0565, 0.1953, 0.0609, -0.0438, 0.2432, 0.2489, 0.0554, -0.0325, -0.0170, -0.0214, -0.2344, -0.3198, -0.3200, -0.1719, -0.2973, -0.2402, -0.0593, 0.1219, -0.4318, -0.0571, -0.2456, 0.0698, -0.2050, -0.0982, 0.8366, -0.0352, -0.0253, 0.1588, -0.0487, -0.3181, -0.4523, 0.7444, -0.0397, 0.1867, 0.1662, -0.2414, -0.0424, -0.2551, 0.1743, -0.1009, -0.1988, -0.0753, 0.3478, -0.3818, -0.0782, 0.1395, 0.1320, -0.3506, 0.0094, 0.0303, -0.0261, -0.0761, -0.0537, 0.3440, -0.3085, -0.3252, -0.3688, 0.2276, 0.0567, 0.0262, -0.4330, -0.1652, 0.4432, 0.3816, 0.0117, 0.2176, -0.0886, 0.0059, -0.0997, 0.1772, 0.2281, -0.1212, 0.1118, -0.0862, 0.0707, 0.0684, -0.1457, -0.0521, 0.3203, 0.4753, -0.1355, 0.2838, -0.1751, -1.6767, -0.0376, 0.1908, 0.0514, 0.0407, -0.3352, 0.2969, 0.1443, -0.1466, 0.5688, 1.4048, 0.2892, -0.0783, 0.2805, 0.1683, -0.2316, -0.6640, 0.1469, -0.2966, -0.6197, -0.1734, 0.0687, 0.3155, -0.4793, -0.2295, 0.3198, -0.0296, -0.2844, -0.2949, -0.2091, -0.4316, -0.2423, -0.0835, 0.0003, -0.5694, 0.2365, -0.0131, -0.3500, 0.0022, 0.6369, -0.1445, 0.0432, -0.2346, -0.2131, -0.2585, -0.0350, -0.5905, 0.1645, -0.2485, 0.2932, -0.2120, 0.2590, -0.1891, 0.3012, -0.1439, -0.0950, -0.3148, -0.2750, 0.2290, 0.0531, 0.1012, -0.1798, -0.2026, -0.4864, -0.0609, 0.0914, -0.2875, -0.3682, 0.1558, -0.8461, 0.1911, -0.2412, -0.1095, 0.3543, 0.0979, -0.1434, -0.1663, 0.0510, 0.3336, 0.0027, -0.2479, -0.2320, -0.4682, 0.2714, 0.7116, -0.0292, 0.0015, 0.7353, -0.4998, -0.2095, -0.2679, 0.1007, -0.0233, 0.0995, -0.2705, 0.4169, -0.0189, 0.7132, -0.1717, -0.0585, -0.0750, 0.4032, -0.0533, 0.5553, 0.6940, 0.3451, 0.3158, -0.3170, -0.7568, 0.2093, 0.1373, -0.1449, 0.6038, -0.2646, -0.4613, 0.4189, -0.3166, -0.1886, -0.1859, 0.3174, 0.0504, -0.6053, -0.0739, -0.1449, 0.0643, 0.2614, -0.1848, 0.1201, -0.6454, 0.2568, 0.5293, -0.0027, 0.1790, -0.5066, -0.1942, -0.3930, -0.4395, -0.3033, -0.2365, 0.2288, 1.1179, -0.0868, 0.4567, -0.2183, 0.2231, -0.4514, -0.0600, 0.0383, -0.2207, -0.2131, -0.2217, 0.1629, -0.0505, -0.1835, 1.0649, 0.0022, -0.1787, -0.0765, -0.1514, 0.2340, -0.5873, -0.3753, -0.2686, 0.0655, -0.2677, -0.2552, -0.7324, -0.0969, -0.1317, -0.4263, 0.0464, -0.0319, 0.3977, -0.2123, 0.2049, 0.5741, 0.1897, -0.3207, -0.3319, -0.2284, -0.1623, -0.1841, 0.2287, -0.5590, -0.2376, -0.1356, -0.0555, -0.2240, -0.0235, -0.7927, -0.2306, -0.1474, -0.7174, -0.2631, 0.1483, 0.0857, -0.3395, -0.0959, -0.0239, -0.0708, 0.1463, 0.0236, 0.0033, 0.5904, -0.1431, -0.0591, 0.1848, -0.2944, -0.0103, -0.0156, 0.4976, -0.1242, 0.0120, 0.0062, -0.6703, 0.0033, -0.1469, 0.4038, -0.2400, 0.9637, -0.0566, 0.0489, 0.1704, 0.0408, -0.6262, -0.0937, 0.1279, -0.4401, 0.0817, -0.1403, -0.2792, -0.0083, -0.0482, -0.7330, -0.2366, -0.3678, 0.2277, -0.1970, 0.1823, 0.4003, 0.1941, 0.1446, -0.2212, -0.0949, -0.3037, -0.0124, -0.2084, -0.0820, -0.0185, -0.8452, 0.4383, -0.0613, -0.0848, -0.2976, 0.1961, -0.1518, -0.2986, -0.0043, -0.0217, -0.0317, 0.1965, -0.0107, -0.4511, -0.1942, -0.5850, -0.0054, -0.1147, -0.0006, -0.1571, 0.2216, -0.0037, -0.0820, -0.1267, 0.1548, -0.2842, -0.0527, -0.4945, 0.1406, 0.1507, -0.2902, -0.7734, -2.2186, 0.1082, -0.2130, -0.2059, -0.0616, 0.0120, 0.0251, 0.3722, -0.2292, -0.2468, -0.1669, -0.3122, 0.4057, -0.0791, -0.3712, -0.6859, -0.4888, -0.6439, 0.5019, 0.0667, 0.3444, -0.5356, 0.7134, 0.1779, 0.3599, 0.0108, -0.3471, 0.2117, 0.5285, -0.4486, 0.5035, -0.1730, -0.1402, -0.0107, -0.2046, 0.1434, -0.2699, -0.3080, 0.0793, -0.3176, -0.0768};
#endif

#endif
