//Numpy array shape [512]
//Min -0.874300241470
//Max 0.587430357933
//Number of zeros 0

#ifndef B146_H_
#define B146_H_

#ifndef __SYNTHESIS__
model_default_t b146[512];
#else
model_default_t b146[512] = {0.0326, 0.1231, -0.2063, 0.0150, 0.2864, 0.1355, 0.3007, 0.0495, -0.0439, 0.1093, 0.2530, 0.5554, 0.3048, -0.8743, -0.3080, 0.0117, 0.2784, 0.0319, 0.0112, -0.1404, 0.2321, 0.3235, 0.1605, 0.3093, -0.1689, 0.0352, 0.0480, -0.5869, 0.2576, -0.3487, 0.3364, 0.2455, 0.0035, 0.4717, 0.0537, 0.3389, 0.1454, -0.2832, 0.2253, -0.2571, -0.0813, 0.0056, 0.3995, 0.4331, -0.0799, 0.3248, 0.4369, 0.4123, 0.5874, 0.5078, 0.1010, 0.3837, 0.3263, -0.0284, 0.0578, 0.0095, 0.5276, 0.3010, 0.1411, 0.3369, 0.3083, 0.3536, 0.2629, 0.2850, 0.2308, 0.1821, 0.2344, 0.2165, -0.1812, -0.2012, -0.4484, 0.2792, 0.3923, -0.0042, 0.1724, -0.0716, 0.2241, 0.4139, 0.2513, 0.4058, 0.3248, 0.3496, 0.0024, 0.1537, 0.5157, -0.2484, 0.5160, 0.2811, 0.4632, 0.2195, 0.2284, 0.1096, 0.1704, 0.1398, 0.3141, -0.0954, 0.0477, -0.7689, 0.0770, 0.0011, 0.4877, -0.0025, 0.2757, 0.4071, 0.4066, -0.1207, 0.5243, 0.0848, 0.1544, -0.1314, -0.1564, 0.1334, 0.0301, 0.2071, 0.0472, 0.2923, -0.1863, 0.5640, 0.4772, 0.1875, 0.1818, -0.3540, 0.5334, 0.3423, 0.0504, 0.1987, -0.2197, 0.2640, 0.2986, 0.0709, -0.2770, 0.0685, 0.1975, 0.1201, 0.1775, 0.0708, 0.2796, 0.4066, -0.3309, 0.2196, -0.0713, 0.1617, 0.4700, -0.0103, 0.1929, -0.2089, 0.1747, -0.2111, 0.4156, 0.0607, -0.3887, -0.0030, 0.3610, -0.0867, 0.2053, 0.4219, -0.2459, 0.4186, 0.1669, 0.1116, 0.1462, 0.1805, 0.3820, -0.2824, -0.2663, 0.2120, 0.2425, 0.1370, 0.2406, 0.1027, -0.2276, -0.0874, 0.1490, 0.2538, 0.2025, 0.0323, 0.4329, 0.1291, 0.5815, 0.0320, 0.2196, 0.1254, 0.0435, -0.2288, 0.3467, 0.0212, 0.2108, 0.3332, 0.1977, -0.1449, 0.2034, 0.2007, -0.2363, 0.3471, -0.2107, 0.0182, -0.1132, 0.2993, 0.2740, -0.1009, -0.5587, 0.2813, 0.1374, 0.4743, 0.3893, -0.1544, 0.0719, 0.2608, 0.2464, -0.0058, 0.0781, 0.1310, 0.0250, 0.3614, 0.2461, -0.0674, -0.2731, 0.0193, -0.2793, 0.4140, 0.4684, -0.1467, 0.0600, 0.0478, 0.0076, 0.5392, 0.1084, 0.3010, -0.1265, 0.5851, 0.2465, 0.4826, 0.3693, 0.0738, 0.1902, 0.0454, 0.1807, 0.2387, 0.2497, -0.3066, 0.2303, 0.0704, 0.1777, 0.1062, 0.3645, 0.1590, 0.1266, -0.0391, 0.3279, 0.3585, 0.2996, 0.1470, -0.3169, 0.4057, 0.0946, -0.5219, -0.0526, 0.1516, 0.1901, 0.4526, 0.3716, 0.0505, 0.1840, 0.2432, 0.4120, 0.2668, 0.4089, 0.2352, 0.0244, -0.1328, 0.1060, -0.3652, 0.1339, 0.2674, -0.0643, 0.1364, 0.1953, 0.0077, -0.4205, 0.1444, 0.1388, 0.2973, 0.1601, -0.2988, 0.4703, 0.0356, 0.2075, -0.2542, -0.0143, -0.0452, 0.0201, -0.1641, 0.4289, 0.2804, 0.2372, 0.0767, -0.0760, -0.0292, -0.0521, 0.1413, 0.1593, 0.0797, -0.1195, 0.3789, 0.3848, 0.1917, 0.3258, 0.0631, -0.3112, 0.0062, 0.3143, 0.1117, 0.0718, 0.3176, 0.1366, -0.3800, -0.0582, 0.4884, 0.1813, 0.1306, 0.0130, 0.3469, 0.2918, -0.0238, 0.0958, 0.0914, 0.2888, 0.3304, 0.2832, 0.3750, 0.0568, 0.4799, 0.5256, 0.4426, -0.0618, 0.4723, -0.2023, -0.2058, 0.2622, -0.0877, 0.2838, -0.0124, 0.2500, 0.3349, 0.2949, -0.0199, -0.2299, 0.2837, 0.3442, 0.2362, -0.0476, 0.4487, 0.2534, 0.2265, 0.3634, 0.0490, 0.2874, 0.3452, -0.0606, -0.0254, 0.0560, 0.0831, 0.3730, 0.2312, 0.4200, 0.2288, 0.3539, -0.3314, 0.2318, 0.1531, 0.3903, 0.4320, 0.3625, 0.0260, 0.3817, 0.0357, 0.3168, 0.2570, -0.0849, 0.4594, 0.3161, 0.1160, 0.2553, -0.2741, -0.2701, 0.3216, 0.1082, 0.5325, -0.1040, 0.2761, -0.0596, 0.1579, -0.1634, -0.0514, 0.3695, 0.3114, -0.2752, 0.0748, 0.1865, 0.2187, -0.1171, 0.0480, 0.2730, 0.1850, 0.1847, 0.3858, 0.0716, -0.3198, 0.4341, 0.2501, 0.2166, -0.2244, 0.0538, 0.2052, -0.0868, 0.0497, 0.2331, 0.0853, 0.3717, -0.0106, 0.0551, 0.5535, 0.4621, 0.3060, 0.2169, 0.2615, -0.0717, 0.2156, 0.1192, 0.0952, 0.2932, -0.3063, 0.0387, -0.1188, 0.1046, 0.0780, 0.3515, 0.2737, 0.3141, 0.4150, 0.1141, -0.0050, 0.4490, 0.1218, 0.3762, -0.1152, 0.0744, 0.3088, 0.1559, 0.3300, 0.3399, 0.2163, -0.0448, 0.4162, 0.2365, 0.0583, 0.3448, 0.2466, 0.2610, -0.1899, 0.3183, 0.2461, -0.0084, 0.3591, 0.0773, 0.3420, 0.1999, 0.0310, -0.1306, 0.3732, 0.1186, 0.3791, -0.0168, -0.2795, -0.0304, 0.3464, -0.1089, 0.0673, 0.2107, 0.3539, 0.0934, 0.2242, 0.3842, 0.0936, 0.4200, 0.4680, 0.2647, 0.4099, 0.2131, 0.3667, 0.2536, 0.1627, 0.1961, 0.0722, 0.1205, 0.0334, 0.1861, 0.0476, 0.3291, 0.2286, 0.2493, 0.3012, 0.1645, 0.0578, 0.4310, 0.4942, 0.4156, 0.3338, 0.5434, 0.4036, 0.3295, 0.1160};
#endif

#endif
