//Numpy array shape [2048]
//Min -3.789546966553
//Max 4.312465190887
//Number of zeros 0

#ifndef B151_H_
#define B151_H_

#ifndef __SYNTHESIS__
model_default_t b151[2048];
#else
model_default_t b151[2048] = {-1.2103, -0.1199, -1.9744, -1.2361, 2.4286, -0.0856, -1.1303, 0.1188, -1.6530, -0.5665, 0.5078, 0.7608, -1.0285, 0.6298, 0.0169, -0.5798, -0.3744, -1.2907, -0.2893, -0.4895, -0.7009, -1.6964, -0.8147, 0.4989, -0.0687, -1.0034, 0.8736, 1.9581, 0.4218, -0.3765, 0.2946, -1.7754, -0.7901, -0.3683, -0.7005, -0.2225, -1.5590, -1.3835, -0.3400, -1.4001, -0.8937, -1.3646, -0.8258, 0.2511, 1.1282, -2.3600, 0.0178, -1.4940, 0.3907, -0.3820, -1.5224, 0.0401, -0.0073, -0.2939, -1.6160, 0.4262, 0.5584, -0.9065, -0.0639, -0.0485, -0.9389, 0.0839, 0.3684, -0.4209, -0.8753, -0.8991, 0.8176, -0.4106, 0.5414, -1.1515, 0.1657, -2.0869, -0.4552, 0.4512, -2.4520, -0.1853, -1.2222, -0.1656, 0.3868, -1.1240, -0.1567, -0.7622, 0.0639, -0.7873, -0.8155, -0.1791, 0.8779, -0.9351, -0.3063, -0.3533, -0.4018, -1.9853, -1.1646, 0.2398, 0.0500, -0.2449, -0.9130, -1.7340, 1.2096, 0.8401, -0.6472, 0.3871, 0.4311, -0.8496, -1.4648, -0.2609, -0.0825, -0.6788, 0.1761, -0.6880, -0.2364, -0.2252, -2.7776, -1.7262, -0.1671, -0.6179, 0.0045, -0.4817, -2.3374, -0.0244, -1.1747, -0.4647, -1.5810, -0.0445, -0.9899, -0.5001, -0.7772, 0.6641, 1.3469, -0.3086, -1.6314, 1.1429, -2.7301, 0.8816, -0.9017, -0.3873, -0.1165, -0.8615, -0.3307, 0.6065, -1.1594, -1.2681, -0.1643, 1.5796, 1.6118, 0.2077, 1.9012, -1.5526, -1.7720, 0.3768, 0.1532, -0.0933, 0.0597, 0.6660, -1.9699, 0.0149, -0.4639, -1.4576, -1.4565, -1.8817, -0.6674, -3.4996, -0.0821, -2.9860, -1.6240, 0.0183, 0.3058, 2.2541, 0.1283, -1.4861, -0.9097, 0.9806, 0.7702, -0.8368, -1.4253, -1.0681, -0.1103, -1.1267, -0.6101, -1.6674, -1.5194, -0.1113, 0.5998, -1.3027, 0.0435, -1.1019, -1.1579, -0.1432, 0.0835, -1.9779, -1.4150, -0.1251, -1.4922, -2.1782, 1.0071, 0.7177, -1.7040, 1.0160, 0.7528, -0.0909, -0.4513, 1.1912, -1.2497, -0.3274, 0.2912, 0.4308, 1.9695, -0.3020, 0.1389, -1.0736, -0.2276, -1.4611, -0.7404, 0.6258, -1.4133, 0.9012, 0.1970, -1.8364, 0.1441, -1.2586, 0.6075, -0.9166, 1.0709, -0.7115, 0.1655, 0.0700, -0.9637, -0.6315, 0.6716, -1.5123, 0.8091, -0.1682, -0.1129, 0.5565, 0.3681, -0.0660, -0.1870, -0.5718, -0.4357, 0.7208, -0.9550, -0.9050, 0.8859, -0.6137, -0.0245, 0.4364, -0.8426, -0.9174, -0.2151, 1.0585, -1.3760, -0.8120, 0.0624, 0.7018, 0.8099, 0.6554, 0.9443, -0.5001, -0.2252, -1.3967, -1.1868, 0.5937, -1.9940, -0.8974, -0.4710, -1.4355, -1.1402, -1.0043, -1.1354, 0.6808, 0.7815, 0.5214, -1.2379, 0.4937, 0.0867, -0.0602, -1.9564, 0.3627, 0.3425, 0.3035, -0.8422, 1.1854, -1.0826, -0.0419, -0.1275, 0.1770, -1.3629, 1.5032, -1.8011, -0.5097, 0.0631, -2.5940, -0.4644, -1.1464, 0.4353, -1.1856, -0.7127, -0.9916, -0.8158, 1.2519, -2.0446, -0.9714, 0.5320, 1.4381, 0.1141, -0.0252, -1.4501, -0.2835, -0.8553, -1.2003, -0.7607, -0.3593, 0.3182, 0.1533, -0.2720, -0.5173, -1.1254, -1.2778, -0.3825, 1.5825, -2.1744, -0.8076, 0.4700, -0.1370, -2.4452, 0.0356, 0.6020, -1.1837, -0.3125, -0.3339, -0.6653, -2.0416, -1.8032, -1.7742, 0.7226, 0.5137, -1.4001, -0.7058, -0.8011, -1.4202, -0.8803, 1.0162, -0.7999, -1.7445, 0.4647, -0.6778, -1.1271, 0.0932, -0.1402, -0.9795, -1.8984, 0.1198, -0.8197, -0.2661, -1.9463, -2.0703, -0.3430, -2.1476, -1.0560, 0.3118, -0.8369, 1.1453, -1.0193, -1.7602, -0.0727, -0.6109, -0.2780, 0.2637, -1.0192, 0.1030, -1.7757, 0.7730, -1.3928, 0.1667, -1.0734, -0.8384, 0.6285, -0.1878, 0.1861, -0.0315, 1.3306, -0.6937, 1.2261, -0.8705, -0.6929, -1.8458, -0.0440, -1.0293, -0.8335, -0.2479, 0.0932, -0.8377, -0.6353, -2.1290, -1.4074, -0.9853, -0.2843, -1.4232, -0.2677, -0.7597, 0.2024, -0.2728, 1.9871, -1.0086, 1.9821, -0.6269, 0.0049, -0.9761, 2.0388, -0.0863, -1.6270, -0.9323, -1.5144, -0.4177, -0.7410, -2.3124, -1.5843, -1.1962, -1.6530, -0.6038, -1.3351, 0.0828, -0.7446, -0.0902, -1.3229, -1.5165, 0.0189, 0.1129, -1.3381, -0.2522, -0.3988, -1.9418, -1.2064, -0.4412, -0.2390, -0.1084, -0.8520, -0.6770, -2.1680, -0.9068, 0.5980, -1.6378, 0.6795, 0.2747, -0.2591, -2.4306, -0.2245, -0.2397, -0.9246, 0.5613, -0.8568, -0.5080, -0.7012, -2.0514, -1.6951, -1.3711, -0.6093, -0.4226, -1.5046, -1.7324, 0.9545, -2.0989, -2.1906, -1.5579, -1.3272, -0.3993, -2.4323, -1.4447, -0.3748, -1.6391, -0.8913, -1.4288, -1.1167, -1.1005, 0.2540, -0.5763, -0.8403, 1.4131, 0.8236, -0.9997, -1.3256, -0.7069, -0.7394, -0.6697, -0.7898, 0.5395, -1.3369, 0.2253, -0.1971, 1.9786, -1.9101, 0.0291, -0.8350, -1.5475, -0.3478, 0.4586, -1.9673, -0.2743, 0.2375, 0.3977, -0.3538, -0.0515, 0.7056, -1.0433, -1.1913, -1.7869, -0.4618, -1.5268, -0.4737, -1.9344, -0.4700, -0.2854, 0.6847, 0.0824, -0.9678, -0.2804, -0.5889, -0.6523, -0.9753, 1.9266, -0.9119, 0.0054, -0.9345, -0.5210, -0.3729, 0.7467, 0.6799, -1.4708, -0.4464, 1.5394, -1.9964, -0.7797, -1.4529, -0.9122, -0.0685, -0.5787, 0.9190, -0.3287, -0.3271, 0.7458, -1.1765, -0.5218, 1.7434, 0.7886, -0.9634, -2.5866, 0.5843, -1.3890, -1.5040, -1.0598, 0.0934, 0.0366, 0.2333, -0.4393, -0.0723, -0.3796, -0.2595, -0.7649, 0.9503, 0.1999, -1.9020, -0.0377, -1.6383, 1.9981, -1.2221, -0.6936, -1.7197, 0.0024, -0.6388, -1.0837, -0.4956, 0.2602, -0.1765, 0.2026, 1.1203, -0.5393, -0.0869, -0.5892, -1.0888, -0.7999, -0.3812, 0.2233, -1.5650, 0.1922, -0.3944, 0.1369, -0.3594, -3.4053, 0.1542, -0.6182, 0.1786, -1.0103, -0.4286, -1.3961, -0.7504, 0.6149, -1.7642, -1.6089, -1.5336, -0.7798, -2.5946, 0.3379, 0.0708, -1.2182, -1.7252, -2.0288, -0.1732, 0.2140, -0.2716, -0.7367, -1.1028, -0.2292, -0.0173, 0.3831, 0.4549, -1.7770, -0.4295, -1.0792, -1.0626, -1.0368, -0.4917, -1.7850, -3.2152, -1.5005, -0.2515, -1.4292, -0.9932, -0.2471, -0.1325, -0.9772, -0.1787, -1.0975, -2.9423, -0.9019, -1.3122, -0.6580, -0.0234, -0.1585, -1.4191, 0.5840, -1.9853, -1.4212, -0.3377, 0.0226, -1.4292, -1.1693, 1.5249, 0.7006, -2.3499, 0.4640, -1.4891, 0.1826, -0.4864, -1.1574, -0.9654, -0.6001, -0.1173, -0.6558, -0.8278, -1.9669, -0.0534, -2.1979, -0.9087, 0.1996, -0.0772, -0.4131, -0.0934, 0.0859, -1.7596, -1.9408, -1.8343, -1.0380, 3.1198, 0.0955, -0.1339, 0.3509, -1.0425, 0.0757, -0.7715, -0.0657, -1.6410, -0.2675, -1.4921, -1.1840, -1.4842, -1.0724, -0.4382, -0.2616, -0.5212, -0.6795, -1.2785, -2.0307, -0.9967, -1.4055, -0.6013, -1.0521, -0.0173, 0.4552, -1.3327, -0.6777, -1.4300, -0.6851, -2.9783, 0.4278, -0.2180, -0.4584, -0.8217, -1.9368, -1.3348, -0.3790, -1.1532, 0.1530, -1.3133, 0.6795, -0.0125, 1.1320, 1.2249, 0.0425, -1.9360, -2.5098, -0.9096, -0.2567, -1.3525, -0.9541, -0.4327, 0.6878, 0.1761, 0.0630, -1.7901, -2.1985, -0.9332, -2.3990, -2.2163, 0.1460, -0.9238, -1.3317, 0.7980, -2.0036, -1.4456, -1.6101, -0.4898, 0.1910, -2.5593, -0.4722, -0.2266, -0.0831, 0.0219, -1.6148, -0.4213, -0.3838, -1.3536, 1.2839, 0.0839, -1.6844, -0.3162, -0.3228, -0.9758, -0.6178, 0.3336, -0.1494, -0.2479, -1.4667, -0.2610, -1.2525, 0.3893, -0.5830, -0.7610, -2.0552, -1.0692, -0.2962, -2.0794, -1.0752, 0.3466, -0.8242, -0.7525, -1.5020, -0.7686, 0.8970, -1.1435, -1.6022, -2.1103, -0.2944, 0.3376, -1.5049, 0.2649, 0.3088, -1.1950, -1.2340, 0.0314, 0.8500, -0.0491, -1.2441, 0.0765, -0.1777, -1.4484, -1.4696, 0.2788, -2.3093, -0.0483, -0.6094, -0.7404, -0.7630, -0.4432, -1.4842, -2.1829, -1.4958, -1.2904, 0.6196, 0.0920, -1.1571, -0.4644, 0.1828, -1.1256, 2.9327, -1.0904, 0.8975, -1.6334, -1.8008, -0.3812, -1.8171, -0.5587, 0.0343, -0.7708, -1.1678, 0.5787, 0.3045, 0.0844, 0.2274, -0.1418, -2.8010, -0.8655, -0.2254, -0.3369, 0.3123, -2.4816, -0.3345, 0.3790, -1.6245, -1.1914, 0.1849, -0.1383, -1.4739, -1.5018, -1.7040, -1.5302, -0.7285, -0.1205, -1.4140, -0.4657, -1.1164, -1.0827, -1.6635, -0.7471, -0.7650, -0.8260, 0.9345, -0.0501, -1.4889, 0.8144, -0.9802, -1.0786, -1.8832, -0.9130, 0.8073, 0.7635, 0.1497, -0.1087, 0.2801, -0.0364, -0.6019, -0.8521, -0.7358, -1.1223, 1.0912, -0.4661, -0.5661, -0.5183, -0.2502, -1.5963, 0.3398, 4.3125, -0.5168, -1.6683, -0.8778, 0.5320, -0.6560, -0.5329, 1.0002, -0.5740, -1.4528, -0.1784, -0.0100, -0.2606, -2.3990, -0.1756, 0.2058, -1.2740, 0.4836, -0.7474, -0.3320, -2.7479, -0.4400, -0.9337, -0.2412, -0.6930, -0.9277, -0.7433, -1.4684, -0.7359, -0.2218, -2.0694, -1.0170, 0.4498, -1.9294, 0.7564, -0.0199, -0.0179, -2.5723, -0.5599, -0.4136, -0.6908, -2.4840, 0.1981, -1.1184, -0.6100, -0.5156, -0.2873, -0.4672, -0.8836, 1.6030, -1.7641, 0.0017, -0.3868, -0.2929, 1.0780, -0.7815, -0.2914, -0.1833, -0.8484, 1.3003, -0.6786, 2.4495, -0.3156, -1.2104, -2.0531, 1.1025, 0.4636, -0.1405, -0.8440, -1.5040, 0.5589, 0.1554, -0.3846, -0.2041, 1.2524, -0.6161, -0.2554, 0.3180, -1.0989, -1.5547, 0.0615, -0.1362, -1.1861, -3.2572, 0.0150, -0.1262, -1.4511, -1.3897, 0.9951, -0.2017, 1.1251, 0.3800, -1.4643, 1.6651, 0.5283, -0.1872, -0.2251, -0.8145, 0.3126, -1.2430, -0.8205, -0.4071, -1.5142, -0.5521, 0.0993, -0.2727, -1.9550, -0.0607, -0.4008, -0.9661, 0.7390, -0.2857, -1.8159, 1.1005, -1.3525, 1.0188, -1.8831, -0.7676, -0.5407, -1.1821, -1.4724, -1.1033, -0.4979, 0.2849, -0.2365, -1.0213, 0.2494, -2.1301, 0.1696, -0.6829, 0.4425, -0.4259, 0.1040, -1.1855, -0.4562, 0.1293, -0.9595, -0.4298, -0.4815, 0.2515, -0.0545, -0.0859, -0.4456, -3.2523, -0.9955, 0.5186, -1.5852, 0.4075, -0.4296, -2.0723, -0.7077, 0.0766, -2.2858, -1.6905, -0.9079, -1.2699, -1.5145, -0.9791, 0.0538, -0.4187, 0.5289, -0.0394, -0.7298, -1.2887, 0.0968, -0.2506, 0.2507, -2.0517, 0.0410, 0.2556, -0.1861, -0.1467, -1.0583, -2.6552, -1.3636, 0.2590, 0.1751, -0.6491, -0.9328, -0.4753, -1.2627, -0.6894, -1.0845, -1.1846, -0.1534, -0.1215, -0.6952, 1.2487, -0.3344, -0.9071, 0.0742, -0.1548, -0.4680, -0.3877, 0.1701, -0.2909, 1.3458, -0.5004, -1.3572, -0.9675, -0.8667, -1.3488, 0.5991, -1.2034, 1.0889, 1.3123, -0.5885, -0.4256, -1.3502, -0.8546, 0.3198, -1.5233, 0.7907, -1.1045, 1.1639, 2.6515, -1.4448, -0.4349, -0.4666, -0.1478, 0.2974, 0.3079, -1.2400, -0.3758, -1.4394, -0.4294, -0.2191, -0.7591, -2.3706, -0.2656, -1.2698, 0.9245, -0.5683, 0.4366, 0.3809, -0.2159, -0.5744, -0.3290, -0.3124, 0.5895, -1.5569, -1.1529, -0.7833, 0.3368, -1.1409, -1.4930, -1.0212, -2.1123, -0.2396, 0.1855, 0.1258, 0.8756, -2.1366, 0.7277, -1.6757, -2.5707, -1.5016, -0.0735, -1.3496, -0.0153, 0.1680, -0.9303, -1.9258, -0.1876, -0.8663, -1.0541, -0.5920, -0.9202, -1.4467, -2.8655, 0.2024, -1.7486, -0.7263, -1.2843, -0.5200, -0.6112, -1.6493, -1.4081, -1.9577, 0.4046, -0.1383, -0.8936, -1.1197, -0.6180, -1.1029, 0.7674, -0.5558, -0.7827, -0.0245, -0.0577, -0.3964, -0.1829, -0.6275, 0.3073, 1.0650, 0.3930, -1.1969, 0.7120, -1.0549, -1.7212, 0.7075, 0.2248, 0.2177, 0.1302, 0.5427, -0.1779, -0.5290, -2.0994, -1.5086, 0.1080, -0.7386, -0.7406, 0.3034, -0.4931, 1.3075, -0.1872, -1.1222, 0.1000, -0.4378, 0.6054, -0.6203, -0.8944, 0.2596, 1.6532, -0.3917, -0.6527, -1.4816, -0.2880, 0.7015, -1.5249, -2.1910, -0.9465, -1.0515, -1.7448, -1.2408, -1.7822, 1.1534, -0.1131, -0.6217, 0.2342, 0.4475, -0.9857, -0.5701, -1.2530, -2.1785, -1.1467, 2.7537, -3.7895, -1.2616, -1.6173, -1.6212, -0.1509, -0.4776, 0.5116, -0.5231, -0.4536, -0.6510, -0.2380, -0.4204, -1.1431, 0.0536, -0.4107, 0.6906, -0.3186, -0.7564, -1.2363, -0.8800, 0.5996, -0.0000, -0.2952, -1.1872, 0.0199, -0.9333, -0.9154, -0.7043, 1.4224, 0.4584, -0.6146, -0.9408, -0.8071, -1.1964, 0.0656, 0.3904, 0.4727, -2.3289, -1.1227, -1.2035, -0.5228, -1.1303, 0.1658, -0.4615, -0.3603, -0.2591, -0.1540, -1.3144, -0.7976, -0.1288, -0.4277, -0.3768, -0.3273, 0.2243, -1.7219, -1.1159, -0.0971, 0.5908, -0.7007, -0.2155, -0.2287, -0.7027, 0.2075, 0.2129, -0.8125, -0.3158, -0.4468, -0.9579, 0.3457, -1.1533, -1.4751, -1.8101, -0.9296, -1.1258, -1.3299, -0.7622, 0.0371, -1.9767, -0.6303, -0.8595, 0.2480, -1.1260, -1.2071, -0.8332, -0.0292, 0.6746, -0.9414, -0.6103, -1.5737, -0.2479, 0.1529, -0.7571, -1.0678, -0.8051, -0.0118, 0.0576, 1.2991, -1.2747, 0.0054, -1.6437, -0.6816, 0.7186, -0.8761, -0.7781, -1.4316, -2.2765, -1.4897, -0.1968, 0.3733, 1.0174, -0.3006, -1.1427, 0.3882, -0.3959, -0.0723, -0.7437, 1.5025, 0.5089, 0.4297, 0.5155, 1.6428, -0.8875, -0.7828, 1.9591, -1.8038, -1.7325, -0.6846, 0.0847, -0.0547, -2.8033, -0.0921, 0.0323, -0.8288, 0.7720, -0.6728, -0.4152, -0.4977, -1.0786, -1.6099, 0.1524, 0.7021, -1.5476, -1.7187, 0.2628, -0.2818, -0.2540, -0.5955, -1.2833, -0.9892, 0.6694, -0.3190, -0.2928, 0.6143, 0.3521, -0.7927, -0.2841, -0.2836, -1.5287, 0.0637, -1.4762, -1.2901, -0.8890, -0.4322, -0.9624, -1.1161, -0.5988, -1.6423, -2.1661, -0.2792, -1.0540, -1.0868, -1.4294, 0.1445, -0.8726, -1.9139, -0.4489, -1.3660, 0.2413, -1.1318, -1.3167, 1.1288, 0.0649, 0.0041, -1.2476, -1.0155, -0.6327, -0.8880, 1.3345, -1.7749, -0.7155, -0.6664, -0.0753, 1.3919, 2.3556, -0.8097, 0.5774, -1.0142, -0.2940, -0.9271, -2.4396, -1.9197, -1.5017, -1.4393, -0.9294, -0.7651, 0.5454, -1.1350, 0.5389, -0.5084, -0.5499, -0.6831, -0.2487, -0.2781, -0.2896, 1.5284, 0.5520, -2.7601, -1.5065, -1.7969, 1.2694, 0.8472, -0.2098, -1.0998, -0.0529, -1.2083, -2.6744, -1.4187, 1.0657, 0.0385, -1.4236, 0.0291, -1.9299, -0.3357, -0.8965, -0.0635, -0.9156, 0.2623, -0.8517, -0.4650, -1.1613, -1.1881, -1.4848, 0.9012, -1.5066, -0.0110, -0.3273, 0.8090, -1.2079, -1.2496, 0.4459, -0.3093, -2.4216, -1.0730, -1.8974, -0.9569, -0.3347, 0.7098, 0.5318, -0.8424, 0.5389, -0.4378, -0.3534, -1.4305, 0.1382, 0.0714, -1.4166, 1.1933, -1.0096, -1.8530, -0.5117, -0.9854, -0.1993, -0.6201, -1.3763, 0.1015, -1.8548, 0.1509, -1.0916, -0.8493, -1.0872, -0.3903, 0.6811, 2.5408, -1.7686, -1.6977, -0.7894, -0.4491, -0.1377, 0.0904, -0.6764, -0.9105, 0.1002, 0.2325, -1.4348, -1.7924, -0.7906, -0.9142, -1.4131, -0.8191, -0.6658, -0.5052, 0.4401, 1.0679, -0.5057, -0.2521, -1.0737, -1.2536, 0.2272, 0.2870, 0.7354, 0.0825, -1.2850, -0.1121, -0.3604, 1.7104, -1.5174, -2.4104, -0.0639, -0.7084, -1.9741, -1.6234, -1.5897, 0.1654, -1.7054, -1.1464, -0.1834, -0.7802, -0.4096, 0.6800, 1.1426, -0.4585, 0.1943, 0.2429, 0.1841, 0.1503, -0.0270, -0.5511, -0.4747, -2.2781, -0.2675, -0.5418, 0.0768, -1.7502, -1.2366, -0.5500, 0.3527, -0.0514, 0.9969, -0.0514, -0.5663, 0.2898, -0.3969, -0.9734, 0.4908, -0.3503, -0.8191, 1.2507, -0.6035, -1.4913, -0.4230, 0.3710, -0.7913, 0.2136, 0.6949, -0.6705, 0.4067, 0.9286, -0.1870, -0.5878, -0.8949, -0.4619, 0.0520, -0.8782, -0.9075, 0.6549, -2.8498, 0.2382, -1.5549, 0.0268, -1.9459, -1.3102, -1.5225, -0.7207, -0.4953, -1.3318, -0.1183, -0.2742, -1.0570, -1.0187, -0.2978, 1.2456, -0.0404, 0.6944, 0.3045, -1.3478, -2.3702, -1.4483, -0.4543, 0.2273, -0.1226, 0.0127, -1.2645, -1.1548, 0.9093, 2.2237, -0.9718, -2.4581, -1.6806, -0.9060, -0.8407, -0.1850, 0.1794, -0.7189, -0.8856, -1.9409, -0.5512, 0.2627, -0.3360, -0.5584, -0.2241, -0.6385, -0.2295, -1.2587, 1.9447, -0.9850, -1.3835, -1.8351, 0.1308, -0.8155, 0.9264, -0.3250, 0.0809, -1.2297, -1.6053, -0.3557, -1.0840, -0.3318, -1.7121, -0.6747, -0.2587, -1.0843, -0.8857, 1.1311, -0.2110, -0.4557, -1.4491, -1.5188, 0.7895, -1.0891, -0.6207, 0.4094, -0.4396, -0.1706, -2.1126, -0.9434, -0.1175, -1.3208, -2.2034, -0.7223, -1.1373, -0.4424, -1.2005, -0.6881, -0.7700, -0.6640, -2.5497, -0.7144, 0.3411, 0.5362, -1.4799, -1.3634, -1.0931, -2.9546, 0.4509, -1.8071, -1.3096, -0.7379, -0.2573, 1.3644, -0.6539, 0.2400, 0.6421, -0.5099, -1.1097, -1.2156, -1.7516, -1.4516, -0.5504, -1.1425, -0.8700, -0.2926, -1.3402, -0.9440, 0.7646, -0.0488, -0.0053, -0.7302, -0.1640, -1.3841, 2.0196, -1.8072, -1.4886, -0.0653, -0.8659, 0.6277, 0.1435, -0.6089, -1.7775, -1.8943, -0.2321, 0.2701, -0.8026, -1.2217, -0.1586, -1.5726, -0.7741, -0.0650, -1.2986, -2.3098, -0.9688, -0.8316, -0.4731, -0.9156, 0.0225, -1.4134, -2.0803, -1.9830, -0.2946, 0.5824, 0.1969, -1.4551, 0.1593, -0.1932, -0.9176, -0.4725, 0.2465, -0.8029, -0.9831, -0.8659, -0.1144, 0.3833, 0.1122, 0.7394, -1.4054, -0.0347, 0.0395, -0.6653, -1.2378, -1.3833, -2.1267, 1.4653, -1.5099, -0.5003, -0.4657, 1.0880, 0.7333, -2.0694, 0.2495, -0.9921, -1.0107, 0.9190, -1.0768, 1.6444, -0.9351, -0.6964, -0.7588, 0.5090, 1.0677, -0.6396, -1.2472, 0.3462, 0.0338, -1.0380, -1.1049, -1.0358, 0.4305, -1.3610, -0.1693, -0.3414, -1.1499, 0.1166, -2.0849, -1.7843, -0.4434, 0.2223, 0.6947, -0.0884, 0.0705, -1.2509, 0.2638, 0.4550, -1.1242, -1.7387, -1.1222, -0.2928, -1.1731, -1.3675, -1.8993, 0.1587, 1.2362, -0.3364, -1.4830, -1.9880, 0.2682, -0.7795, -0.4870, -1.4855, -0.3706, -0.6192, -2.1582, 0.5821, 1.0912, -0.1163, 0.5522, -0.0859, 0.9657, -1.3499, -0.7831, -1.0703, -0.9762, -0.2263, 0.3067, 0.2566, -0.1115, 0.7561, -0.2787, 0.1817, -1.7762, -2.4695, -1.1452, 0.3620, -0.8974, -0.3250, -0.8658, -2.0834, 0.1970, -2.3363, 0.2929, -0.9362, -0.9060, 1.2817, 0.2844, -0.8277, 0.9661, 1.1213, -1.4837, -1.0597, 0.1650, 0.8761, -1.1610, -0.3396, -0.8252, -1.4786, -0.4790, 0.5999, -0.1157, -0.4803, -1.3728, -0.1781, -1.1782, -0.3454, -0.0043, -1.4033, -0.6784, -1.5841, -0.1787, 0.9457, -0.9844, -0.2373, -1.2311, -2.0643, 0.9900, -0.0461, 0.3792, 0.8156, 0.1862, -1.5384, 0.1157, -1.6771, 0.4083, -0.2738, -0.4875, 0.0781, -0.5775, 0.4727, -0.4312, -0.8441, 0.5005, 0.2270, -0.5364, -0.2193, -2.6432, 0.2108, 0.0033, -0.5476, 0.5075, -1.5854, -0.9734, -1.0130, 0.1130, -3.2977, -0.0580, -0.2849, 1.5346, -0.2015, -1.0764, 0.4598, 0.5772, -0.1646, -0.0941, -1.1372, -0.9132, -0.2762, -1.6123, -0.8907, -1.2642, -0.7497, -0.6240, 0.4858, -0.5208, -0.0456, -0.3832, -1.2683, -0.1093, -1.1984, 0.4558, -0.6682, -0.9773, -1.1131, -1.2568, 0.7609, -2.0730, -1.6252, -0.3172, -0.7131, -1.6856, -0.4419, -0.5306, 2.9453, 0.6297, -1.7840, -1.5351, -0.0329, -1.1152, 0.2615, -0.6950, -0.6953, 0.0599, -0.2146, -0.5234, -2.6593, 0.2098, -0.4568, -0.2163, -0.2563, -0.6232, 0.3366, -0.6942, -1.4369, -1.3790, 1.5079, 1.2027, -1.1450, 0.2304, -1.1073, 0.1786, -1.1659, -2.0870, -0.1304, -0.2846, 0.0244, -1.2499, 3.4668, -0.8606, -1.4506, 0.7850, 0.9458, -0.9438, -0.3892, -0.7407, -0.7843, -1.4403, -0.4045, -0.4684, -1.1017, -0.0255, -1.3618, 0.0098, -0.6317, -0.3823, -1.3875, -1.5129, 0.0789, 0.2206, -1.0394, 0.5081, 0.1135, -0.5067, -0.2935, 0.5799, -0.8356, -1.7832, 1.2538, -1.2206, 0.4821, 0.1179, -1.3256, 0.0877, -1.1292, -1.7230, -0.3651, -1.5405, -1.0627, -1.1676, -0.9681, -0.5657, -0.9748, -1.2349, -1.0138, -1.0164, -0.8890};
#endif

#endif
