//Numpy array shape [256]
//Min -2.646781206131
//Max 3.276104450226
//Number of zeros 0

#ifndef B35_H_
#define B35_H_

#ifndef __SYNTHESIS__
model_default_t b35[256];
#else
model_default_t b35[256] = {0.3196, -0.9715, 0.1082, 1.4183, 0.1932, 0.2479, -0.4856, 0.6032, 1.0094, 0.3382, 0.3522, -0.5852, 1.5652, -0.6107, -1.2036, -1.1251, -2.3974, 1.0740, 0.0834, 0.9996, -0.0369, -0.1649, -0.0733, -1.7182, -0.1776, 0.1728, -0.0256, 0.0274, 0.1601, -0.1237, 0.4239, -0.0101, -0.3148, -0.0543, 0.0896, 0.0307, 0.0066, -0.4018, 0.2420, 0.0423, -0.0143, 0.0057, 1.3739, 0.0009, 0.2284, 0.5845, 0.0448, -0.2236, -0.1166, -0.0036, 0.0164, -0.4100, 0.0156, -0.1683, -0.0006, 0.1194, -0.2065, 0.1194, -0.8340, -0.0615, -0.7624, -0.4188, 0.9211, 0.5367, -0.1269, -0.0036, 0.4968, -0.4885, 0.5807, -0.1521, 0.0286, 0.0072, -0.6211, 0.0241, -1.3020, 0.1806, -0.8344, 0.0726, -0.0911, 0.7356, 0.0559, -0.1282, -2.3225, -0.0165, -0.0939, -0.0441, 1.4932, 1.2601, -0.2468, 0.0695, -0.2784, 0.4655, -0.3023, 0.6695, 0.8948, -0.8511, -0.7251, 0.0046, -0.0197, 0.0267, -0.0839, -0.0117, -0.0280, 0.3401, -0.7195, 1.1341, 0.0385, -0.0306, 0.0196, -0.0019, -1.7649, -0.3591, -0.7988, -0.4025, 0.0969, -0.3218, 0.1273, -0.0820, 0.0108, 0.0137, 0.2468, 0.0674, 1.0017, -0.1187, 1.4052, -2.2357, 0.0351, -0.2727, -0.6276, 1.2486, -0.0431, -0.4289, 0.4017, 0.0960, 0.0432, -0.0027, -0.1890, 0.1347, 0.0753, 0.0480, 0.0032, 0.0505, -0.1095, 0.1333, -0.4778, 0.9790, 1.1751, -0.0071, -0.0102, 3.2761, -0.0010, 0.1898, 2.1099, -1.6302, 0.0478, 0.0680, -0.7015, 0.2659, -0.1148, -0.5727, -0.3222, -1.4351, 0.2285, 1.8960, -0.0408, 0.2657, 0.0882, -0.3781, -0.3647, -0.0397, -0.6437, 1.2268, 1.1681, 0.1890, -0.1278, -0.7872, -0.0047, 0.0987, -0.1569, -0.2689, 1.3733, -0.0980, -0.0136, -0.0033, 0.2609, 0.4352, -0.4242, -0.1366, 0.9364, -0.2838, -0.9973, 0.2557, -0.1740, 0.1722, 0.1916, -0.1841, -0.0195, -0.2660, -0.0320, -0.2409, 0.1940, 0.2106, -0.0165, 0.0192, -0.3479, 0.5277, 0.0085, 0.0260, -0.0214, 1.1917, -0.2053, 0.1071, 0.8966, 1.9458, 0.4133, 0.2089, -0.1582, -0.5209, -0.5390, -0.0140, 0.1448, 1.6215, -0.1152, -1.2217, -0.2201, -0.0802, 0.1254, 0.1338, -0.0046, 0.3219, -0.5570, -0.4980, -0.8965, 0.0291, -1.1308, 0.1761, -0.2497, -0.0136, 0.5963, -0.0918, 0.8304, -1.0445, 0.1719, 2.3250, 0.3116, 1.3180, 0.5002, 0.0175, -0.3457, 0.0119, -0.0208, 0.8949, 0.2316, -2.6468, -0.0433, -0.8640};
#endif

#endif
