//Numpy array shape [128]
//Min -0.867677748203
//Max 2.369338274002
//Number of zeros 0

#ifndef B42_H_
#define B42_H_

#ifndef __SYNTHESIS__
model_default_t b42[128];
#else
model_default_t b42[128] = {0.3326, 0.3072, 0.1657, -0.3213, 0.0708, 2.3693, -0.1326, 1.4312, 0.8105, -0.3463, 0.5862, 0.3765, 0.5623, -0.2752, -0.6010, 0.7544, -0.0975, -0.1533, -0.1887, 0.7867, 1.3016, -0.0531, -0.0808, 1.1356, 0.0447, 1.6517, 0.7726, 0.0308, -0.4561, 1.0816, 0.6344, 0.2940, 0.7723, 0.3160, 1.7168, 0.8553, 0.3675, -0.1551, 1.6374, -0.1035, 0.7742, -0.3767, 1.9611, 0.2972, 0.2390, 1.4404, 0.3949, -0.1348, 1.2099, 0.8449, 0.7259, 0.8923, 0.4566, 0.8380, -0.8677, 0.0289, 0.3985, 1.1688, 0.0116, 0.0038, 0.7273, 1.3580, 1.3985, 1.0450, 1.5430, 0.1793, 0.9313, 0.5360, 0.7909, 1.4281, -0.2560, 0.3693, -0.0162, -0.4164, 0.2460, 1.0053, 0.2374, 0.4152, -0.0989, 0.1031, 0.7190, 0.6936, 0.8949, 1.2626, 0.6784, 0.6881, -0.1114, 0.2390, 0.4495, 0.0953, -0.3306, 0.3087, 1.5607, 1.0531, 1.2471, 0.7476, 0.1402, 1.2419, -0.3459, 0.4203, 0.9966, 0.6021, -0.0105, 0.9529, 0.1380, 0.6294, 0.2630, 0.5750, 1.7392, -0.2536, -0.1954, 1.1459, 1.2396, 0.5337, 0.6315, 0.5335, -0.0345, -0.4051, 0.7750, 0.1342, 0.7376, -0.2321, 0.3289, 0.3305, 1.3700, 0.6852, -0.6011, -0.1972};
#endif

#endif
