//Numpy array shape [512]
//Min -2.760106325150
//Max 6.210332870483
//Number of zeros 0

#ifndef B47_H_
#define B47_H_

#ifndef __SYNTHESIS__
model_default_t b47[512];
#else
model_default_t b47[512] = {0.3793, 0.1446, 0.8007, 0.4882, 2.1202, 1.0986, -0.3870, 2.8626, -1.0515, 0.2536, -0.3386, -0.2060, 0.1231, 1.1324, 0.4725, 0.1238, 0.3968, 1.3277, -0.0126, 1.1831, 0.2494, 0.1546, 1.0731, 0.1363, 1.1714, -0.6526, -0.2958, 1.2639, 1.9170, 2.2494, -0.0192, -0.1976, -0.8434, 0.0979, -0.0500, -1.1283, -0.3212, -0.3869, 0.9011, 0.9774, 1.1187, 0.9277, 0.2539, 2.3942, 0.3340, 0.9945, -0.1762, -0.2219, 0.3861, 0.4743, 0.3722, 3.0325, 0.9918, 1.1279, 1.5557, 1.3888, -0.3213, -0.0556, -0.1949, 0.0545, 0.2236, -0.1914, 0.2937, -0.2599, 0.4264, 0.5677, 0.3391, 1.2015, 1.4539, 0.2049, -0.4682, 0.3437, -0.1937, 0.4355, 0.1109, 0.1396, -2.7601, 0.2509, 0.3050, 0.4171, 2.3110, 0.5805, -0.2294, -0.7146, 0.7974, -0.2170, -0.2910, -0.0157, 0.6637, 0.8616, -0.0253, -0.0666, -0.1675, 0.5246, 0.3955, -0.0735, -1.5978, 0.4796, 0.3534, 1.0171, -0.3725, 0.1338, -0.3856, -0.2357, -0.2487, -0.5900, 0.1177, -0.6115, 0.3837, -0.1656, 1.0849, -1.1182, 0.8563, 0.0746, 0.1465, -0.3663, 0.7668, 0.2412, 1.6625, 0.1856, 0.6655, 0.5824, 0.1497, 0.1417, -0.5354, 0.4244, 0.0186, 0.1067, 0.8374, -0.2822, 0.1543, 0.1227, -0.1857, 0.0081, 0.3887, 0.1028, -0.0410, 0.4858, 1.3384, 2.2425, 0.1515, 2.1083, 0.2960, 0.4249, 0.1286, 0.6811, 0.3785, 1.2609, 2.6170, 0.8924, -0.1647, -0.4748, -0.0001, 1.5143, -0.0897, 0.0154, 0.4367, -0.9282, 5.0762, 0.8568, -0.0286, 1.1011, 1.3510, 0.7410, 1.5767, 1.9048, 0.7834, 1.8772, 0.0415, -0.3792, 1.0658, -0.8241, -0.2295, 1.4229, 0.7793, 2.1940, 0.1885, 0.7568, 0.6858, 0.0337, 1.4444, 0.1651, 0.3686, 0.9268, 0.0968, 1.5432, -0.2010, -0.1902, 1.4661, 0.9665, -1.1497, 0.5327, 0.2587, 0.7232, 0.6503, 1.1860, 0.1141, -0.1576, 0.2902, 1.3475, -1.4838, -0.1775, 0.3119, -0.1207, -0.0596, 1.3002, -0.1952, 0.2370, 0.2470, 0.5185, -0.5311, -0.4575, -0.2179, 2.8930, -0.9974, 0.2328, 0.6878, 1.0801, 0.7667, 1.5413, 0.5492, 0.1827, -0.3954, 0.2323, 0.0861, 1.0365, -1.3188, -0.0622, 1.4961, 0.0654, 0.2224, 0.4696, -0.3659, -0.6418, 2.4666, 0.0214, 0.4203, 0.6539, -0.4694, 0.4735, 0.5233, -0.6602, -0.6529, 1.8815, 0.7496, 0.0975, 0.9246, 6.2103, 4.7826, 0.1578, -0.3902, 1.4684, -0.8900, -0.0164, 0.3295, -0.4415, 1.6437, 0.3383, 0.8386, 0.8285, -0.2701, 0.1621, 0.2947, -0.1967, 0.7777, -0.2373, 0.5543, 0.0839, -0.5282, -1.7170, -0.1040, 0.5244, 0.0534, -0.2473, 1.2315, -0.4395, -1.0352, -0.0707, 0.8735, -0.5823, 0.6657, -0.2990, -0.2049, 0.3616, -0.2631, -0.3480, 0.2780, -0.4345, 1.3694, -0.0053, -0.8397, 0.7934, -0.4852, 2.2031, -0.2797, 0.5725, 0.2805, 0.1644, 1.0831, 0.2250, 0.5248, 1.1883, 0.2459, -1.5281, 0.1467, -0.7370, 1.1504, 0.2123, -0.6048, 0.4257, 1.4234, 0.5279, 0.6098, 0.0375, 0.2534, 1.0166, -0.0484, -0.3625, -1.6673, 1.3148, 0.8918, 2.7199, -0.2052, 1.8302, 0.1158, 0.0011, 0.6127, 1.4565, 0.1274, 0.2836, 0.9349, 0.3413, -0.0030, -0.2807, 0.4970, 0.8919, 0.4676, 4.2171, -0.3968, 2.1282, -0.3737, 0.6154, 0.1061, 0.2840, 0.5201, 1.7084, -0.1858, 0.1664, 0.4417, -0.0732, -0.4298, 0.1201, 0.7057, 0.6236, -0.0727, 0.0082, 2.1109, -0.3056, 1.9689, 1.1546, 0.7164, 0.2164, 0.3308, 0.2353, 0.7053, 1.1203, -1.7642, 0.7806, 0.3993, 1.0380, 1.5087, 0.1534, 0.0476, 1.9907, -0.1605, 1.3627, 1.0513, -0.3953, 3.0045, 0.8714, -0.4422, 0.2679, -0.1564, 0.2787, -0.3871, 1.6182, 1.5590, 0.4617, 0.5939, -1.3611, 0.6110, 1.3601, -0.0458, 1.4639, -0.4072, 0.9491, 0.2620, -1.5100, 1.0249, -0.6728, -0.2279, -2.4472, 0.4047, -0.1346, -1.5080, 1.3546, -0.1997, 1.0394, -1.9581, -0.2336, 0.9009, -0.2184, 1.3852, 2.5228, -0.2094, 1.0584, 1.1416, -0.3848, 1.5955, 0.5939, 1.4115, 0.3144, -1.0145, 2.3611, 0.3552, 2.5599, -0.2547, 2.9724, -1.6703, 0.5175, -0.4295, 0.6294, 0.2981, 0.3965, -0.2505, 0.7558, 2.4502, -1.4282, -0.7508, 0.3213, 0.6033, 2.1209, 0.0051, 2.5810, -0.3678, 0.7057, 1.0608, -0.0251, 0.3713, 0.5939, -0.3982, -0.9473, 0.2792, -0.6919, 0.0002, -0.4841, 0.7146, 0.7532, 0.9808, 0.0408, 0.1505, -0.3424, -1.4991, 1.2773, -0.7041, 1.5965, 0.9129, 1.0530, 1.2495, 1.1967, -0.5471, 0.4745, 0.0207, 0.1765, -0.1406, 1.8008, 0.5646, 1.4649, 0.4395, 0.6731, 0.1085, 0.6216, 1.5492, 1.0358, 1.1993, 0.1674, 0.4072, -0.3668, 0.4706, 0.1397, 0.6866, 0.0708, -0.1549, 0.3012, 0.6884, 1.7713, 3.1224, 0.0704, 0.1173, -0.2660, 0.0557, -0.1505, -0.1291, -0.6259, 0.4026, -0.8480, 1.3381, 1.2198, 0.9108, -0.5056, -0.0621, 0.8047};
#endif

#endif
