//Numpy array shape [128]
//Min -2.101335287094
//Max 2.914025783539
//Number of zeros 0

#ifndef B51_H_
#define B51_H_

#ifndef __SYNTHESIS__
model_default_t b51[128];
#else
model_default_t b51[128] = {-1.3966, 0.3717, -0.4354, -0.5978, -1.3488, 0.6428, -2.0823, 0.5545, 0.0347, 1.6320, 0.4028, -0.5319, 0.0186, -1.8307, 0.9610, 0.2022, 0.1017, 0.5876, 0.2454, -0.4454, 0.5006, -0.4573, 0.2740, 0.2891, -0.5563, 0.4178, -0.2757, -0.4506, -0.4959, 0.8480, 0.2900, -0.5642, -0.1721, -0.8176, 0.5897, -1.1834, 2.9140, 0.3481, 0.0409, 1.7787, -0.9677, 1.0845, -0.3012, 0.0343, -0.7147, -1.8686, -0.8794, -0.9327, -2.1013, 0.9492, 0.3207, -0.5640, 2.3066, -0.8936, 0.8797, 0.5705, 1.0434, -0.2198, 1.5500, -1.4746, -1.5219, 0.6757, -0.4068, 1.0772, 0.4225, 0.3757, -0.1159, -0.6965, 0.9453, 1.2960, -1.7912, -0.8504, -0.9975, 0.5131, 0.2157, 0.5335, -0.3225, -0.1892, 1.3255, 1.2085, -0.2667, -0.5619, -1.4012, 0.7523, -0.9360, 0.6601, -1.3686, -0.3938, -0.4954, 0.4507, -0.0191, -0.2581, 0.0999, -0.2797, -0.7094, 0.5757, 0.8126, 0.3404, -0.5518, 1.1033, 0.5667, 0.9405, 0.6683, 1.5005, 0.9666, -0.2920, 0.9583, -0.2241, -1.3252, 0.3306, 0.7592, -0.4220, -1.5287, 0.6499, -1.2146, -0.3887, -0.1278, -0.6738, 0.2718, 0.4371, -0.8979, 0.1331, -0.0062, 0.9133, -0.3565, -1.9889, 0.6239, 0.8991};
#endif

#endif
