//Numpy array shape [128]
//Min -2.139996051788
//Max 1.800853490829
//Number of zeros 0

#ifndef B61_H_
#define B61_H_

#ifndef __SYNTHESIS__
model_default_t b61[128];
#else
model_default_t b61[128] = {0.2816, 0.4714, 1.1280, -0.5304, 0.0894, 0.8461, 1.0202, 0.7139, -0.6680, -0.4205, -0.5284, 0.8854, 0.6002, -1.8722, 0.3675, -0.9031, 0.4583, 0.4022, 1.0713, 1.6595, 0.8163, 0.8805, 1.7881, -0.8322, 1.1337, 0.2280, 1.2825, 0.0060, 0.4279, 0.8304, 0.0256, 0.7045, 0.4650, -0.9726, -1.0767, 0.6374, 0.6507, 0.1635, -0.2633, -0.2811, 0.5911, 0.0986, 0.7551, 0.0242, 0.2734, -0.3200, -0.0161, 0.2726, 0.9428, -1.4863, 0.4375, 0.7840, -0.2734, -0.4509, -0.3317, -1.2297, 0.2877, -0.1980, 0.2548, 0.9428, -0.0211, 0.4078, -0.2993, -0.2633, -0.1916, 0.5659, -0.1287, -0.0055, 1.1109, 0.8941, -2.1400, 0.3190, 0.3254, 0.8446, -0.5500, 0.6599, 0.8230, -0.0422, 0.4859, 1.2383, 1.4516, 0.8131, 0.0987, 0.2555, 1.5159, -0.7312, 1.3221, 0.3547, 0.3890, -0.0594, 1.7747, 1.1697, -0.1963, 0.0715, 0.8753, 0.5520, 1.2204, 0.7248, 0.4819, 0.7275, 1.4447, 0.2652, 0.7407, 1.0544, -0.0012, -0.1403, 1.2058, -0.3879, 0.6678, 1.2197, 0.6150, 0.8103, -0.2373, 0.2919, -0.5295, -0.6930, 0.4529, -0.2532, 0.6294, 1.8009, 0.1363, 0.5000, 0.6350, -1.4835, 0.0472, 0.6101, 0.2503, -0.5453};
#endif

#endif
