//Numpy array shape [7, 7, 3, 64]
//Min -0.736929953098
//Max 0.776936292648
//Number of zeros 0

#ifndef W2_H_
#define W2_H_

#ifndef __SYNTHESIS__
model_default_t w2[112*9408];
#else
model_default_t w2[112*9408] = {-0.010, 0.003, -0.002, -0.009, 0.013, -0.016, 0.001, 0.004, -0.001, -0.007, -0.018, -0.012, 0.004, 0.045, 0.053, 0.006, -0.065, -0.027, -0.003, 0.011, -0.011, -0.002, -0.012, -0.010, 0.040, 0.010, 0.004, -0.044, -0.045, -0.070, 0.031, 0.050, 0.036, 0.070, 0.120, 0.141, -0.093, -0.221, -0.147, 0.048, 0.085, 0.038, -0.005, -0.013, -0.003, 0.091, 0.034, 0.060, -0.184, -0.230, -0.215, 0.141, 0.340, 0.262, -0.025, -0.060, 0.010, -0.093, -0.283, -0.181, 0.067, 0.148, 0.075, -0.009, -0.001, -0.016, 0.131, 0.058, 0.080, -0.324, -0.347, -0.324, 0.423, 0.772, 0.593, -0.305, -0.573, -0.382, 0.125, -0.044, 0.030, 0.009, 0.168, 0.058, -0.010, 0.008, -0.024, 0.063, -0.028, -0.015, -0.220, -0.178, -0.203, 0.395, 0.706, 0.560, -0.505, -0.860, -0.617, 0.353, 0.312, 0.326, -0.121, 0.003, -0.087, -0.002, 0.018, -0.004, -0.020, -0.071, -0.054, 0.018, 0.108, 0.069, 0.082, 0.155, 0.147, -0.203, -0.432, -0.281, 0.233, 0.267, 0.230, -0.101, -0.022, -0.083, -0.010, 0.009, -0.010, 0.007, -0.049, -0.022, 0.055, 0.081, 0.095, -0.060, -0.099, -0.043, -0.020, -0.085, -0.035, 0.057, 0.075, 0.045, -0.025, 0.010, -0.043, 0.131, 0.032, -0.171, 0.054, -0.013, -0.032, -0.003, -0.056, 0.046, -0.172, -0.044, 0.199, -0.146, -0.010, 0.162, -0.035, 0.042, 0.030, 0.070, 0.030, -0.125, 0.128, -0.003, -0.141, -0.037, -0.040, 0.103, -0.159, -0.087, 0.250, -0.322, -0.062, 0.383, -0.196, 0.011, 0.220, 0.000, 0.026, -0.034, 0.145, 0.047, -0.187, 0.077, -0.020, -0.077, -0.160, -0.055, 0.257, -0.323, -0.099, 0.395, -0.352, -0.034, 0.395, -0.109, 0.010, 0.072, 0.148, 0.050, -0.207, 0.256, 0.059, -0.309, -0.122, -0.035, 0.171, -0.405, -0.069, 0.508, -0.471, -0.071, 0.525, -0.307, -0.004, 0.326, 0.069, 0.028, -0.134, 0.342, 0.076, -0.378, 0.358, 0.077, -0.449, -0.219, -0.059, 0.271, -0.443, -0.059, 0.506, -0.367, -0.032, 0.389, -0.056, 0.018, 0.040, 0.299, 0.046, -0.344, 0.403, 0.051, -0.452, 0.352, 0.042, -0.408, -0.129, -0.031, 0.154, -0.232, -0.023, 0.284, -0.068, 0.006, 0.087, 0.174, 0.013, -0.231, 0.351, 0.057, -0.405, 0.327, 0.029, -0.391, 0.236, 0.028, -0.247, -0.037, 0.001, 0.029, -0.051, -0.005, 0.065, 0.081, -0.000, -0.123, 0.251, 0.038, -0.291, 0.303, 0.058, -0.360, 0.234, 0.039, -0.272, 0.119, 0.001, -0.134, 0.003, -0.002, 0.009, 0.002, -0.002, 0.010, -0.000, -0.006, -0.001, -0.001, -0.009, -0.004, -0.003, -0.010, -0.001, -0.001, -0.007, 0.005, -0.001, -0.006, 0.009, 0.001, -0.004, 0.012, 0.000, -0.007, 0.008, -0.012, -0.023, -0.019, -0.014, -0.025, -0.024, -0.009, -0.021, -0.016, -0.002, -0.008, 0.001, 0.005, 0.002, 0.013, -0.000, -0.006, 0.007, -0.012, -0.023, -0.012, -0.022, -0.037, -0.035, -0.016, -0.029, -0.030, -0.012, -0.025, -0.023, -0.001, -0.009, -0.002, 0.006, 0.002, 0.014, -0.002, -0.008, 0.008, -0.017, -0.027, -0.016, -0.022, -0.034, -0.031, -0.011, -0.023, -0.023, -0.008, -0.018, -0.016, 0.002, -0.006, -0.000, -0.000, -0.003, 0.009, -0.005, -0.012, 0.005, -0.012, -0.020, -0.006, -0.013, -0.021, -0.017, -0.004, -0.013, -0.013, -0.000, -0.004, -0.005, 0.006, 0.002, 0.007, -0.001, -0.004, 0.008, 0.000, -0.011, 0.004, -0.002, -0.010, 0.004, 0.001, -0.007, -0.000, 0.004, -0.003, -0.001, 0.004, -0.002, 0.003, 0.003, -0.005, 0.007, 0.004, -0.005, 0.009, 0.002, -0.009, 0.005, 0.003, -0.004, 0.011, 0.001, -0.004, 0.008, 0.007, 0.001, 0.009, 0.008, -0.001, 0.012, 0.002, -0.006, 0.011, 0.003, -0.008, 0.011, 0.001, 0.004, 0.014, 0.003, -0.001, -0.021, 0.017, -0.005, 0.010, -0.020, -0.051, -0.020, -0.027, -0.031, 0.012, 0.034, 0.069, 0.039, -0.004, 0.006, -0.004, -0.003, -0.001, 0.003, 0.007, 0.029, -0.007, 0.051, 0.020, 0.043, -0.077, -0.183, -0.100, 0.004, 0.023, 0.046, 0.034, 0.122, 0.069, -0.029, -0.037, -0.046, -0.011, -0.007, 0.000, -0.015, 0.053, 0.010, 0.129, 0.160, 0.128, -0.213, -0.445, -0.301, 0.093, 0.147, 0.135, 0.062, 0.218, 0.128, -0.050, -0.096, -0.094, -0.008, -0.003, -0.004, -0.039, 0.033, -0.024, 0.213, 0.301, 0.238, -0.300, -0.665, -0.447, 0.111, 0.130, 0.126, 0.150, 0.425, 0.266, -0.118, -0.191, -0.164, -0.011, -0.004, 0.002, -0.054, 0.009, -0.015, 0.146, 0.258, 0.226, -0.190, -0.493, -0.304, -0.060, -0.141, -0.100, 0.290, 0.579, 0.400, -0.161, -0.222, -0.205, 0.022, 0.004, -0.014, -0.025, 0.012, -0.013, 0.018, 0.088, 0.075, 0.013, -0.133, -0.035, -0.138, -0.261, -0.208, 0.244, 0.430, 0.319, -0.117, -0.154, -0.131, 0.020, 0.003, 0.008, -0.011, 0.001, -0.010, -0.029, -0.013, -0.001, 0.058, 0.011, 0.038, -0.084, -0.160, -0.145, 0.098, 0.188, 0.143, -0.050, -0.030, -0.026, -0.040, -0.039, -0.003, -0.027, -0.036, -0.027, -0.007, -0.003, -0.020, 0.027, 0.050, 0.022, 0.013, 0.032, 0.010, 0.016, 0.027, 0.012, -0.007, 0.002, -0.001, -0.054, -0.056, -0.027, 0.001, 0.010, 0.002, 0.040, 0.072, 0.038, 0.052, 0.103, 0.053, 0.010, 0.052, 0.022, 0.006, 0.025, 0.027, -0.023, -0.021, -0.002, -0.038, -0.020, -0.016, 0.040, 0.090, 0.040, 0.078, 0.149, 0.080, 0.052, 0.130, 0.072, 0.006, 0.046, 0.029, -0.014, -0.006, 0.022, -0.050, -0.065, -0.021, 0.026, 0.057, 0.028, 0.095, 0.152, 0.075, 0.094, 0.165, 0.086, 0.051, 0.106, 0.066, -0.016, -0.019, 0.007, -0.050, -0.090, -0.025, -0.040, -0.093, -0.036, 0.019, 0.041, 0.022, 0.070, 0.113, 0.059, 0.048, 0.078, 0.043, -0.012, -0.015, -0.002, -0.071, -0.126, -0.056, -0.074, -0.152, -0.070, -0.055, -0.116, -0.057, 0.025, 0.027, 0.023, 0.041, 0.055, 0.029, 0.002, -0.010, -0.008, -0.062, -0.113, -0.063, -0.099, -0.183, -0.098, -0.074, -0.157, -0.094, -0.001, -0.049, -0.027, 0.025, -0.008, -0.002, 0.004, -0.016, -0.016, -0.045, -0.074, -0.053, -0.082, -0.135, -0.080, -0.065, -0.129, -0.072, 0.013, -0.029, -0.004, 0.100, 0.080, 0.064, -0.003, -0.010, -0.002, -0.003, -0.010, -0.002, -0.004, -0.009, -0.001, -0.005, -0.009, 0.000, -0.007, -0.009, -0.000, -0.007, -0.008, 0.002, -0.008, -0.006, 0.003, -0.005, -0.011, -0.001, -0.005, -0.012, -0.002, -0.004, -0.011, -0.000, -0.006, -0.011, 0.000, -0.007, -0.009, 0.002, -0.009, -0.007, 0.003, -0.010, -0.006, 0.004, -0.005, -0.010, -0.000, -0.006, -0.013, -0.003, -0.006, -0.013, -0.002, -0.007, -0.011, -0.000, -0.007, -0.007, 0.003, -0.007, -0.004, 0.005, -0.009, -0.004, 0.006, -0.006, -0.011, -0.000, -0.007, -0.012, -0.002, -0.007, -0.010, -0.001, -0.007, -0.007, 0.002, -0.006, -0.002, 0.006, -0.007, -0.000, 0.009, -0.009, -0.003, 0.007, -0.007, -0.010, 0.000, -0.006, -0.009, 0.001, -0.007, -0.006, 0.002, -0.007, -0.003, 0.004, -0.006, 0.001, 0.008, -0.008, 0.002, 0.010, -0.011, -0.001, 0.008, -0.004, -0.005, 0.003, -0.006, -0.005, 0.003, -0.007, -0.003, 0.004, -0.008, -0.002, 0.004, -0.007, 0.002, 0.008, -0.008, 0.003, 0.010, -0.010, 0.001, 0.008, -0.002, -0.001, 0.006, -0.004, -0.001, 0.006, -0.005, 0.000, 0.007, -0.005, 0.001, 0.008, -0.006, 0.002, 0.009, -0.008, 0.003, 0.009, -0.011, 0.000, 0.007, 0.005, -0.005, -0.003, 0.001, -0.006, -0.001, 0.001, -0.008, -0.004, 0.011, -0.003, 0.004, 0.004, -0.005, 0.005, -0.004, -0.013, -0.002, 0.007, 0.001, 0.011, 0.008, 0.000, 0.004, 0.004, -0.005, 0.004, 0.000, -0.008, -0.001, 0.008, -0.006, -0.002, 0.009, -0.001, 0.008, 0.004, -0.007, 0.006, 0.011, 0.004, 0.017, 0.009, 0.001, 0.002, 0.002, -0.008, -0.001, 0.005, -0.007, -0.004, 0.016, -0.002, -0.004, 0.015, 0.004, 0.002, 0.009, 0.000, 0.004, 0.014, 0.009, 0.018, 0.003, -0.003, -0.000, -0.003, -0.017, -0.010, -0.010, -0.027, -0.026, 0.010, -0.011, -0.015, 0.004, -0.011, -0.017, -0.006, -0.023, -0.022, 0.001, -0.009, -0.005, 0.002, -0.002, -0.003, -0.002, -0.013, -0.015, -0.020, -0.035, -0.041, -0.003, -0.017, -0.020, -0.001, -0.016, -0.017, -0.022, -0.041, -0.040, -0.020, -0.034, -0.032, 0.002, -0.002, 0.004, -0.004, -0.010, -0.012, -0.021, -0.029, -0.036, -0.014, -0.023, -0.028, -0.009, -0.019, -0.021, -0.028, -0.040, -0.044, -0.028, -0.037, -0.039, 0.005, -0.000, 0.012, 0.010, 0.011, 0.017, -0.001, -0.000, -0.001, -0.006, -0.012, -0.012, -0.001, -0.009, -0.011, -0.011, -0.018, -0.022, -0.008, -0.009, -0.009, -0.003, 0.001, 0.005, -0.023, -0.016, -0.007, 0.015, 0.023, 0.021, 0.003, 0.028, 0.001, 0.028, 0.025, 0.008, 0.003, -0.014, -0.003, 0.010, -0.015, -0.001, 0.017, 0.003, 0.021, -0.027, -0.041, -0.028, 0.020, 0.039, 0.021, 0.039, 0.110, 0.052, 0.026, 0.053, 0.024, -0.039, -0.069, -0.037, 0.008, -0.033, 0.002, 0.011, -0.017, 0.004, -0.064, -0.096, -0.082, -0.001, 0.043, 0.004, 0.102, 0.246, 0.138, 0.010, 0.064, 0.029, -0.089, -0.159, -0.096, -0.008, -0.061, -0.010, -0.004, -0.043, -0.005, -0.082, -0.120, -0.103, 0.026, 0.110, 0.038, 0.177, 0.381, 0.215, 0.026, 0.067, 0.032, -0.158, -0.285, -0.186, 0.025, -0.062, 0.002, -0.009, -0.053, 0.006, -0.089, -0.128, -0.106, 0.083, 0.184, 0.100, 0.182, 0.382, 0.212, -0.006, 0.016, -0.019, -0.178, -0.318, -0.216, 0.046, -0.034, 0.049, -0.021, -0.047, -0.009, -0.068, -0.091, -0.080, 0.067, 0.146, 0.076, 0.130, 0.278, 0.161, -0.040, -0.041, -0.045, -0.153, -0.272, -0.174, 0.040, -0.010, 0.056, 0.006, 0.011, 0.018, -0.018, -0.012, -0.019, 0.061, 0.112, 0.061, 0.063, 0.147, 0.078, -0.030, -0.037, -0.019, -0.101, -0.163, -0.091, 0.025, -0.018, 0.028, 0.009, 0.020, 0.037, 0.007, -0.012, 0.008, -0.005, -0.051, -0.027, -0.010, -0.048, -0.018, -0.021, -0.032, -0.013, -0.012, -0.002, -0.005, 0.014, 0.013, 0.002, -0.005, -0.048, -0.047, -0.010, -0.080, -0.071, -0.027, -0.093, -0.094, -0.021, -0.047, -0.059, -0.004, 0.006, -0.006, 0.005, 0.038, 0.024, 0.032, 0.036, 0.013, -0.013, -0.057, -0.076, -0.019, -0.054, -0.070, -0.007, -0.009, -0.039, 0.016, 0.083, 0.047, 0.033, 0.124, 0.099, 0.032, 0.123, 0.100, 0.046, 0.088, 0.071, 0.014, 0.023, 0.003, 0.029, 0.084, 0.057, 0.032, 0.133, 0.099, 0.021, 0.159, 0.141, 0.019, 0.140, 0.143, 0.045, 0.136, 0.126, 0.027, 0.052, 0.037, 0.030, 0.047, 0.043, 0.047, 0.116, 0.098, 0.023, 0.118, 0.098, 0.005, 0.086, 0.081, 0.004, 0.037, 0.051, 0.020, 0.008, 0.014, -0.007, -0.074, -0.061, 0.012, 0.029, 0.024, 0.024, 0.079, 0.075, 0.006, 0.058, 0.064, -0.003, 0.019, 0.034, -0.016, -0.052, -0.033, -0.019, -0.086, -0.079, -0.032, -0.111, -0.102, -0.001, 0.001, -0.003, 0.009, 0.024, 0.028, -0.005, -0.005, 0.011, -0.007, -0.032, -0.019, -0.004, -0.065, -0.066, 0.004, -0.064, -0.079, 0.012, -0.044, -0.060, -0.023, 0.017, -0.011, -0.016, 0.021, -0.004, -0.020, 0.016, -0.006, -0.024, 0.014, -0.005, -0.023, 0.019, 0.000, -0.025, 0.016, -0.003, -0.026, 0.020, -0.003, -0.024, 0.018, -0.008, -0.018, 0.020, -0.003, -0.020, 0.017, -0.004, -0.023, 0.019, -0.002, -0.022, 0.021, 0.001, -0.021, 0.020, -0.000, -0.022, 0.020, 0.000, -0.024, 0.020, -0.005, -0.014, 0.024, -0.001, -0.018, 0.024, -0.001, -0.013, 0.029, 0.003, -0.020, 0.025, 0.000, -0.023, 0.024, 0.001, -0.020, 0.025, 0.005, -0.024, 0.019, -0.007, -0.011, 0.025, -0.003, -0.015, 0.026, -0.001, -0.017, 0.028, -0.001, -0.020, 0.028, -0.002, -0.025, 0.026, 0.000, -0.020, 0.030, 0.008, -0.028, 0.022, -0.004, -0.018, 0.027, 0.002, -0.022, 0.024, -0.000, -0.024, 0.027, -0.003, -0.022, 0.034, 0.002, -0.024, 0.029, 0.003, -0.020, 0.030, 0.008, -0.029, 0.025, -0.003, -0.022, 0.028, 0.001, -0.027, 0.024, -0.004, -0.025, 0.031, 0.000, -0.027, 0.031, -0.001, -0.030, 0.025, 0.001, -0.031, 0.026, 0.006, -0.029, 0.025, -0.003, -0.024, 0.025, -0.002, -0.023, 0.025, -0.001, -0.024, 0.029, 0.000, -0.025, 0.030, 0.003, -0.030, 0.026, 0.004, -0.032, 0.027, 0.007, 0.024, -0.007, -0.009, -0.023, 0.001, 0.032, 0.071, 0.012, -0.096, 0.130, 0.040, -0.167, 0.095, 0.031, -0.147, -0.052, 0.018, 0.024, -0.135, 0.013, 0.131, -0.006, -0.022, 0.006, -0.042, -0.009, 0.062, 0.117, 0.015, -0.135, 0.255, 0.051, -0.316, 0.269, 0.058, -0.327, 0.141, 0.035, -0.196, 0.007, 0.052, -0.046, -0.071, -0.023, 0.121, -0.152, -0.026, 0.186, 0.019, 0.015, -0.046, 0.252, 0.026, -0.306, 0.377, 0.061, -0.405, 0.265, 0.052, -0.325, 0.138, 0.060, -0.207, -0.192, -0.060, 0.225, -0.329, -0.044, 0.390, -0.184, -0.006, 0.229, 0.079, 0.012, -0.122, 0.372, 0.040, -0.441, 0.428, 0.048, -0.490, 0.368, 0.065, -0.456, -0.141, -0.045, 0.196, -0.399, -0.071, 0.480, -0.407, -0.037, 0.496, -0.265, -0.010, 0.275, 0.115, 0.014, -0.147, 0.314, 0.023, -0.401, 0.388, 0.058, -0.493, 0.068, -0.033, -0.037, -0.206, -0.098, 0.291, -0.370, -0.072, 0.481, -0.466, -0.035, 0.530, -0.244, -0.008, 0.239, 0.074, 0.033, -0.058, 0.241, 0.061, -0.329, 0.192, -0.022, -0.205, -0.000, -0.065, 0.069, -0.176, -0.090, 0.266, -0.389, -0.082, 0.506, -0.370, -0.064, 0.407, -0.155, -0.036, 0.169, 0.083, 0.019, -0.092, -0.029, -0.022, 0.005, -0.004, 0.005, 0.003, -0.048, -0.054, -0.035, 0.031, 0.030, 0.030, 0.059, 0.098, 0.060, 0.007, 0.043, 0.014, -0.062, -0.045, -0.044, 0.005, -0.007, -0.017, -0.007, -0.023, -0.015, -0.087, -0.134, -0.067, -0.013, -0.051, -0.010, 0.082, 0.127, 0.076, 0.068, 0.114, 0.043, -0.001, 0.008, -0.024, 0.012, 0.026, 0.004, 0.037, 0.040, 0.027, -0.180, -0.251, -0.135, -0.110, -0.196, -0.066, 0.081, 0.121, 0.085, 0.095, 0.174, 0.066, 0.034, 0.076, -0.022, 0.039, 0.046, 0.022, 0.107, 0.126, 0.083, -0.143, -0.254, -0.125, -0.212, -0.377, -0.169, 0.045, 0.033, 0.067, 0.094, 0.172, 0.079, 0.038, 0.097, -0.010, 0.005, 0.034, 0.004, 0.136, 0.183, 0.110, -0.026, -0.098, -0.036, -0.223, -0.417, -0.212, -0.041, -0.111, -0.011, 0.069, 0.118, 0.063, 0.050, 0.097, 0.011, -0.015, 0.018, -0.017, 0.115, 0.167, 0.087, 0.046, 0.047, 0.039, -0.124, -0.234, -0.114, -0.125, -0.193, -0.091, -0.010, -0.001, 0.009, 0.037, 0.065, 0.021, -0.032, -0.014, -0.022, 0.086, 0.133, 0.066, 0.070, 0.087, 0.052, -0.036, -0.072, -0.034, -0.081, -0.126, -0.059, -0.045, -0.051, -0.026, 0.005, 0.019, -0.003, 0.059, -0.045, 0.016, 0.052, -0.041, 0.028, 0.046, -0.045, 0.023, 0.030, -0.061, 0.016, 0.020, -0.069, 0.016, 0.028, -0.065, 0.023, 0.041, -0.060, 0.034, 0.051, -0.045, 0.018, 0.048, -0.035, 0.037, 0.039, -0.037, 0.034, 0.026, -0.053, 0.026, 0.023, -0.056, 0.032, 0.023, -0.059, 0.028, 0.037, -0.053, 0.036, 0.044, -0.050, 0.015, 0.035, -0.049, 0.022, 0.018, -0.059, 0.019, 0.012, -0.065, 0.019, 0.016, -0.064, 0.022, 0.013, -0.064, 0.022, 0.024, -0.054, 0.034, 0.040, -0.056, 0.006, 0.023, -0.058, 0.013, 0.017, -0.058, 0.024, 0.011, -0.059, 0.031, 0.009, -0.064, 0.030, 0.018, -0.054, 0.036, 0.034, -0.036, 0.051, 0.037, -0.056, 0.011, 0.014, -0.065, 0.012, 0.011, -0.060, 0.028, 0.007, -0.056, 0.040, 0.003, -0.063, 0.035, 0.012, -0.052, 0.042, 0.022, -0.040, 0.050, 0.041, -0.058, 0.012, 0.027, -0.056, 0.021, 0.020, -0.054, 0.030, 0.012, -0.055, 0.042, 0.008, -0.055, 0.043, 0.006, -0.049, 0.041, 0.012, -0.047, 0.040, 0.055, -0.051, 0.018, 0.043, -0.045, 0.029, 0.040, -0.042, 0.041, 0.024, -0.051, 0.040, 0.014, -0.056, 0.033, 0.014, -0.050, 0.037, 0.018, -0.049, 0.038, -0.013, -0.005, 0.009, 0.013, -0.018, 0.004, 0.018, -0.023, 0.012, 0.025, -0.023, 0.005, 0.027, -0.015, 0.015, -0.003, -0.038, 0.007, 0.013, -0.012, 0.023, 0.007, -0.020, 0.003, 0.035, -0.041, -0.003, 0.041, -0.050, 0.002, 0.039, -0.058, -0.008, 0.043, -0.052, -0.001, 0.038, -0.052, 0.010, 0.022, -0.057, 0.001, 0.004, -0.024, 0.006, 0.037, -0.046, 0.007, 0.048, -0.054, 0.011, 0.051, -0.061, -0.001, 0.057, -0.053, 0.005, 0.055, -0.046, 0.025, 0.005, -0.084, -0.007, 0.012, -0.019, 0.002, 0.039, -0.046, -0.001, 0.050, -0.054, 0.005, 0.078, -0.045, 0.004, 0.099, -0.021, 0.026, 0.078, -0.029, 0.038, 0.036, -0.067, 0.006, 0.027, -0.005, 0.016, 0.034, -0.047, 0.002, 0.038, -0.064, 0.002, 0.061, -0.060, -0.000, 0.056, -0.066, -0.004, 0.057, -0.057, 0.022, 0.053, -0.058, 0.018, 0.010, -0.017, 0.001, 0.025, -0.049, -0.003, 0.035, -0.064, 0.005, 0.044, -0.073, -0.003, 0.055, -0.065, 0.007, 0.063, -0.054, 0.024, 0.067, -0.054, 0.020, 0.015, -0.009, 0.000, 0.041, -0.031, -0.003, 0.042, -0.057, -0.004, 0.043, -0.076, -0.015, 0.057, -0.065, 0.000, 0.054, -0.067, 0.004, 0.069, -0.057, 0.008, 0.011, 0.000, 0.002, -0.017, -0.021, -0.011, -0.014, -0.019, 0.011, -0.034, -0.043, 0.003, -0.027, -0.051, -0.004, 0.010, -0.016, 0.011, 0.084, 0.060, 0.069, 0.017, 0.006, 0.008, -0.006, -0.011, -0.019, -0.029, -0.042, -0.016, -0.049, -0.093, -0.028, -0.060, -0.140, -0.052, -0.056, -0.142, -0.060, 0.036, -0.020, 0.038, 0.020, 0.029, 0.000, 0.029, 0.058, 0.012, 0.004, 0.034, 0.002, -0.048, -0.056, -0.049, -0.091, -0.159, -0.088, -0.143, -0.252, -0.144, -0.099, -0.196, -0.086, 0.043, 0.072, 0.040, 0.094, 0.161, 0.075, 0.128, 0.217, 0.110, 0.101, 0.205, 0.099, 0.035, 0.086, 0.043, -0.060, -0.085, -0.046, -0.114, -0.189, -0.103, -0.010, -0.014, -0.010, 0.032, 0.074, 0.023, 0.114, 0.197, 0.093, 0.127, 0.266, 0.127, 0.119, 0.240, 0.123, 0.047, 0.109, 0.059, -0.014, -0.010, 0.001, -0.041, -0.073, -0.034, -0.060, -0.083, -0.073, 0.005, 0.020, -0.012, 0.083, 0.149, 0.061, 0.108, 0.192, 0.078, 0.066, 0.133, 0.063, 0.041, 0.078, 0.048, -0.029, -0.056, 0.009, -0.076, -0.117, -0.053, -0.084, -0.128, -0.087, -0.051, -0.067, -0.060, 0.013, 0.019, -0.006, 0.016, 0.031, -0.007, 0.014, 0.021, -0.001, 0.012, -0.006, -0.008, 0.004, 0.011, -0.008, 0.007, 0.003, -0.014, -0.007, -0.010, 0.008, -0.018, -0.011, 0.005, 0.016, 0.016, 0.008, 0.016, 0.014, -0.011, 0.017, 0.017, -0.008, -0.003, 0.009, -0.022, 0.002, 0.007, -0.021, -0.008, 0.002, 0.013, -0.012, 0.007, 0.024, 0.023, 0.024, 0.013, 0.024, 0.029, -0.016, 0.017, 0.018, -0.012, 0.011, 0.006, -0.024, 0.003, 0.002, -0.019, -0.023, -0.020, 0.036, -0.045, -0.035, 0.039, -0.010, -0.012, 0.015, 0.041, 0.038, 0.003, -0.009, -0.002, 0.004, -0.009, -0.004, 0.001, -0.009, -0.005, 0.028, -0.078, -0.067, 0.063, -0.115, -0.092, 0.069, -0.109, -0.101, 0.021, -0.045, -0.045, 0.009, 0.004, 0.004, -0.005, 0.009, 0.012, -0.002, -0.006, -0.008, 0.020, -0.072, -0.063, 0.060, -0.102, -0.077, 0.068, -0.120, -0.107, 0.011, -0.075, -0.068, -0.013, 0.026, 0.021, -0.015, 0.035, 0.025, -0.018, 0.035, 0.022, -0.002, -0.045, -0.043, 0.011, -0.087, -0.083, 0.005, -0.085, -0.079, -0.023, -0.019, -0.024, -0.020, 0.019, 0.027, -0.001, 0.005, 0.019, -0.027, 0.041, 0.045, -0.005, 0.011, 0.020, 0.019, -0.037, -0.034, -0.002, -0.018, -0.026, -0.018, 0.020, 0.021, -0.008, -0.017, 0.019, 0.038, -0.012, 0.013, 0.022, -0.009, 0.014, 0.019, -0.001, 0.003, -0.008, -0.002, 0.002, -0.006, -0.006, 0.011, 0.009, -0.003, 0.025, 0.031, -0.013, 0.007, 0.010, 0.005, 0.006, -0.007, 0.021, 0.007, -0.017, 0.047, 0.005, -0.044, 0.047, 0.002, -0.042, 0.040, 0.014, -0.016, 0.020, 0.014, -0.003, -0.017, -0.004, 0.003, 0.007, -0.007, -0.022, 0.040, 0.002, -0.031, 0.074, 0.002, -0.057, 0.067, -0.010, -0.064, 0.052, -0.006, -0.040, 0.017, -0.014, -0.025, 0.001, 0.005, 0.005, 0.021, -0.008, -0.034, 0.058, -0.006, -0.052, 0.092, -0.016, -0.088, 0.092, -0.022, -0.091, 0.061, -0.033, -0.077, 0.031, -0.027, -0.052, -0.004, 0.008, 0.013, 0.031, 0.004, -0.016, 0.061, -0.005, -0.045, 0.100, -0.016, -0.079, 0.093, -0.030, -0.088, 0.071, -0.026, -0.060, 0.038, -0.021, -0.032, -0.005, 0.014, 0.024, 0.020, 0.010, -0.002, 0.047, -0.004, -0.029, 0.068, -0.030, -0.075, 0.073, -0.033, -0.069, 0.041, -0.034, -0.050, 0.023, -0.013, -0.007, -0.007, 0.012, 0.031, -0.001, -0.006, -0.004, 0.024, -0.009, -0.016, 0.048, -0.023, -0.048, 0.052, -0.023, -0.040, 0.030, -0.018, -0.014, 0.011, -0.005, 0.015, -0.001, -0.006, 0.006, 0.010, 0.003, 0.022, -0.004, -0.001, -0.003, -0.004, -0.026, -0.029, -0.002, -0.020, -0.009, 0.017, 0.022, 0.000, 0.027, 0.008, -0.012, 0.008, 0.015, 0.003, -0.030, -0.000, -0.033, 0.037, 0.066, 0.041, 0.072, 0.021, 0.045, -0.018, -0.079, -0.045, -0.001, 0.018, -0.005, 0.006, -0.007, -0.013, -0.006, 0.025, -0.004, 0.045, 0.079, 0.045, 0.116, 0.089, 0.108, -0.130, -0.321, -0.203, -0.123, -0.201, -0.160, 0.062, 0.147, 0.093, -0.000, 0.022, 0.018, -0.011, -0.022, -0.015, 0.077, 0.014, 0.050, -0.148, -0.371, -0.253, -0.284, -0.440, -0.372, 0.236, 0.475, 0.324, 0.142, 0.326, 0.209, -0.038, -0.060, -0.031, -0.025, -0.048, -0.042, -0.044, -0.130, -0.088, -0.131, -0.219, -0.188, 0.267, 0.509, 0.333, 0.343, 0.679, 0.455, -0.143, -0.186, -0.159, -0.073, -0.198, -0.106, 0.013, 0.033, -0.014, 0.004, 0.023, -0.006, 0.103, 0.193, 0.144, 0.165, 0.383, 0.276, -0.145, -0.183, -0.142, -0.201, -0.413, -0.284, 0.064, -0.031, 0.024, 0.015, 0.036, -0.007, 0.020, 0.029, 0.021, 0.022, 0.036, 0.051, -0.088, -0.102, -0.059, -0.123, -0.246, -0.143, 0.057, -0.028, 0.021, 0.070, 0.093, 0.047, 0.023, -0.004, 0.024, -0.021, -0.027, 0.048, -0.054, -0.033, 0.074, -0.082, -0.049, 0.109, -0.081, -0.048, 0.113, -0.040, -0.039, 0.078, -0.012, -0.027, 0.065, -0.043, -0.018, 0.065, -0.143, -0.056, 0.115, -0.228, -0.083, 0.187, -0.310, -0.123, 0.240, -0.309, -0.122, 0.251, -0.234, -0.100, 0.197, -0.149, -0.072, 0.146, -0.029, 0.009, 0.042, -0.108, -0.019, 0.082, -0.209, -0.066, 0.135, -0.287, -0.099, 0.209, -0.314, -0.109, 0.226, -0.252, -0.084, 0.196, -0.170, -0.053, 0.149, -0.028, 0.006, -0.006, -0.026, 0.001, -0.007, -0.054, 0.008, 0.027, -0.091, -0.011, 0.056, -0.132, -0.022, 0.093, -0.133, -0.026, 0.098, -0.115, -0.011, 0.091, 0.017, 0.037, -0.024, 0.096, 0.046, -0.081, 0.159, 0.054, -0.123, 0.201, 0.071, -0.138, 0.145, 0.048, -0.113, 0.080, 0.047, -0.061, 0.022, 0.026, -0.028, -0.009, 0.012, -0.066, 0.122, 0.061, -0.127, 0.252, 0.077, -0.194, 0.352, 0.090, -0.257, 0.306, 0.080, -0.238, 0.226, 0.079, -0.167, 0.111, 0.039, -0.137, 0.039, 0.030, -0.090, 0.166, 0.072, -0.160, 0.253, 0.082, -0.214, 0.343, 0.111, -0.282, 0.338, 0.094, -0.285, 0.296, 0.092, -0.243, 0.221, 0.081, -0.207, -0.016, -0.010, 0.028, -0.011, -0.010, 0.027, -0.012, -0.013, 0.027, -0.012, -0.014, 0.021, -0.014, -0.014, 0.019, -0.012, -0.011, 0.025, -0.008, -0.010, 0.030, -0.015, -0.010, 0.032, -0.011, -0.006, 0.026, -0.013, -0.007, 0.024, -0.016, -0.009, 0.019, -0.016, -0.009, 0.018, -0.011, -0.007, 0.022, -0.006, -0.003, 0.028, -0.015, -0.009, 0.027, -0.013, -0.005, 0.022, -0.016, -0.006, 0.023, -0.018, -0.007, 0.017, -0.019, -0.009, 0.015, -0.014, -0.008, 0.020, -0.007, -0.004, 0.027, -0.012, -0.005, 0.024, -0.013, -0.005, 0.018, -0.023, -0.008, 0.015, -0.023, -0.009, 0.015, -0.020, -0.010, 0.013, -0.015, -0.005, 0.020, -0.011, -0.002, 0.023, -0.015, -0.005, 0.026, -0.012, -0.006, 0.017, -0.020, -0.009, 0.014, -0.019, -0.005, 0.019, -0.017, -0.002, 0.020, -0.014, -0.000, 0.025, -0.011, -0.002, 0.026, -0.017, -0.005, 0.029, -0.014, -0.003, 0.023, -0.021, -0.006, 0.020, -0.018, -0.002, 0.023, -0.015, 0.000, 0.028, -0.013, 0.000, 0.032, -0.012, -0.003, 0.033, -0.019, -0.010, 0.028, -0.015, -0.006, 0.023, -0.017, -0.005, 0.024, -0.017, -0.003, 0.028, -0.012, -0.001, 0.030, -0.011, -0.000, 0.036, -0.008, -0.001, 0.038, 0.001, 0.010, -0.006, -0.024, 0.009, 0.005, -0.014, -0.022, -0.006, 0.011, 0.044, 0.017, -0.006, -0.018, -0.023, 0.001, 0.024, 0.007, -0.005, -0.015, -0.005, -0.001, 0.006, -0.002, 0.009, 0.055, 0.038, -0.070, -0.127, -0.070, 0.063, 0.095, 0.063, -0.003, -0.006, -0.016, 0.022, 0.016, -0.003, -0.021, -0.042, -0.014, -0.008, -0.024, -0.029, 0.037, 0.110, 0.078, -0.054, -0.162, -0.088, -0.055, -0.053, -0.082, 0.150, 0.288, 0.170, -0.094, -0.160, -0.111, -0.004, -0.014, 0.014, 0.003, 0.003, -0.016, 0.014, 0.097, 0.085, 0.023, -0.073, 0.032, -0.256, -0.371, -0.352, 0.495, 0.815, 0.565, -0.350, -0.517, -0.374, 0.103, 0.086, 0.115, 0.011, -0.009, -0.016, -0.030, 0.036, 0.033, 0.067, -0.053, 0.054, -0.291, -0.415, -0.381, 0.507, 0.831, 0.565, -0.380, -0.573, -0.431, 0.109, 0.096, 0.121, 0.018, 0.007, -0.006, -0.005, 0.046, 0.036, 0.004, -0.072, 0.004, -0.135, -0.149, -0.161, 0.300, 0.462, 0.317, -0.245, -0.346, -0.268, 0.062, 0.061, 0.100, -0.001, 0.004, -0.003, -0.017, 0.027, 0.000, -0.021, -0.058, -0.016, -0.010, -0.004, -0.041, 0.113, 0.139, 0.080, -0.074, -0.104, -0.100, 0.000, -0.017, 0.036, -0.050, 0.006, 0.057, -0.049, -0.053, -0.026, 0.025, 0.051, 0.087, -0.088, -0.041, -0.022, 0.029, 0.074, 0.054, -0.088, -0.104, -0.081, 0.030, 0.038, 0.060, -0.013, -0.009, -0.020, 0.117, 0.067, 0.035, -0.085, -0.125, -0.166, 0.020, 0.015, -0.003, 0.076, 0.055, 0.073, 0.069, 0.121, 0.091, -0.106, -0.093, -0.122, 0.006, 0.024, 0.042, -0.005, 0.003, 0.002, 0.040, 0.086, 0.100, 0.175, 0.207, 0.203, -0.524, -0.642, -0.596, 0.369, 0.352, 0.383, -0.058, 0.016, 0.020, -0.013, 0.000, 0.018, -0.068, -0.091, -0.092, -0.139, -0.162, -0.114, -0.036, 0.037, 0.027, 0.652, 0.856, 0.712, -0.728, -0.926, -0.889, 0.248, 0.209, 0.237, -0.018, 0.017, -0.000, 0.007, 0.048, 0.031, 0.403, 0.418, 0.394, -0.555, -0.786, -0.672, -0.146, -0.114, -0.060, 0.630, 0.773, 0.688, -0.293, -0.281, -0.293, 0.011, -0.005, 0.017, -0.025, -0.072, -0.055, -0.304, -0.273, -0.301, 0.626, 0.724, 0.636, -0.228, -0.297, -0.239, -0.283, -0.327, -0.260, 0.159, 0.188, 0.179, -0.037, -0.004, 0.003, 0.032, 0.030, 0.045, 0.050, 0.044, 0.078, -0.214, -0.184, -0.177, 0.103, 0.113, 0.100, 0.072, 0.052, 0.051, -0.077, -0.028, -0.030, 0.013, 0.001, 0.019, -0.010, 0.000, 0.011, -0.023, -0.014, -0.011, -0.025, -0.030, -0.027, 0.024, -0.004, 0.001, 0.037, 0.014, 0.022, 0.023, -0.011, -0.003, 0.013, -0.006, -0.000, 0.015, 0.033, 0.027, 0.029, 0.070, 0.055, -0.030, 0.032, 0.031, -0.105, -0.090, -0.074, -0.044, -0.113, -0.082, 0.043, -0.027, -0.003, 0.001, -0.035, -0.019, -0.013, -0.051, -0.045, 0.052, 0.043, 0.031, 0.165, 0.294, 0.257, 0.103, 0.344, 0.246, -0.142, -0.078, -0.109, -0.074, -0.137, -0.128, -0.017, -0.048, -0.033, -0.008, -0.087, -0.047, -0.113, -0.323, -0.229, -0.091, -0.281, -0.193, 0.255, 0.426, 0.356, 0.232, 0.543, 0.418, -0.010, 0.108, 0.052, -0.030, 0.008, -0.015, 0.008, 0.059, 0.041, 0.067, 0.005, 0.028, -0.211, -0.576, -0.427, -0.322, -0.645, -0.474, 0.016, 0.025, 0.051, 0.076, 0.207, 0.179, 0.027, 0.057, 0.036, -0.012, 0.071, 0.035, 0.114, 0.280, 0.206, 0.188, 0.207, 0.167, -0.068, -0.266, -0.172, -0.146, -0.318, -0.213, -0.040, -0.069, -0.026, 0.002, 0.015, 0.002, -0.047, -0.017, -0.038, -0.085, 0.008, -0.039, 0.054, 0.175, 0.117, 0.105, 0.164, 0.126, -0.001, -0.023, -0.020, -0.023, -0.040, -0.047, -0.040, 0.087, -0.071, -0.050, 0.087, -0.039, -0.034, 0.072, -0.039, -0.023, 0.112, -0.107, -0.052, 0.167, -0.109, -0.089, 0.218, -0.140, -0.104, 0.229, -0.142, -0.028, 0.069, -0.040, -0.028, 0.054, -0.032, -0.033, 0.076, -0.031, -0.022, 0.110, -0.099, -0.030, 0.155, -0.129, -0.065, 0.217, -0.156, -0.084, 0.225, -0.141, -0.033, 0.082, -0.037, -0.037, 0.060, -0.005, -0.038, 0.053, -0.010, -0.003, 0.022, -0.016, 0.033, -0.011, -0.026, -0.003, 0.051, -0.054, -0.040, 0.126, -0.085, -0.026, 0.096, -0.090, -0.022, 0.077, -0.055, 0.018, -0.022, -0.020, 0.113, -0.234, 0.111, 0.170, -0.403, 0.237, 0.149, -0.324, 0.186, 0.082, -0.102, 0.015, -0.049, 0.130, -0.104, -0.019, 0.118, -0.091, 0.021, -0.028, 0.011, 0.181, -0.424, 0.261, 0.224, -0.743, 0.544, 0.181, -0.652, 0.456, 0.130, -0.284, 0.159, -0.068, 0.208, -0.154, -0.046, 0.177, -0.139, 0.032, 0.023, -0.035, 0.154, -0.381, 0.220, 0.184, -0.659, 0.508, 0.176, -0.561, 0.417, 0.125, -0.237, 0.117, -0.115, 0.233, -0.122, -0.097, 0.201, -0.112, -0.028, 0.110, -0.095, 0.125, -0.119, 0.004, 0.160, -0.289, 0.120, 0.149, -0.249, 0.087, 0.105, -0.056, -0.041, -0.070, 0.046, -0.073, -0.022, 0.098, -0.046, -0.017, 0.101, -0.058, -0.043, 0.082, -0.080, -0.028, 0.105, -0.059, -0.013, 0.112, -0.045, -0.037, 0.080, -0.078, -0.093, 0.039, -0.088, -0.033, 0.092, -0.060, -0.015, 0.118, -0.051, -0.040, 0.100, -0.074, -0.024, 0.123, -0.051, -0.003, 0.137, -0.033, -0.044, 0.095, -0.068, -0.091, 0.052, -0.076, -0.044, 0.091, -0.065, -0.031, 0.105, -0.074, -0.037, 0.107, -0.078, -0.036, 0.104, -0.074, -0.038, 0.106, -0.065, -0.031, 0.103, -0.057, -0.079, 0.068, -0.065, -0.067, 0.077, -0.076, -0.033, 0.098, -0.072, -0.048, 0.090, -0.104, -0.041, 0.091, -0.099, -0.049, 0.080, -0.102, -0.044, 0.086, -0.085, -0.068, 0.077, -0.050, -0.039, 0.094, -0.058, -0.011, 0.113, -0.064, -0.018, 0.111, -0.082, -0.030, 0.097, -0.095, -0.038, 0.087, -0.104, -0.027, 0.100, -0.082, -0.067, 0.079, -0.047, -0.031, 0.088, -0.059, -0.018, 0.091, -0.079, -0.027, 0.099, -0.083, -0.027, 0.101, -0.077, -0.024, 0.102, -0.081, -0.016, 0.107, -0.078, -0.056, 0.092, -0.045, -0.022, 0.108, -0.044, -0.010, 0.107, -0.060, -0.017, 0.111, -0.061, -0.023, 0.092, -0.068, -0.001, 0.105, -0.056, 0.001, 0.108, -0.069, -0.001, 0.009, 0.000, -0.008, 0.001, -0.005, -0.009, 0.001, -0.006, 0.014, 0.022, 0.012, 0.010, 0.020, 0.005, -0.019, -0.006, -0.018, -0.027, -0.013, -0.015, -0.003, -0.001, 0.006, 0.003, 0.003, 0.006, 0.015, 0.026, 0.018, 0.038, 0.043, 0.030, 0.046, 0.047, 0.028, 0.024, 0.023, 0.011, 0.002, 0.003, 0.003, -0.011, -0.008, -0.003, 0.019, 0.021, 0.017, 0.029, 0.043, 0.033, 0.031, 0.044, 0.026, 0.037, 0.045, 0.024, 0.029, 0.036, 0.016, 0.012, 0.018, 0.011, -0.007, -0.009, 0.001, 0.015, 0.016, 0.017, 0.019, 0.028, 0.021, 0.019, 0.037, 0.021, 0.019, 0.037, 0.016, 0.018, 0.036, 0.016, 0.032, 0.038, 0.024, -0.003, -0.019, 0.003, 0.014, 0.008, 0.019, 0.029, 0.028, 0.030, 0.024, 0.034, 0.025, 0.027, 0.039, 0.020, 0.030, 0.047, 0.031, 0.044, 0.048, 0.039, -0.001, -0.023, -0.018, -0.001, -0.005, -0.003, 0.011, 0.016, 0.014, 0.023, 0.041, 0.024, 0.033, 0.047, 0.025, 0.030, 0.043, 0.023, 0.029, 0.035, 0.026, 0.002, -0.015, -0.011, 0.007, -0.002, 0.003, 0.017, 0.012, 0.011, 0.036, 0.049, 0.034, 0.042, 0.058, 0.047, 0.019, 0.040, 0.035, 0.001, 0.014, 0.025, 0.008, 0.026, 0.038, 0.006, -0.007, -0.024, 0.020, -0.019, -0.052, 0.039, -0.019, -0.053, 0.041, -0.021, -0.058, 0.027, -0.010, -0.031, 0.023, 0.008, 0.003, 0.019, -0.003, -0.026, 0.030, -0.045, -0.101, 0.039, -0.082, -0.164, 0.046, -0.118, -0.211, 0.043, -0.121, -0.224, 0.036, -0.090, -0.176, 0.029, -0.053, -0.118, -0.002, -0.011, -0.020, -0.002, -0.059, -0.081, 0.010, -0.088, -0.134, 0.013, -0.129, -0.191, 0.013, -0.128, -0.203, 0.015, -0.092, -0.152, 0.029, -0.038, -0.071, -0.002, 0.001, -0.009, 0.001, -0.012, -0.014, 0.003, -0.016, -0.022, 0.003, -0.024, -0.034, 0.006, -0.022, -0.051, 0.004, -0.026, -0.051, 0.023, -0.002, -0.026, -0.015, 0.010, 0.014, -0.024, 0.033, 0.070, -0.018, 0.064, 0.112, -0.014, 0.079, 0.147, -0.021, 0.073, 0.123, -0.005, 0.057, 0.090, -0.003, 0.041, 0.054, -0.009, -0.003, -0.009, -0.018, 0.035, 0.070, -0.021, 0.079, 0.140, -0.040, 0.094, 0.188, -0.040, 0.089, 0.172, -0.032, 0.064, 0.122, -0.025, 0.033, 0.055, -0.012, 0.003, 0.004, -0.019, 0.041, 0.080, -0.022, 0.077, 0.143, -0.043, 0.089, 0.195, -0.042, 0.087, 0.189, -0.036, 0.073, 0.144, -0.034, 0.040, 0.073, -0.020, 0.038, -0.003, -0.010, -0.002, -0.005, 0.002, -0.012, 0.011, 0.010, -0.020, 0.005, 0.008, -0.024, 0.005, 0.008, -0.015, 0.016, 0.007, -0.013, 0.008, -0.004, 0.012, -0.011, 0.028, -0.023, 0.012, 0.034, -0.055, 0.025, 0.048, -0.065, 0.029, 0.054, -0.072, 0.025, 0.036, -0.074, 0.028, 0.046, -0.049, 0.029, -0.012, -0.001, -0.005, 0.035, -0.039, 0.025, 0.035, -0.087, 0.042, 0.060, -0.097, 0.056, 0.052, -0.112, 0.047, 0.051, -0.099, 0.056, 0.047, -0.080, 0.034, 0.007, -0.002, -0.001, 0.043, -0.062, 0.022, 0.057, -0.110, 0.047, 0.080, -0.138, 0.059, 0.080, -0.137, 0.049, 0.079, -0.116, 0.059, 0.076, -0.096, 0.044, 0.003, -0.014, -0.004, 0.040, -0.067, 0.018, 0.069, -0.106, 0.051, 0.089, -0.138, 0.067, 0.089, -0.133, 0.054, 0.071, -0.124, 0.037, 0.081, -0.095, 0.031, 0.002, -0.002, 0.005, 0.042, -0.051, 0.025, 0.050, -0.105, 0.044, 0.062, -0.131, 0.062, 0.072, -0.125, 0.055, 0.055, -0.115, 0.045, 0.061, -0.105, 0.027, 0.001, -0.009, 0.000, 0.038, -0.053, 0.014, 0.053, -0.083, 0.040, 0.066, -0.112, 0.044, 0.073, -0.114, 0.044, 0.056, -0.110, 0.049, 0.062, -0.102, 0.036, -0.024, -0.015, -0.011, 0.011, 0.040, 0.030, -0.013, 0.003, 0.005, -0.012, -0.018, -0.007, -0.015, -0.052, -0.024, 0.008, -0.034, -0.006, 0.035, 0.001, 0.019, -0.004, 0.021, 0.007, 0.032, 0.070, 0.046, 0.001, 0.028, 0.019, -0.019, -0.029, -0.027, -0.035, -0.096, -0.072, -0.026, -0.103, -0.075, 0.006, -0.067, -0.045, 0.004, 0.054, 0.028, 0.053, 0.125, 0.093, 0.019, 0.077, 0.061, -0.013, -0.001, 0.008, -0.036, -0.090, -0.064, -0.042, -0.131, -0.095, -0.016, -0.104, -0.081, 0.002, 0.039, 0.014, 0.068, 0.142, 0.104, 0.043, 0.109, 0.083, -0.009, 0.009, 0.009, -0.036, -0.093, -0.066, -0.054, -0.153, -0.107, -0.030, -0.134, -0.111, 0.004, 0.027, 0.007, 0.073, 0.143, 0.103, 0.054, 0.114, 0.089, 0.012, 0.047, 0.042, -0.029, -0.063, -0.043, -0.031, -0.110, -0.077, -0.054, -0.138, -0.118, -0.015, -0.005, -0.033, 0.059, 0.111, 0.062, 0.031, 0.086, 0.055, -0.001, 0.043, 0.043, -0.036, -0.041, -0.030, -0.011, -0.050, -0.035, -0.023, -0.082, -0.073, -0.027, -0.013, -0.043, 0.034, 0.082, 0.033, 0.033, 0.076, 0.047, 0.018, 0.058, 0.057, -0.014, -0.006, 0.005, -0.002, -0.021, -0.008, -0.019, -0.054, -0.051, 0.011, 0.019, 0.005, -0.011, -0.005, -0.021, -0.042, -0.031, -0.039, 0.112, 0.085, 0.078, -0.077, -0.053, -0.079, 0.039, 0.043, 0.053, -0.001, -0.027, -0.051, -0.006, -0.015, -0.018, -0.038, -0.034, -0.047, 0.218, 0.194, 0.203, -0.265, -0.343, -0.333, 0.169, 0.214, 0.174, -0.092, -0.062, -0.059, 0.062, 0.032, -0.009, -0.013, -0.009, -0.012, 0.196, 0.142, 0.154, -0.388, -0.354, -0.345, 0.194, 0.294, 0.222, 0.155, 0.071, 0.150, -0.185, -0.167, -0.139, 0.060, 0.064, 0.021, 0.052, 0.058, 0.060, -0.210, -0.258, -0.248, 0.197, 0.248, 0.226, 0.417, 0.468, 0.425, -0.897, -1.137, -1.002, 0.637, 0.687, 0.660, -0.166, -0.130, -0.183, -0.060, -0.064, -0.052, 0.148, 0.212, 0.179, -0.024, -0.066, -0.023, -0.623, -0.724, -0.674, 1.045, 1.199, 1.029, -0.545, -0.605, -0.549, 0.090, 0.065, 0.066, 0.075, 0.044, 0.050, -0.176, -0.169, -0.173, 0.172, 0.184, 0.178, 0.074, 0.040, 0.047, -0.204, -0.112, -0.133, -0.103, -0.173, -0.118, 0.167, 0.176, 0.136, -0.010, -0.022, -0.049, 0.111, 0.087, 0.069, -0.158, -0.152, -0.153, 0.183, 0.198, 0.152, -0.168, -0.235, -0.199, 0.243, 0.257, 0.262, -0.104, -0.138, -0.172, -0.003, -0.009, 0.001, 0.013, 0.025, 0.036, 0.024, 0.026, 0.023, -0.034, -0.085, -0.063, -0.029, -0.037, -0.031, 0.014, 0.045, 0.022, -0.020, 0.009, 0.003, -0.014, -0.008, 0.010, -0.015, 0.015, 0.025, 0.026, 0.081, 0.065, -0.032, -0.098, -0.068, -0.009, -0.091, -0.060, 0.082, 0.135, 0.075, -0.025, 0.037, -0.042, -0.003, -0.008, 0.001, -0.039, -0.008, 0.013, 0.065, 0.182, 0.144, -0.039, -0.073, -0.047, -0.162, -0.430, -0.290, 0.139, 0.095, 0.103, 0.033, 0.143, 0.069, -0.002, -0.012, -0.016, -0.063, -0.084, -0.071, 0.063, 0.223, 0.159, 0.243, 0.501, 0.389, -0.288, -0.527, -0.378, -0.134, -0.399, -0.241, 0.073, 0.101, 0.114, 0.025, -0.004, -0.011, -0.031, -0.112, -0.072, -0.217, -0.205, -0.186, 0.321, 0.714, 0.532, 0.144, 0.318, 0.220, -0.215, -0.437, -0.338, 0.021, -0.067, -0.016, 0.012, 0.008, -0.007, 0.069, 0.011, 0.014, -0.176, -0.325, -0.240, -0.125, -0.052, -0.045, 0.224, 0.504, 0.385, 0.014, 0.025, 0.018, -0.055, -0.131, -0.096, -0.012, 0.011, 0.012, 0.037, 0.057, 0.026, 0.043, -0.041, -0.027, -0.099, -0.215, -0.140, -0.006, 0.045, 0.051, 0.049, 0.087, 0.088, -0.017, -0.029, 0.006, -0.009, -0.008, -0.027, 0.026, 0.004, 0.003, -0.004, -0.010, -0.004, 0.005, 0.008, -0.012, 0.012, 0.034, 0.026, 0.011, 0.001, 0.005, 0.014, -0.029, -0.029, -0.006, -0.001, -0.002, 0.016, -0.022, -0.004, -0.028, -0.051, -0.025, 0.006, 0.049, 0.052, 0.026, 0.128, 0.128, 0.018, 0.042, 0.060, 0.000, -0.060, -0.051, 0.003, 0.001, -0.002, 0.035, -0.033, -0.025, -0.071, -0.144, -0.112, 0.008, 0.098, 0.089, 0.042, 0.220, 0.213, 0.041, 0.095, 0.087, -0.035, -0.144, -0.142, 0.014, -0.011, -0.012, 0.017, -0.101, -0.078, -0.103, -0.243, -0.202, 0.039, 0.141, 0.120, 0.059, 0.292, 0.266, 0.009, 0.064, 0.048, -0.057, -0.206, -0.216, 0.025, 0.011, 0.010, -0.005, -0.142, -0.112, -0.095, -0.240, -0.200, 0.041, 0.156, 0.140, 0.049, 0.295, 0.274, -0.013, 0.039, 0.033, -0.039, -0.179, -0.186, 0.021, 0.026, 0.022, -0.002, -0.090, -0.073, -0.053, -0.152, -0.126, 0.049, 0.135, 0.113, 0.032, 0.216, 0.194, 0.006, 0.038, 0.035, -0.009, -0.112, -0.119, -0.017, -0.008, -0.004, 0.005, -0.028, -0.022, -0.024, -0.055, -0.050, 0.023, 0.077, 0.050, 0.024, 0.128, 0.119, 0.025, 0.049, 0.051, 0.010, -0.036, -0.054, -0.006, 0.005, 0.018, -0.015, -0.010, 0.006, -0.009, -0.005, 0.015, -0.018, -0.015, -0.001, 0.003, -0.022, -0.026, 0.007, -0.027, -0.030, 0.027, 0.007, 0.007, 0.010, 0.016, -0.003, 0.000, 0.021, 0.011, -0.013, 0.023, 0.021, -0.024, 0.013, 0.008, -0.017, -0.062, -0.071, -0.028, -0.113, -0.119, -0.012, -0.075, -0.098, 0.018, 0.016, 0.013, 0.016, 0.041, 0.036, 0.033, 0.136, 0.130, 0.021, 0.169, 0.161, 0.005, 0.072, 0.060, -0.025, -0.068, -0.074, -0.023, -0.109, -0.125, -0.005, -0.043, -0.025, -0.000, -0.021, -0.017, 0.026, 0.132, 0.130, 0.053, 0.290, 0.274, 0.042, 0.266, 0.243, 0.041, 0.150, 0.129, 0.015, 0.007, -0.024, -0.021, -0.112, -0.074, -0.054, -0.216, -0.190, -0.021, -0.111, -0.096, 0.016, 0.084, 0.097, -0.011, 0.156, 0.161, 0.016, 0.159, 0.155, 0.025, 0.106, 0.075, -0.002, -0.029, 0.001, -0.045, -0.195, -0.175, -0.061, -0.260, -0.233, -0.022, -0.120, -0.100, -0.021, -0.010, 0.014, -0.026, 0.029, 0.059, 0.010, 0.073, 0.082, 0.037, 0.084, 0.110, 0.037, 0.003, 0.004, -0.012, -0.142, -0.148, -0.018, -0.142, -0.155, -0.004, -0.069, -0.066, -0.019, -0.043, -0.023, -0.018, -0.018, -0.004, 0.013, -0.014, 0.002, -0.005, -0.019, -0.007, 0.005, 0.011, -0.001, 0.011, 0.009, 0.017, 0.021, 0.021, 0.028, -0.023, -0.011, -0.017, 0.009, -0.015, -0.007, -0.021, 0.022, 0.001, 0.011, 0.022, 0.031, 0.052, 0.023, 0.037, -0.055, -0.109, -0.074, -0.096, -0.097, -0.088, -0.017, 0.019, -0.007, 0.018, 0.040, 0.048, -0.020, -0.018, -0.017, -0.002, -0.036, 0.002, -0.082, -0.196, -0.147, -0.174, -0.207, -0.215, 0.084, 0.243, 0.156, 0.125, 0.249, 0.181, -0.000, 0.008, 0.038, 0.006, -0.028, -0.012, -0.069, -0.129, -0.096, -0.134, -0.110, -0.153, 0.223, 0.551, 0.333, 0.311, 0.588, 0.432, -0.059, -0.116, -0.090, -0.099, -0.211, -0.120, 0.024, 0.026, 0.042, -0.020, 0.031, 0.012, 0.174, 0.382, 0.249, 0.272, 0.486, 0.353, -0.234, -0.417, -0.294, -0.232, -0.510, -0.334, 0.032, -0.050, 0.024, -0.016, 0.008, 0.019, 0.017, 0.035, 0.043, 0.063, 0.057, 0.059, -0.243, -0.428, -0.308, -0.222, -0.503, -0.304, 0.098, 0.025, 0.076, 0.041, 0.103, 0.077, -0.011, -0.009, -0.017, -0.004, -0.015, -0.018, -0.016, -0.056, -0.035, -0.024, -0.095, -0.031, 0.101, 0.139, 0.140, 0.051, 0.178, 0.088, -0.023, 0.068, -0.010, -0.008, -0.019, 0.006, 0.013, 0.015, 0.020, 0.009, 0.026, 0.015, 0.007, 0.021, 0.014, 0.007, -0.003, -0.004, -0.005, -0.009, -0.009, -0.009, -0.015, -0.006, -0.020, 0.005, -0.019, -0.030, -0.002, -0.014, -0.029, 0.003, -0.012, 0.014, 0.045, 0.019, 0.037, 0.090, 0.062, 0.023, 0.085, 0.054, -0.000, 0.041, 0.007, 0.015, 0.002, 0.003, 0.021, 0.001, 0.018, 0.022, -0.014, 0.023, 0.043, -0.042, 0.024, 0.005, -0.104, -0.016, -0.026, -0.109, -0.039, -0.018, -0.068, -0.039, -0.017, -0.019, -0.030, -0.018, -0.076, -0.048, -0.125, -0.263, -0.188, -0.247, -0.497, -0.374, -0.253, -0.529, -0.385, -0.113, -0.274, -0.190, -0.004, -0.044, -0.034, -0.007, -0.005, -0.006, 0.014, 0.041, 0.030, 0.115, 0.250, 0.172, 0.299, 0.578, 0.393, 0.290, 0.598, 0.389, 0.112, 0.301, 0.183, 0.012, 0.073, 0.025, 0.031, 0.055, 0.041, 0.037, 0.090, 0.055, 0.011, 0.100, 0.062, -0.014, 0.128, 0.059, 0.031, 0.183, 0.095, 0.059, 0.180, 0.126, 0.050, 0.128, 0.088, 0.003, -0.014, 0.003, -0.007, -0.048, -0.017, -0.039, -0.122, -0.063, -0.075, -0.215, -0.137, -0.108, -0.264, -0.170, -0.089, -0.203, -0.123, -0.024, -0.071, -0.021, 0.007, -0.005, -0.017, -0.030, -0.016, 0.032, -0.046, -0.010, 0.060, -0.065, -0.010, 0.090, -0.047, 0.006, 0.116, -0.039, -0.006, 0.051, -0.028, -0.013, 0.010, -0.024, 0.012, 0.037, -0.075, 0.024, 0.155, -0.125, 0.038, 0.237, -0.176, 0.038, 0.315, -0.179, 0.043, 0.347, -0.145, 0.040, 0.276, -0.096, 0.034, 0.187, -0.014, -0.017, -0.002, -0.059, -0.006, 0.093, -0.112, 0.026, 0.205, -0.176, 0.041, 0.292, -0.173, 0.053, 0.361, -0.152, 0.017, 0.265, -0.097, 0.009, 0.150, 0.000, 0.018, 0.008, -0.013, -0.005, 0.018, -0.028, 0.021, 0.065, -0.076, 0.013, 0.091, -0.081, 0.026, 0.158, -0.076, 0.021, 0.144, -0.049, 0.020, 0.102, 0.010, 0.025, -0.030, 0.042, -0.014, -0.105, 0.087, -0.001, -0.145, 0.109, -0.019, -0.193, 0.094, -0.012, -0.158, 0.047, -0.004, -0.093, 0.032, 0.009, -0.036, 0.018, 0.013, -0.023, 0.067, -0.021, -0.130, 0.130, -0.025, -0.228, 0.202, -0.054, -0.371, 0.185, -0.052, -0.357, 0.128, -0.020, -0.228, 0.070, -0.016, -0.144, 0.046, 0.010, -0.047, 0.094, -0.014, -0.155, 0.140, -0.024, -0.251, 0.214, -0.059, -0.409, 0.213, -0.056, -0.413, 0.162, -0.047, -0.326, 0.146, -0.019, -0.226, -0.105, 0.026, 0.104, -0.054, 0.021, 0.035, -0.030, 0.014, 0.007, 0.099, 0.036, -0.114, 0.146, 0.023, -0.186, 0.121, 0.029, -0.155, 0.023, 0.024, -0.059, 0.009, 0.018, -0.056, 0.112, 0.031, -0.162, 0.184, 0.021, -0.222, 0.299, 0.047, -0.347, 0.322, 0.053, -0.361, 0.235, 0.049, -0.269, 0.064, 0.036, -0.093, 0.061, 0.024, -0.073, 0.186, 0.029, -0.227, 0.309, 0.066, -0.287, 0.398, 0.070, -0.380, 0.308, 0.034, -0.323, 0.117, 0.008, -0.144, -0.098, -0.028, 0.058, 0.123, 0.025, -0.163, 0.254, 0.042, -0.283, 0.290, 0.051, -0.316, 0.247, 0.026, -0.297, 0.060, -0.005, -0.101, -0.121, -0.010, 0.134, -0.265, -0.019, 0.293, 0.110, 0.025, -0.141, 0.156, 0.026, -0.176, 0.077, 0.020, -0.085, -0.111, -0.012, 0.085, -0.278, -0.038, 0.293, -0.339, -0.048, 0.388, -0.339, -0.052, 0.384, 0.050, -0.017, -0.078, 0.035, -0.004, -0.034, -0.128, -0.031, 0.160, -0.357, -0.048, 0.402, -0.420, -0.071, 0.484, -0.292, -0.077, 0.356, -0.164, -0.082, 0.220, -0.060, -0.013, 0.068, -0.103, 0.007, 0.143, -0.252, -0.028, 0.296, -0.414, -0.083, 0.437, -0.343, -0.072, 0.417, -0.133, -0.067, 0.188, 0.010, -0.052, 0.060, 0.004, 0.008, 0.035, -0.007, -0.016, -0.005, 0.004, 0.029, 0.024, 0.007, -0.023, -0.020, -0.022, -0.083, -0.046, -0.006, 0.004, 0.008, -0.005, 0.026, 0.020, 0.005, -0.004, -0.009, -0.003, -0.000, -0.015, 0.052, 0.101, 0.058, 0.020, -0.044, -0.053, -0.053, -0.216, -0.163, 0.030, 0.018, 0.009, 0.012, 0.068, 0.050, -0.008, -0.018, -0.004, -0.025, 0.013, 0.008, 0.078, 0.191, 0.143, 0.042, -0.010, -0.006, -0.170, -0.427, -0.336, 0.082, 0.093, 0.063, 0.010, 0.137, 0.100, -0.015, -0.022, -0.014, -0.007, 0.032, 0.021, 0.099, 0.252, 0.187, 0.078, 0.044, 0.051, -0.231, -0.572, -0.420, 0.096, 0.085, 0.084, 0.031, 0.205, 0.161, -0.004, -0.008, 0.004, -0.026, 0.012, -0.010, 0.071, 0.226, 0.159, 0.073, 0.063, 0.050, -0.179, -0.478, -0.356, 0.026, -0.039, -0.024, 0.060, 0.237, 0.178, -0.012, -0.009, 0.003, -0.021, 0.009, -0.018, -0.003, 0.090, 0.056, 0.066, 0.070, 0.058, -0.080, -0.228, -0.179, -0.047, -0.118, -0.101, 0.053, 0.172, 0.128, 0.018, 0.026, 0.013, -0.014, -0.011, -0.027, -0.005, 0.027, 0.022, 0.030, 0.043, 0.041, -0.013, -0.082, -0.072, -0.029, -0.099, -0.101, 0.017, 0.082, 0.043, 0.066, -0.150, 0.063, 0.098, -0.136, 0.040, 0.099, -0.174, 0.066, 0.126, -0.220, 0.093, 0.110, -0.230, 0.121, 0.131, -0.299, 0.148, 0.172, -0.340, 0.162, 0.060, -0.143, 0.083, 0.121, -0.195, 0.061, 0.129, -0.220, 0.112, 0.158, -0.243, 0.101, 0.135, -0.216, 0.122, 0.158, -0.301, 0.132, 0.190, -0.324, 0.152, 0.079, -0.164, 0.076, 0.106, -0.203, 0.105, 0.065, -0.166, 0.129, 0.040, -0.071, 0.024, 0.008, 0.010, -0.007, 0.040, -0.048, 0.038, 0.071, -0.155, 0.082, 0.122, -0.202, 0.085, 0.138, -0.226, 0.095, 0.015, -0.067, 0.049, -0.102, 0.223, -0.134, -0.253, 0.440, -0.234, -0.221, 0.404, -0.188, -0.059, 0.159, -0.114, 0.141, -0.231, 0.109, 0.111, -0.186, 0.081, -0.058, 0.077, -0.010, -0.258, 0.497, -0.254, -0.479, 0.820, -0.354, -0.483, 0.762, -0.320, -0.176, 0.399, -0.217, 0.173, -0.301, 0.133, 0.136, -0.229, 0.078, -0.036, 0.071, -0.025, -0.257, 0.513, -0.294, -0.463, 0.818, -0.365, -0.443, 0.739, -0.343, -0.145, 0.369, -0.207, 0.143, -0.313, 0.148, 0.166, -0.261, 0.108, 0.047, -0.072, 0.054, -0.088, 0.228, -0.145, -0.226, 0.420, -0.205, -0.183, 0.340, -0.181, -0.021, 0.088, -0.059, 0.020, -0.002, -0.011, 0.012, 0.023, 0.008, -0.010, 0.007, -0.005, -0.020, -0.000, -0.006, -0.034, 0.008, 0.017, -0.016, 0.013, 0.005, -0.003, 0.007, -0.007, -0.010, -0.031, -0.036, 0.016, -0.015, -0.004, 0.022, 0.003, 0.018, 0.035, 0.051, 0.045, 0.052, 0.144, 0.124, -0.043, 0.020, -0.016, -0.009, 0.004, -0.039, -0.016, -0.012, -0.021, -0.033, -0.067, -0.066, -0.061, -0.159, -0.125, -0.072, -0.239, -0.160, 0.143, 0.157, 0.173, 0.093, 0.239, 0.198, -0.043, 0.045, -0.002, 0.023, 0.051, 0.038, 0.028, 0.078, 0.053, 0.048, 0.028, 0.042, -0.207, -0.495, -0.370, -0.216, -0.570, -0.386, 0.147, 0.127, 0.178, 0.044, 0.160, 0.142, 0.022, 0.072, 0.018, 0.025, 0.100, 0.035, 0.136, 0.332, 0.205, 0.214, 0.300, 0.204, -0.208, -0.503, -0.399, -0.187, -0.450, -0.317, -0.005, -0.033, 0.003, -0.021, -0.021, -0.012, -0.026, -0.036, -0.041, -0.042, 0.067, 0.008, 0.168, 0.393, 0.273, 0.196, 0.271, 0.190, -0.006, -0.087, -0.070, -0.043, -0.086, -0.068, -0.012, -0.027, 0.004, -0.013, -0.040, -0.006, -0.050, -0.071, -0.040, -0.058, -0.012, -0.032, -0.002, 0.091, 0.036, 0.039, 0.062, 0.019, 0.039, 0.028, -0.003, 0.008, -0.016, 0.017, 0.005, -0.001, 0.000, 0.000, 0.001, 0.004, -0.003, 0.001, -0.003, -0.003, 0.005, 0.014, -0.008, -0.019, 0.019, 0.022, -0.034, 0.027, 0.006, -0.005, -0.001, -0.010, 0.026, -0.012, -0.019, 0.046, -0.010, -0.027, 0.060, -0.038, -0.032, 0.059, -0.027, -0.027, 0.036, 0.002, -0.011, 0.003, 0.004, -0.010, 0.001, 0.003, -0.031, 0.035, -0.016, -0.042, 0.070, -0.031, -0.037, 0.117, -0.064, -0.043, 0.104, -0.073, -0.038, 0.077, -0.042, -0.028, 0.045, -0.015, -0.008, 0.008, 0.009, -0.043, 0.057, -0.030, -0.042, 0.109, -0.067, -0.043, 0.158, -0.125, -0.035, 0.153, -0.135, -0.041, 0.121, -0.101, -0.033, 0.095, -0.049, 0.006, -0.002, 0.021, -0.024, 0.055, -0.039, -0.030, 0.109, -0.085, -0.028, 0.164, -0.133, -0.032, 0.155, -0.146, -0.037, 0.129, -0.108, -0.045, 0.092, -0.061, 0.007, -0.026, 0.023, -0.015, 0.031, -0.015, -0.020, 0.091, -0.046, -0.050, 0.133, -0.104, -0.045, 0.141, -0.102, -0.052, 0.128, -0.066, -0.059, 0.090, -0.036, 0.019, -0.040, 0.029, -0.006, 0.002, 0.006, -0.038, 0.039, -0.014, -0.058, 0.092, -0.046, -0.056, 0.108, -0.046, -0.063, 0.086, -0.036, -0.059, 0.066, -0.008, -0.003, 0.022, -0.024, -0.002, 0.015, -0.012, 0.014, 0.012, -0.013, -0.002, 0.001, 0.002, 0.005, 0.005, -0.002, 0.009, 0.003, -0.017, 0.016, 0.013, -0.018, -0.003, 0.014, -0.009, 0.001, -0.009, 0.003, 0.014, -0.024, 0.006, -0.005, -0.037, 0.038, 0.005, -0.032, 0.035, 0.019, -0.028, 0.020, 0.016, -0.023, 0.008, 0.004, 0.017, -0.014, 0.007, -0.020, 0.009, 0.017, -0.045, 0.023, -0.002, -0.067, 0.072, -0.004, -0.076, 0.071, 0.014, -0.062, 0.046, 0.015, -0.050, 0.017, -0.007, 0.007, -0.002, 0.002, -0.028, 0.034, 0.002, -0.070, 0.066, -0.028, -0.111, 0.140, -0.021, -0.113, 0.149, -0.004, -0.098, 0.108, 0.005, -0.064, 0.077, 0.003, 0.015, -0.008, 0.006, -0.024, 0.023, 0.001, -0.071, 0.066, -0.022, -0.117, 0.152, -0.023, -0.133, 0.158, -0.011, -0.105, 0.117, -0.004, -0.074, 0.067, 0.005, 0.015, -0.018, 0.003, -0.027, 0.004, 0.014, -0.056, 0.044, -0.011, -0.104, 0.120, -0.006, -0.114, 0.124, 0.009, -0.087, 0.089, 0.017, -0.070, 0.049, 0.001, 0.016, -0.020, 0.019, -0.009, 0.011, 0.020, -0.043, 0.016, 0.003, -0.086, 0.068, 0.013, -0.084, 0.081, 0.022, -0.075, 0.049, 0.034, -0.057, 0.037, -0.002, 0.007, 0.010, -0.017, -0.003, 0.003, -0.012, -0.000, 0.007, 0.000, 0.011, 0.021, -0.022, -0.009, 0.003, 0.001, 0.006, 0.021, -0.025, -0.020, -0.001, -0.006, -0.004, 0.002, -0.027, -0.021, -0.009, -0.018, -0.013, -0.004, 0.003, 0.003, 0.014, -0.011, -0.009, 0.005, -0.004, -0.004, 0.007, -0.030, -0.033, -0.013, 0.009, -0.002, 0.001, -0.023, -0.032, -0.019, -0.008, -0.022, -0.017, 0.028, 0.017, 0.013, 0.030, 0.024, 0.021, -0.001, -0.004, 0.003, -0.026, -0.037, -0.019, 0.002, -0.011, -0.015, 0.006, -0.009, -0.010, 0.034, 0.015, 0.005, 0.074, 0.064, 0.041, 0.068, 0.062, 0.039, 0.029, 0.027, 0.017, -0.006, -0.014, -0.009, 0.012, -0.001, -0.008, 0.036, 0.026, 0.018, 0.061, 0.047, 0.029, 0.103, 0.089, 0.059, 0.090, 0.085, 0.055, 0.048, 0.049, 0.033, 0.003, -0.001, -0.000, 0.014, -0.003, -0.008, 0.015, 0.007, 0.004, 0.035, 0.027, 0.017, 0.063, 0.056, 0.039, 0.052, 0.054, 0.037, 0.002, 0.009, 0.008, -0.027, -0.025, -0.019, -0.017, -0.026, -0.013, -0.016, -0.019, -0.009, -0.005, -0.006, -0.001, 0.006, 0.006, 0.006, -0.001, 0.007, 0.005, -0.021, -0.010, -0.004, -0.038, -0.032, -0.020, -0.007, -0.014, -0.019, 0.011, -0.006, 0.002, 0.017, 0.007, -0.004, 0.024, -0.005, -0.008, -0.018, -0.023, -0.017, -0.027, 0.001, 0.003, 0.008, 0.040, 0.027, -0.019, -0.005, 0.006, -0.011, -0.016, 0.021, 0.027, -0.004, 0.027, 0.084, 0.015, 0.032, 0.055, 0.008, 0.036, -0.013, 0.002, 0.025, -0.034, 0.007, 0.030, -0.022, -0.003, 0.008, -0.017, -0.009, 0.032, 0.052, -0.002, 0.026, 0.095, -0.035, -0.030, 0.053, -0.071, -0.054, 0.040, 0.020, 0.046, -0.007, 0.021, 0.031, 0.003, 0.013, 0.012, 0.033, 0.017, 0.040, 0.048, -0.052, -0.038, -0.033, -0.256, -0.262, -0.012, -0.229, -0.228, 0.058, -0.033, -0.028, 0.045, 0.038, 0.019, -0.002, -0.004, -0.000, 0.038, 0.012, 0.021, 0.032, -0.062, -0.070, -0.042, -0.252, -0.261, -0.045, -0.251, -0.250, 0.014, -0.078, -0.077, 0.031, 0.004, -0.004, -0.026, -0.010, -0.001, -0.012, -0.001, 0.015, 0.052, 0.040, 0.036, 0.048, -0.030, -0.048, 0.030, -0.056, -0.052, 0.025, -0.003, 0.012, 0.018, 0.026, 0.032, -0.003, -0.001, 0.019, -0.016, -0.005, 0.031, 0.004, 0.015, 0.033, 0.041, 0.019, 0.014, 0.054, 0.027, 0.034, 0.009, 0.015, 0.026, -0.010, -0.001, 0.005, 0.008, -0.007, -0.029, 0.013, -0.004, -0.025, 0.026, 0.008, -0.003, 0.008, 0.008, 0.033, -0.001, 0.004, 0.030, 0.011, 0.020, 0.017, -0.014, -0.006, -0.019, 0.010, 0.035, 0.043, -0.009, -0.002, 0.014, 0.007, 0.006, 0.038, -0.044, -0.056, 0.020, -0.035, -0.051, 0.018, 0.012, 0.019, 0.046, -0.003, 0.029, 0.039, -0.007, -0.011, -0.001, 0.023, 0.020, 0.041, -0.022, -0.048, -0.010, -0.191, -0.264, -0.170, -0.185, -0.265, -0.171, -0.046, -0.059, -0.018, 0.013, 0.038, 0.045, -0.012, -0.001, 0.014, 0.021, 0.032, 0.049, -0.010, -0.020, 0.010, -0.121, -0.180, -0.098, -0.143, -0.196, -0.115, -0.046, -0.056, -0.019, -0.001, 0.038, 0.044, -0.028, -0.009, 0.004, -0.017, 0.004, 0.004, 0.000, 0.015, 0.011, -0.006, -0.003, 0.036, -0.017, -0.005, 0.033, 0.003, 0.030, 0.038, -0.026, 0.018, 0.008, -0.014, -0.010, -0.010, 0.005, 0.016, -0.017, 0.011, 0.012, -0.021, -0.004, 0.025, 0.014, -0.006, 0.032, 0.025, -0.014, 0.022, -0.002, 0.008, 0.034, 0.004, -0.019, 0.005, 0.009, 0.004, 0.031, 0.000, 0.001, 0.029, -0.009, -0.016, 0.044, 0.022, -0.029, 0.035, 0.022, -0.018, 0.037, 0.009, -0.004, 0.046, 0.018, 0.114, 0.085, -0.015, 0.055, 0.042, 0.023, -0.056, -0.057, 0.008, -0.098, -0.102, -0.015, -0.013, -0.012, 0.008, -0.000, 0.004, 0.000, 0.000, 0.009, -0.010, 0.062, 0.047, 0.022, -0.068, -0.084, 0.022, -0.205, -0.222, -0.032, -0.160, -0.170, -0.013, -0.001, -0.003, 0.008, 0.001, 0.011, -0.011, 0.003, 0.006, -0.010, -0.045, -0.063, 0.010, -0.204, -0.225, -0.015, -0.240, -0.248, -0.050, -0.076, -0.077, -0.011, 0.082, 0.080, -0.000, 0.060, 0.076, -0.006, 0.022, 0.033, 0.003, -0.094, -0.104, -0.000, -0.168, -0.184, -0.017, -0.076, -0.088, -0.004, 0.122, 0.118, 0.022, 0.214, 0.215, 0.013, 0.119, 0.128, -0.016, 0.054, 0.046, 0.003, -0.027, -0.021, 0.023, -0.048, -0.049, 0.013, 0.050, 0.052, 0.014, 0.201, 0.203, 0.009, 0.240, 0.235, 0.004, 0.108, 0.115, -0.006, -0.004, 0.000, -0.003, -0.003, 0.008, 0.017, -0.026, -0.010, -0.004, 0.038, 0.050, -0.027, 0.159, 0.159, 0.006, 0.147, 0.136, -0.007, -0.001, -0.002, -0.011, -0.119, -0.095, -0.015, -0.007, -0.006, -0.011, -0.010, 0.008, -0.013, 0.043, 0.047, -0.004, 0.087, 0.080, 0.001, 0.024, 0.016, -0.019, -0.110, -0.097, -0.018, -0.148, -0.106, 0.011, 0.035, 0.015, -0.018, 0.009, 0.006, -0.018, 0.016, 0.013, -0.026, 0.016, 0.014, -0.031, 0.023, 0.013, -0.039, 0.031, 0.009, -0.042, 0.044, 0.015, -0.036, 0.020, 0.006, -0.039, 0.011, 0.011, -0.026, 0.022, 0.018, -0.038, 0.017, 0.010, -0.052, 0.033, 0.020, -0.051, 0.037, 0.014, -0.057, 0.042, 0.011, -0.049, 0.030, 0.008, -0.043, 0.025, 0.018, -0.036, 0.031, 0.017, -0.059, 0.035, 0.013, -0.069, 0.055, 0.027, -0.065, 0.049, 0.013, -0.073, 0.049, 0.012, -0.069, 0.038, 0.010, -0.044, 0.027, 0.011, -0.051, 0.041, 0.018, -0.069, 0.050, 0.019, -0.076, 0.063, 0.024, -0.082, 0.066, 0.021, -0.082, 0.067, 0.023, -0.071, 0.044, 0.012, -0.049, 0.035, 0.012, -0.057, 0.050, 0.020, -0.072, 0.047, 0.014, -0.091, 0.061, 0.022, -0.091, 0.072, 0.026, -0.093, 0.071, 0.025, -0.081, 0.045, 0.004, -0.064, 0.043, 0.011, -0.063, 0.054, 0.022, -0.070, 0.053, 0.014, -0.087, 0.063, 0.020, -0.089, 0.069, 0.017, -0.098, 0.068, 0.019, -0.088, 0.059, 0.013, -0.057, 0.052, 0.017, -0.053, 0.054, 0.022, -0.068, 0.051, 0.015, -0.084, 0.068, 0.024, -0.083, 0.077, 0.024, -0.087, 0.079, 0.024, -0.080, 0.004, 0.003, -0.039, 0.018, 0.016, -0.017, 0.013, 0.035, -0.011, 0.028, 0.038, 0.019, -0.006, -0.020, 0.017, -0.023, -0.049, -0.006, 0.034, 0.011, -0.013, 0.008, 0.005, -0.019, 0.005, -0.021, -0.045, 0.036, 0.041, -0.009, 0.032, 0.078, 0.005, -0.068, -0.099, -0.047, -0.015, -0.051, 0.046, 0.049, 0.035, 0.046, 0.000, 0.019, 0.042, -0.027, -0.068, -0.037, 0.018, 0.008, -0.023, 0.159, 0.304, 0.124, -0.102, -0.055, -0.105, -0.191, -0.290, -0.137, 0.065, 0.050, 0.147, -0.000, 0.023, 0.037, -0.020, -0.037, 0.013, -0.166, -0.296, -0.219, 0.251, 0.362, 0.148, 0.322, 0.552, 0.245, -0.212, -0.275, -0.236, -0.110, -0.184, -0.038, -0.028, -0.030, -0.007, 0.078, 0.092, 0.137, -0.197, -0.377, -0.182, -0.185, -0.344, -0.292, 0.474, 0.720, 0.368, 0.132, 0.261, 0.074, -0.163, -0.208, -0.157, -0.013, -0.013, -0.017, 0.035, 0.083, 0.086, 0.058, 0.037, 0.150, -0.307, -0.544, -0.343, -0.003, -0.003, -0.074, 0.251, 0.399, 0.209, -0.040, -0.009, -0.051, 0.026, 0.017, -0.013, -0.017, -0.014, -0.039, 0.060, 0.140, 0.157, -0.021, -0.081, 0.033, -0.165, -0.270, -0.187, 0.068, 0.071, 0.024, 0.054, 0.057, 0.037, -0.019, 0.002, 0.023, -0.006, 0.025, 0.008, -0.012, 0.024, 0.001, -0.013, 0.011, -0.014, -0.007, 0.016, 0.003, -0.011, 0.017, 0.015, -0.011, 0.015, 0.016, -0.013, 0.014, 0.003, -0.014, 0.033, -0.025, -0.023, 0.029, -0.041, 0.001, 0.043, -0.040, 0.007, 0.045, -0.025, -0.022, 0.027, -0.024, -0.019, 0.026, -0.016, -0.012, 0.019, -0.002, -0.002, 0.047, -0.022, -0.013, 0.047, -0.046, 0.004, 0.056, -0.060, 0.016, 0.062, -0.041, -0.017, 0.040, -0.040, -0.016, 0.033, -0.034, -0.006, 0.016, -0.021, 0.007, 0.049, -0.046, -0.003, 0.049, -0.074, 0.023, 0.064, -0.094, 0.055, 0.097, -0.053, 0.033, 0.081, -0.042, 0.016, 0.061, -0.042, 0.004, 0.022, -0.007, 0.010, 0.051, -0.042, -0.012, 0.041, -0.086, 0.004, 0.044, -0.127, 0.038, 0.083, -0.082, 0.038, 0.091, -0.045, 0.019, 0.072, -0.043, -0.006, 0.016, -0.004, -0.001, 0.046, -0.032, -0.012, 0.054, -0.058, -0.005, 0.053, -0.105, 0.005, 0.068, -0.090, -0.005, 0.068, -0.072, -0.006, 0.067, -0.054, -0.016, 0.001, 0.003, -0.009, 0.037, -0.017, -0.014, 0.052, -0.034, -0.002, 0.058, -0.073, -0.009, 0.059, -0.079, -0.021, 0.060, -0.065, -0.017, 0.070, -0.041, 0.029, -0.023, -0.003, 0.013, -0.009, -0.005, 0.008, -0.004, -0.005, -0.004, 0.008, -0.001, 0.008, 0.009, -0.003, 0.019, -0.010, -0.012, 0.030, -0.010, -0.010, 0.010, -0.007, 0.001, -0.003, 0.007, -0.002, -0.005, 0.015, -0.009, -0.030, 0.035, -0.015, -0.018, 0.035, -0.015, -0.001, 0.025, -0.016, 0.005, 0.023, -0.018, 0.010, -0.007, -0.005, -0.012, 0.013, -0.016, -0.016, 0.038, -0.019, -0.058, 0.066, -0.015, -0.057, 0.070, -0.018, -0.033, 0.059, -0.028, -0.021, 0.041, -0.037, 0.004, 0.006, 0.002, -0.027, 0.039, -0.003, -0.062, 0.069, -0.005, -0.146, 0.123, 0.020, -0.161, 0.137, 0.031, -0.125, 0.113, -0.001, -0.069, 0.094, -0.017, 0.004, -0.004, -0.010, -0.027, 0.033, -0.010, -0.071, 0.076, -0.007, -0.169, 0.142, 0.033, -0.201, 0.148, 0.038, -0.144, 0.133, 0.017, -0.083, 0.101, -0.017, 0.016, -0.010, -0.004, -0.008, 0.026, -0.012, -0.043, 0.058, -0.019, -0.127, 0.119, 0.011, -0.148, 0.129, 0.031, -0.111, 0.109, -0.000, -0.065, 0.083, -0.033, 0.030, -0.006, -0.016, 0.007, 0.020, -0.025, -0.016, 0.043, -0.036, -0.069, 0.091, -0.023, -0.087, 0.095, -0.015, -0.059, 0.087, -0.035, -0.031, 0.082, -0.050, -0.024, -0.000, -0.009, 0.020, 0.027, -0.020, 0.027, 0.027, -0.027, 0.037, 0.029, -0.037, 0.034, 0.033, -0.040, 0.009, 0.027, -0.029, -0.026, 0.006, -0.039, 0.019, 0.025, -0.012, 0.086, 0.071, -0.015, 0.118, 0.091, -0.031, 0.175, 0.129, -0.027, 0.188, 0.138, -0.029, 0.143, 0.113, -0.033, 0.081, 0.079, -0.040, -0.024, -0.012, -0.016, 0.030, 0.028, -0.013, 0.069, 0.056, -0.031, 0.123, 0.096, -0.032, 0.157, 0.119, -0.032, 0.132, 0.109, -0.024, 0.086, 0.083, -0.021, -0.012, -0.000, 0.012, 0.007, 0.005, 0.005, 0.029, 0.026, -0.001, 0.057, 0.044, -0.010, 0.096, 0.076, -0.007, 0.077, 0.066, -0.016, 0.062, 0.056, -0.016, -0.026, -0.026, 0.014, -0.057, -0.052, 0.009, -0.061, -0.051, 0.023, -0.065, -0.062, 0.016, -0.042, -0.046, 0.011, -0.035, -0.022, 0.007, -0.006, -0.003, 0.004, 0.007, -0.017, 0.010, -0.058, -0.067, 0.012, -0.104, -0.101, 0.030, -0.146, -0.135, 0.034, -0.139, -0.133, 0.029, -0.098, -0.086, 0.027, -0.060, -0.051, 0.011, 0.033, 0.003, 0.019, -0.034, -0.050, 0.022, -0.102, -0.097, 0.037, -0.177, -0.148, 0.040, -0.217, -0.181, 0.019, -0.165, -0.121, 0.035, -0.109, -0.084, 0.023, -0.010, -0.010, -0.010, 0.001, 0.015, 0.014, 0.012, 0.025, 0.015, 0.004, -0.001, 0.007, -0.008, -0.019, -0.006, 0.007, 0.010, 0.008, -0.005, 0.005, 0.003, 0.004, 0.010, 0.010, 0.005, 0.016, 0.024, 0.015, 0.022, 0.013, -0.001, -0.026, -0.009, -0.020, -0.045, -0.024, -0.011, -0.028, -0.020, -0.008, -0.004, -0.010, 0.002, -0.000, 0.003, 0.005, 0.012, 0.017, 0.004, -0.008, -0.006, -0.025, -0.076, -0.053, -0.031, -0.078, -0.051, -0.017, -0.043, -0.032, -0.012, -0.006, -0.013, 0.006, 0.003, 0.008, 0.009, -0.005, -0.002, -0.006, -0.048, -0.039, -0.018, -0.086, -0.049, -0.011, -0.068, -0.041, -0.015, -0.043, -0.038, 0.001, 0.002, -0.008, -0.006, 0.005, 0.002, -0.017, -0.030, -0.024, -0.035, -0.076, -0.062, -0.018, -0.076, -0.040, -0.020, -0.058, -0.033, -0.010, -0.019, -0.023, -0.006, 0.006, -0.004, 0.018, 0.017, 0.020, 0.007, -0.013, -0.013, -0.026, -0.074, -0.064, -0.021, -0.082, -0.061, -0.011, -0.048, -0.038, 0.010, 0.004, -0.001, 0.008, 0.019, 0.009, -0.008, -0.013, -0.007, 0.002, -0.009, -0.012, -0.029, -0.052, -0.051, -0.042, -0.073, -0.070, -0.010, -0.028, -0.031, 0.021, 0.025, 0.017, 0.007, 0.033, 0.022, -0.001, -0.019, 0.011, 0.001, 0.004, -0.013, 0.027, 0.035, 0.011, 0.009, 0.017, 0.011, -0.043, -0.057, -0.037, -0.015, -0.030, -0.002, 0.012, 0.011, 0.030, 0.007, -0.001, 0.001, -0.002, 0.010, -0.033, 0.024, 0.077, 0.026, 0.044, 0.089, 0.081, -0.031, -0.080, -0.028, -0.016, -0.035, 0.000, -0.011, 0.018, 0.006, 0.009, 0.023, -0.000, -0.048, 0.030, -0.040, 0.131, 0.269, 0.192, 0.050, -0.006, 0.076, -0.173, -0.364, -0.205, -0.023, -0.050, -0.015, -0.006, 0.038, 0.005, -0.025, 0.011, -0.022, 0.056, 0.145, 0.101, 0.120, 0.123, 0.178, -0.326, -0.649, -0.367, -0.165, -0.378, -0.224, 0.156, 0.251, 0.194, 0.028, 0.126, 0.053, -0.018, 0.006, -0.002, 0.071, 0.094, 0.095, -0.121, -0.293, -0.141, -0.276, -0.545, -0.339, 0.237, 0.348, 0.269, 0.210, 0.469, 0.277, -0.067, 0.005, -0.075, 0.009, 0.008, 0.027, 0.015, -0.004, 0.031, -0.141, -0.250, -0.157, 0.033, 0.043, 0.057, 0.225, 0.448, 0.308, -0.050, 0.061, -0.048, -0.072, -0.129, -0.136, 0.006, -0.016, 0.030, -0.034, -0.050, -0.035, -0.048, -0.059, -0.031, 0.053, 0.138, 0.130, 0.024, 0.128, 0.054, -0.057, -0.081, -0.129, 0.007, -0.057, -0.059, -0.007, -0.008, -0.019, 0.001, -0.005, 0.012, 0.008, -0.009, 0.015, 0.029, 0.007, 0.029, 0.002, -0.019, 0.022, -0.010, -0.030, 0.003, -0.015, -0.023, -0.003, 0.019, 0.017, -0.006, 0.008, -0.016, -0.004, -0.021, -0.085, -0.050, -0.041, -0.138, -0.088, -0.035, -0.155, -0.085, -0.017, -0.109, -0.052, 0.003, -0.022, -0.012, 0.011, 0.000, -0.014, -0.008, -0.024, -0.007, -0.039, -0.087, -0.071, -0.068, -0.130, -0.124, -0.102, -0.173, -0.146, -0.052, -0.093, -0.091, 0.001, 0.006, -0.011, -0.014, 0.022, -0.004, -0.020, 0.050, 0.032, 0.019, 0.138, 0.083, 0.117, 0.314, 0.189, 0.164, 0.385, 0.268, 0.156, 0.332, 0.231, 0.079, 0.202, 0.142, 0.034, 0.062, 0.040, 0.043, 0.145, 0.112, 0.072, 0.225, 0.151, 0.080, 0.261, 0.160, 0.066, 0.194, 0.132, 0.005, 0.075, 0.037, -0.029, 0.007, -0.005, -0.000, -0.016, -0.009, -0.038, -0.050, -0.026, -0.062, -0.124, -0.097, -0.093, -0.182, -0.130, -0.100, -0.231, -0.149, -0.057, -0.163, -0.104, -0.036, -0.095, -0.045, -0.006, -0.027, -0.025, 0.000, -0.050, -0.010, -0.024, -0.122, -0.061, -0.025, -0.152, -0.079, -0.021, -0.145, -0.062, 0.020, -0.046, -0.004, 0.014, -0.003, 0.007, -0.013, -0.015, -0.011, -0.024, -0.015, -0.004, -0.014, -0.009, -0.002, -0.017, -0.009, -0.002, -0.014, -0.008, 0.004, -0.005, -0.015, -0.004, -0.016, -0.025, -0.013, -0.011, -0.009, 0.002, -0.000, 0.004, 0.023, -0.011, -0.006, 0.014, -0.028, -0.015, -0.000, -0.030, -0.019, 0.002, -0.012, -0.015, 0.004, 0.001, -0.001, 0.016, -0.008, -0.011, 0.004, -0.022, -0.020, 0.008, -0.009, -0.008, 0.010, 0.032, 0.037, 0.031, 0.014, 0.019, 0.027, -0.039, -0.042, -0.010, -0.013, -0.016, 0.010, -0.023, -0.030, -0.014, -0.062, -0.063, -0.035, 0.042, 0.042, 0.034, 0.174, 0.172, 0.111, 0.097, 0.099, 0.064, 0.005, 0.008, 0.026, -0.046, -0.049, -0.016, -0.028, -0.040, -0.026, -0.034, -0.037, -0.008, 0.050, 0.054, 0.052, 0.202, 0.205, 0.149, 0.105, 0.122, 0.081, 0.010, 0.023, 0.030, -0.046, -0.042, -0.015, -0.008, -0.016, 0.004, -0.034, -0.022, 0.016, -0.015, -0.003, 0.034, -0.003, 0.009, 0.038, -0.009, -0.001, 0.026, -0.017, -0.015, 0.015, -0.024, -0.021, 0.003, -0.016, -0.017, -0.006, -0.027, -0.022, 0.007, -0.014, -0.007, 0.035, -0.031, -0.033, 0.014, -0.041, -0.048, -0.012, -0.025, -0.028, -0.001, -0.026, -0.017, -0.005, 0.017, 0.008, 0.020, -0.017, -0.042, -0.039, 0.014, -0.004, 0.000, 0.013, 0.032, 0.036, 0.012, 0.050, 0.018, -0.035, -0.032, -0.043, 0.017, -0.000, -0.014, 0.001, -0.027, -0.009, -0.000, -0.017, -0.027, -0.022, -0.020, -0.028, -0.022, 0.055, 0.047, -0.000, 0.072, 0.051, -0.023, -0.027, -0.021, 0.024, 0.005, -0.012, 0.027, 0.002, 0.005, -0.050, -0.029, -0.038, -0.070, 0.059, 0.034, 0.079, 0.294, 0.243, 0.099, 0.113, 0.105, -0.032, -0.142, -0.118, -0.004, -0.038, -0.057, 0.015, 0.028, 0.023, -0.053, 0.044, 0.015, 0.077, 0.320, 0.258, 0.177, 0.240, 0.210, -0.128, -0.444, -0.350, -0.111, -0.356, -0.297, 0.051, 0.062, 0.020, -0.019, 0.014, 0.015, -0.018, 0.071, 0.037, 0.128, 0.192, 0.156, -0.113, -0.406, -0.338, -0.220, -0.601, -0.495, 0.133, 0.124, 0.103, 0.063, 0.221, 0.176, -0.027, -0.033, -0.029, 0.006, 0.002, -0.007, -0.025, -0.119, -0.100, -0.140, -0.389, -0.321, 0.135, 0.096, 0.085, 0.098, 0.286, 0.230, -0.049, 0.075, 0.068, 0.013, -0.014, -0.018, 0.023, 0.018, -0.006, 0.011, -0.026, -0.031, 0.036, 0.004, -0.001, 0.057, 0.159, 0.136, -0.032, 0.084, 0.069, -0.043, -0.040, -0.024, 0.038, 0.019, -0.059, 0.108, 0.019, -0.135, -0.008, 0.019, -0.009, -0.074, 0.008, 0.070, -0.055, -0.030, 0.094, 0.034, -0.051, 0.016, 0.016, -0.049, 0.012, 0.041, 0.039, -0.064, 0.135, 0.053, -0.187, 0.006, 0.045, -0.047, -0.140, 0.036, 0.119, -0.228, -0.031, 0.258, -0.144, -0.073, 0.232, -0.099, -0.071, 0.158, 0.080, 0.013, -0.121, 0.247, 0.042, -0.298, 0.179, 0.027, -0.223, -0.041, 0.022, -0.007, -0.273, -0.013, 0.311, -0.292, -0.062, 0.378, -0.205, -0.095, 0.291, 0.093, 0.020, -0.124, 0.326, 0.046, -0.369, 0.316, 0.045, -0.352, 0.119, 0.050, -0.162, -0.288, -0.012, 0.296, -0.510, -0.072, 0.569, -0.470, -0.087, 0.603, 0.069, 0.018, -0.100, 0.336, 0.028, -0.382, 0.372, 0.046, -0.433, 0.274, 0.049, -0.333, -0.093, 0.006, 0.085, -0.422, -0.050, 0.484, -0.515, -0.110, 0.611, 0.011, 0.020, -0.010, 0.255, 0.022, -0.290, 0.325, 0.038, -0.350, 0.332, 0.045, -0.369, 0.107, -0.000, -0.127, -0.174, -0.033, 0.209, -0.345, -0.085, 0.419, -0.028, 0.027, 0.010, 0.145, 0.057, -0.215, 0.204, 0.055, -0.263, 0.251, 0.045, -0.330, 0.164, 0.029, -0.201, -0.010, -0.017, 0.004, -0.189, -0.033, 0.233, 0.029, 0.017, 0.018, -0.005, -0.036, -0.013, 0.000, -0.016, -0.002, -0.012, -0.007, -0.001, -0.001, 0.026, 0.009, -0.011, 0.025, 0.001, -0.036, 0.013, -0.023, 0.005, -0.020, 0.001, -0.048, -0.090, -0.041, -0.036, -0.057, -0.020, -0.024, -0.013, 0.002, 0.013, 0.052, 0.018, 0.029, 0.075, 0.029, 0.017, 0.071, 0.014, 0.006, -0.023, -0.001, -0.068, -0.132, -0.065, -0.048, -0.088, -0.034, -0.016, -0.015, 0.002, 0.035, 0.078, 0.034, 0.064, 0.124, 0.052, 0.057, 0.121, 0.051, 0.002, -0.038, -0.003, -0.083, -0.161, -0.083, -0.059, -0.124, -0.050, -0.033, -0.045, -0.017, 0.053, 0.094, 0.053, 0.067, 0.129, 0.056, 0.072, 0.140, 0.058, -0.001, -0.029, 0.000, -0.092, -0.163, -0.085, -0.063, -0.134, -0.055, -0.027, -0.049, -0.017, 0.040, 0.067, 0.033, 0.068, 0.121, 0.061, 0.087, 0.141, 0.071, -0.003, -0.021, -0.002, -0.079, -0.136, -0.074, -0.054, -0.109, -0.044, -0.028, -0.049, -0.015, 0.025, 0.047, 0.020, 0.041, 0.078, 0.028, 0.069, 0.112, 0.052, 0.029, 0.015, 0.022, -0.045, -0.091, -0.054, -0.038, -0.080, -0.037, -0.027, -0.047, -0.025, 0.014, 0.031, 0.008, 0.018, 0.049, 0.004, 0.039, 0.080, 0.023, 0.013, 0.015, -0.000, -0.009, 0.018, 0.019, -0.028, 0.001, 0.002, -0.034, -0.005, -0.004, 0.001, 0.019, 0.007, 0.004, 0.009, -0.017, -0.004, -0.007, -0.033, 0.018, 0.025, 0.028, 0.003, 0.033, 0.055, -0.014, 0.017, 0.036, -0.015, 0.021, 0.039, 0.021, 0.049, 0.053, 0.032, 0.041, 0.033, 0.023, 0.024, 0.015, 0.014, 0.019, 0.020, -0.008, 0.021, 0.041, -0.038, -0.004, 0.013, -0.027, 0.008, 0.023, 0.017, 0.044, 0.047, 0.029, 0.042, 0.036, 0.029, 0.032, 0.022, -0.019, -0.005, 0.010, -0.058, -0.017, 0.023, -0.097, -0.051, -0.015, -0.081, -0.033, 0.003, -0.033, 0.006, 0.030, -0.020, 0.012, 0.020, -0.017, 0.009, 0.015, -0.006, -0.001, 0.004, -0.051, -0.022, 0.009, -0.092, -0.058, -0.028, -0.090, -0.052, -0.020, -0.036, -0.004, 0.014, -0.017, 0.007, 0.013, -0.020, 0.001, 0.006, 0.016, 0.009, 0.006, -0.025, -0.008, 0.010, -0.047, -0.027, -0.010, -0.044, -0.022, -0.005, -0.014, 0.004, 0.013, -0.002, 0.011, 0.013, -0.002, 0.012, 0.012, 0.031, 0.020, 0.011, -0.003, 0.008, 0.015, -0.024, -0.014, -0.009, -0.028, -0.016, -0.006, -0.008, 0.002, 0.003, -0.001, 0.007, 0.001, 0.003, 0.015, 0.007, -0.083, -0.007, 0.079, -0.053, 0.048, 0.140, 0.006, 0.037, 0.037, 0.052, -0.019, -0.156, 0.050, 0.005, -0.077, 0.019, -0.000, -0.037, -0.001, -0.011, 0.004, -0.072, 0.039, 0.127, -0.013, 0.072, 0.107, 0.070, 0.018, -0.086, 0.105, -0.077, -0.320, 0.066, -0.000, -0.116, -0.015, 0.018, 0.045, -0.046, 0.025, 0.101, -0.054, 0.038, 0.099, 0.062, 0.028, -0.043, 0.140, -0.089, -0.316, 0.159, -0.137, -0.449, 0.053, -0.006, -0.076, -0.065, 0.039, 0.159, -0.111, 0.013, 0.193, 0.009, 0.005, -0.035, 0.144, -0.034, -0.233, 0.185, -0.119, -0.449, 0.162, -0.116, -0.421, 0.004, 0.032, 0.056, -0.137, 0.052, 0.273, -0.123, 0.042, 0.291, 0.031, 0.006, -0.060, 0.133, -0.021, -0.206, 0.152, -0.054, -0.295, 0.081, -0.032, -0.173, -0.084, 0.094, 0.262, -0.180, 0.065, 0.357, -0.120, 0.066, 0.297, 0.036, -0.005, -0.082, 0.077, -0.014, -0.154, 0.057, -0.022, -0.147, -0.005, 0.005, 0.025, -0.133, 0.052, 0.280, -0.136, 0.026, 0.260, -0.062, -0.010, 0.135, 0.029, 0.001, -0.072, 0.035, 0.016, -0.060, 0.000, 0.008, 0.004, -0.037, 0.027, 0.114, -0.096, 0.047, 0.253, -0.061, 0.012, 0.148, -0.005, -0.041, -0.028, -0.001, -0.008, 0.006, -0.006, -0.006, -0.015, -0.002, 0.013, -0.014, -0.017, 0.022, -0.003, -0.005, 0.025, 0.006, -0.008, 0.021, 0.012, 0.005, -0.009, 0.002, 0.016, 0.041, 0.019, 0.022, 0.079, 0.044, 0.040, 0.126, 0.081, 0.048, 0.159, 0.098, 0.059, 0.148, 0.103, 0.033, 0.103, 0.071, 0.008, 0.028, 0.020, -0.005, -0.020, -0.015, 0.040, 0.017, 0.028, 0.069, 0.070, 0.078, 0.074, 0.070, 0.082, 0.025, -0.009, 0.023, -0.014, -0.057, -0.018, -0.044, -0.081, -0.045, -0.017, -0.083, -0.041, -0.081, -0.227, -0.136, -0.159, -0.382, -0.236, -0.184, -0.462, -0.284, -0.142, -0.394, -0.237, -0.057, -0.213, -0.117, -0.006, -0.099, -0.045, 0.008, -0.044, -0.021, -0.026, -0.105, -0.078, -0.044, -0.149, -0.097, -0.046, -0.166, -0.102, 0.004, -0.091, -0.050, 0.015, -0.030, -0.029, -0.006, -0.043, -0.042, 0.008, 0.029, 0.030, 0.034, 0.080, 0.057, 0.069, 0.168, 0.125, 0.097, 0.231, 0.155, 0.076, 0.206, 0.137, 0.050, 0.140, 0.095, 0.006, 0.049, 0.034, 0.002, 0.004, 0.001, 0.028, 0.060, 0.019, 0.019, 0.102, 0.048, -0.002, 0.119, 0.049, 0.002, 0.100, 0.037, -0.010, 0.062, 0.018, -0.005, 0.029, 0.019, -0.004, 0.001, 0.019, 0.020, 0.015, -0.017, 0.002, 0.012, -0.006, 0.000, 0.005, -0.009, -0.016, -0.005, -0.032, -0.004, -0.015, -0.019, 0.010, 0.004, -0.002, -0.004, 0.000, -0.012, -0.004, 0.009, -0.008, 0.017, 0.013, 0.022, 0.056, 0.071, 0.069, 0.036, 0.076, 0.064, 0.006, 0.055, 0.041, -0.020, 0.028, 0.008, 0.005, 0.005, 0.006, -0.046, -0.060, -0.044, -0.123, -0.209, -0.157, -0.164, -0.294, -0.207, -0.069, -0.184, -0.103, 0.008, -0.073, -0.002, 0.014, -0.018, 0.010, 0.029, 0.063, 0.033, 0.104, 0.203, 0.151, 0.170, 0.355, 0.271, 0.131, 0.320, 0.193, -0.105, 0.015, -0.074, -0.160, -0.126, -0.163, -0.076, -0.040, -0.096, -0.021, -0.070, -0.049, -0.077, -0.155, -0.116, -0.086, -0.135, -0.117, 0.153, 0.230, 0.162, 0.429, 0.613, 0.453, 0.328, 0.506, 0.372, 0.125, 0.210, 0.106, 0.007, -0.007, -0.001, 0.034, 0.003, 0.029, -0.024, -0.172, -0.095, -0.268, -0.591, -0.421, -0.405, -0.772, -0.571, -0.237, -0.469, -0.327, -0.043, -0.134, -0.094, -0.007, 0.011, -0.001, -0.007, 0.034, -0.004, 0.003, 0.108, 0.075, 0.124, 0.255, 0.222, 0.147, 0.269, 0.222, 0.060, 0.110, 0.110, -0.013, -0.012, 0.016, 0.017, 0.016, 0.018, 0.002, 0.006, 0.001, -0.022, -0.021, -0.010, -0.000, 0.007, -0.004, -0.007, -0.000, -0.000, -0.016, -0.017, -0.003, 0.010, 0.012, 0.014, -0.008, -0.003, -0.019, -0.013, -0.007, -0.031, -0.046, -0.019, -0.040, -0.028, -0.000, -0.023, -0.026, 0.004, -0.020, -0.032, 0.001, -0.021, -0.007, -0.008, -0.024, 0.009, 0.055, 0.043, 0.048, 0.128, 0.092, 0.037, 0.168, 0.102, 0.071, 0.217, 0.140, 0.053, 0.187, 0.113, 0.024, 0.125, 0.067, 0.023, 0.068, 0.037, -0.003, -0.013, 0.002, 0.015, 0.021, 0.019, 0.032, 0.062, 0.047, 0.084, 0.129, 0.094, 0.081, 0.128, 0.086, 0.063, 0.100, 0.060, 0.038, 0.050, 0.015, -0.004, -0.044, -0.033, -0.045, -0.145, -0.110, -0.119, -0.287, -0.213, -0.158, -0.366, -0.272, -0.122, -0.338, -0.241, -0.109, -0.267, -0.213, -0.065, -0.174, -0.148, -0.033, -0.036, -0.032, -0.029, -0.069, -0.054, -0.053, -0.113, -0.063, -0.026, -0.110, -0.056, -0.041, -0.120, -0.074, -0.038, -0.103, -0.070, -0.038, -0.091, -0.062, 0.003, -0.001, 0.009, 0.051, 0.070, 0.050, 0.055, 0.112, 0.078, 0.063, 0.146, 0.114, 0.069, 0.169, 0.122, 0.052, 0.129, 0.094, 0.006, 0.046, 0.037, 0.019, -0.019, -0.002, 0.004, 0.016, 0.002, 0.000, 0.006, -0.007, 0.001, 0.020, 0.024, -0.002, 0.008, 0.004, 0.005, -0.003, -0.001, -0.002, -0.009, 0.003, 0.009, -0.024, -0.027, 0.020, -0.023, -0.044, 0.026, -0.009, 0.001, 0.005, -0.053, -0.031, -0.049, -0.100, -0.072, -0.041, -0.069, -0.051, -0.017, -0.036, -0.016, 0.001, 0.035, 0.034, -0.019, 0.016, 0.008, -0.125, -0.075, -0.080, -0.111, -0.020, -0.080, 0.009, 0.141, 0.077, 0.077, 0.229, 0.171, 0.071, 0.126, 0.086, -0.020, -0.011, -0.004, -0.007, 0.057, 0.032, 0.149, 0.253, 0.226, 0.299, 0.436, 0.381, 0.202, 0.236, 0.216, -0.007, -0.102, -0.063, -0.075, -0.186, -0.149, 0.019, -0.002, 0.014, 0.039, 0.002, 0.008, -0.111, -0.288, -0.198, -0.355, -0.738, -0.536, -0.401, -0.804, -0.610, -0.147, -0.360, -0.266, 0.042, -0.006, 0.009, 0.001, -0.043, -0.021, -0.031, -0.096, -0.076, 0.019, 0.031, 0.020, 0.252, 0.415, 0.316, 0.409, 0.679, 0.540, 0.255, 0.473, 0.354, 0.023, 0.092, 0.066, 0.004, 0.014, -0.009, 0.034, 0.080, 0.057, 0.007, 0.052, 0.040, -0.088, -0.030, -0.059, -0.185, -0.175, -0.175, -0.139, -0.150, -0.149, -0.023, -0.008, -0.008,-0.010, 0.003, -0.002, -0.009, 0.013, -0.016, 0.001, 0.004, -0.001, -0.007, -0.018, -0.012, 0.004, 0.045, 0.053, 0.006, -0.065, -0.027, -0.003, 0.011, -0.011, -0.002, -0.012, -0.010, 0.040, 0.010, 0.004, -0.044, -0.045, -0.070, 0.031, 0.050, 0.036, 0.070, 0.120, 0.141, -0.093, -0.221, -0.147, 0.048, 0.085, 0.038, -0.005, -0.013, -0.003, 0.091, 0.034, 0.060, -0.184, -0.230, -0.215, 0.141, 0.340, 0.262, -0.025, -0.060, 0.010, -0.093, -0.283, -0.181, 0.067, 0.148, 0.075, -0.009, -0.001, -0.016, 0.131, 0.058, 0.080, -0.324, -0.347, -0.324, 0.423, 0.772, 0.593, -0.305, -0.573, -0.382, 0.125, -0.044, 0.030, 0.009, 0.168, 0.058, -0.010, 0.008, -0.024, 0.063, -0.028, -0.015, -0.220, -0.178, -0.203, 0.395, 0.706, 0.560, -0.505, -0.860, -0.617, 0.353, 0.312, 0.326, -0.121, 0.003, -0.087, -0.002, 0.018, -0.004, -0.020, -0.071, -0.054, 0.018, 0.108, 0.069, 0.082, 0.155, 0.147, -0.203, -0.432, -0.281, 0.233, 0.267, 0.230, -0.101, -0.022, -0.083, -0.010, 0.009, -0.010, 0.007, -0.049, -0.022, 0.055, 0.081, 0.095, -0.060, -0.099, -0.043, -0.020, -0.085, -0.035, 0.057, 0.075, 0.045, -0.025, 0.010, -0.043, 0.131, 0.032, -0.171, 0.054, -0.013, -0.032, -0.003, -0.056, 0.046, -0.172, -0.044, 0.199, -0.146, -0.010, 0.162, -0.035, 0.042, 0.030, 0.070, 0.030, -0.125, 0.128, -0.003, -0.141, -0.037, -0.040, 0.103, -0.159, -0.087, 0.250, -0.322, -0.062, 0.383, -0.196, 0.011, 0.220, 0.000, 0.026, -0.034, 0.145, 0.047, -0.187, 0.077, -0.020, -0.077, -0.160, -0.055, 0.257, -0.323, -0.099, 0.395, -0.352, -0.034, 0.395, -0.109, 0.010, 0.072, 0.148, 0.050, -0.207, 0.256, 0.059, -0.309, -0.122, -0.035, 0.171, -0.405, -0.069, 0.508, -0.471, -0.071, 0.525, -0.307, -0.004, 0.326, 0.069, 0.028, -0.134, 0.342, 0.076, -0.378, 0.358, 0.077, -0.449, -0.219, -0.059, 0.271, -0.443, -0.059, 0.506, -0.367, -0.032, 0.389, -0.056, 0.018, 0.040, 0.299, 0.046, -0.344, 0.403, 0.051, -0.452, 0.352, 0.042, -0.408, -0.129, -0.031, 0.154, -0.232, -0.023, 0.284, -0.068, 0.006, 0.087, 0.174, 0.013, -0.231, 0.351, 0.057, -0.405, 0.327, 0.029, -0.391, 0.236, 0.028, -0.247, -0.037, 0.001, 0.029, -0.051, -0.005, 0.065, 0.081, -0.000, -0.123, 0.251, 0.038, -0.291, 0.303, 0.058, -0.360, 0.234, 0.039, -0.272, 0.119, 0.001, -0.134, 0.003, -0.002, 0.009, 0.002, -0.002, 0.010, -0.000, -0.006, -0.001, -0.001, -0.009, -0.004, -0.003, -0.010, -0.001, -0.001, -0.007, 0.005, -0.001, -0.006, 0.009, 0.001, -0.004, 0.012, 0.000, -0.007, 0.008, -0.012, -0.023, -0.019, -0.014, -0.025, -0.024, -0.009, -0.021, -0.016, -0.002, -0.008, 0.001, 0.005, 0.002, 0.013, -0.000, -0.006, 0.007, -0.012, -0.023, -0.012, -0.022, -0.037, -0.035, -0.016, -0.029, -0.030, -0.012, -0.025, -0.023, -0.001, -0.009, -0.002, 0.006, 0.002, 0.014, -0.002, -0.008, 0.008, -0.017, -0.027, -0.016, -0.022, -0.034, -0.031, -0.011, -0.023, -0.023, -0.008, -0.018, -0.016, 0.002, -0.006, -0.000, -0.000, -0.003, 0.009, -0.005, -0.012, 0.005, -0.012, -0.020, -0.006, -0.013, -0.021, -0.017, -0.004, -0.013, -0.013, -0.000, -0.004, -0.005, 0.006, 0.002, 0.007, -0.001, -0.004, 0.008, 0.000, -0.011, 0.004, -0.002, -0.010, 0.004, 0.001, -0.007, -0.000, 0.004, -0.003, -0.001, 0.004, -0.002, 0.003, 0.003, -0.005, 0.007, 0.004, -0.005, 0.009, 0.002, -0.009, 0.005, 0.003, -0.004, 0.011, 0.001, -0.004, 0.008, 0.007, 0.001, 0.009, 0.008, -0.001, 0.012, 0.002, -0.006, 0.011, 0.003, -0.008, 0.011, 0.001, 0.004, 0.014, 0.003, -0.001, -0.021, 0.017, -0.005, 0.010, -0.020, -0.051, -0.020, -0.027, -0.031, 0.012, 0.034, 0.069, 0.039, -0.004, 0.006, -0.004, -0.003, -0.001, 0.003, 0.007, 0.029, -0.007, 0.051, 0.020, 0.043, -0.077, -0.183, -0.100, 0.004, 0.023, 0.046, 0.034, 0.122, 0.069, -0.029, -0.037, -0.046, -0.011, -0.007, 0.000, -0.015, 0.053, 0.010, 0.129, 0.160, 0.128, -0.213, -0.445, -0.301, 0.093, 0.147, 0.135, 0.062, 0.218, 0.128, -0.050, -0.096, -0.094, -0.008, -0.003, -0.004, -0.039, 0.033, -0.024, 0.213, 0.301, 0.238, -0.300, -0.665, -0.447, 0.111, 0.130, 0.126, 0.150, 0.425, 0.266, -0.118, -0.191, -0.164, -0.011, -0.004, 0.002, -0.054, 0.009, -0.015, 0.146, 0.258, 0.226, -0.190, -0.493, -0.304, -0.060, -0.141, -0.100, 0.290, 0.579, 0.400, -0.161, -0.222, -0.205, 0.022, 0.004, -0.014, -0.025, 0.012, -0.013, 0.018, 0.088, 0.075, 0.013, -0.133, -0.035, -0.138, -0.261, -0.208, 0.244, 0.430, 0.319, -0.117, -0.154, -0.131, 0.020, 0.003, 0.008, -0.011, 0.001, -0.010, -0.029, -0.013, -0.001, 0.058, 0.011, 0.038, -0.084, -0.160, -0.145, 0.098, 0.188, 0.143, -0.050, -0.030, -0.026, -0.040, -0.039, -0.003, -0.027, -0.036, -0.027, -0.007, -0.003, -0.020, 0.027, 0.050, 0.022, 0.013, 0.032, 0.010, 0.016, 0.027, 0.012, -0.007, 0.002, -0.001, -0.054, -0.056, -0.027, 0.001, 0.010, 0.002, 0.040, 0.072, 0.038, 0.052, 0.103, 0.053, 0.010, 0.052, 0.022, 0.006, 0.025, 0.027, -0.023, -0.021, -0.002, -0.038, -0.020, -0.016, 0.040, 0.090, 0.040, 0.078, 0.149, 0.080, 0.052, 0.130, 0.072, 0.006, 0.046, 0.029, -0.014, -0.006, 0.022, -0.050, -0.065, -0.021, 0.026, 0.057, 0.028, 0.095, 0.152, 0.075, 0.094, 0.165, 0.086, 0.051, 0.106, 0.066, -0.016, -0.019, 0.007, -0.050, -0.090, -0.025, -0.040, -0.093, -0.036, 0.019, 0.041, 0.022, 0.070, 0.113, 0.059, 0.048, 0.078, 0.043, -0.012, -0.015, -0.002, -0.071, -0.126, -0.056, -0.074, -0.152, -0.070, -0.055, -0.116, -0.057, 0.025, 0.027, 0.023, 0.041, 0.055, 0.029, 0.002, -0.010, -0.008, -0.062, -0.113, -0.063, -0.099, -0.183, -0.098, -0.074, -0.157, -0.094, -0.001, -0.049, -0.027, 0.025, -0.008, -0.002, 0.004, -0.016, -0.016, -0.045, -0.074, -0.053, -0.082, -0.135, -0.080, -0.065, -0.129, -0.072, 0.013, -0.029, -0.004, 0.100, 0.080, 0.064, -0.003, -0.010, -0.002, -0.003, -0.010, -0.002, -0.004, -0.009, -0.001, -0.005, -0.009, 0.000, -0.007, -0.009, -0.000, -0.007, -0.008, 0.002, -0.008, -0.006, 0.003, -0.005, -0.011, -0.001, -0.005, -0.012, -0.002, -0.004, -0.011, -0.000, -0.006, -0.011, 0.000, -0.007, -0.009, 0.002, -0.009, -0.007, 0.003, -0.010, -0.006, 0.004, -0.005, -0.010, -0.000, -0.006, -0.013, -0.003, -0.006, -0.013, -0.002, -0.007, -0.011, -0.000, -0.007, -0.007, 0.003, -0.007, -0.004, 0.005, -0.009, -0.004, 0.006, -0.006, -0.011, -0.000, -0.007, -0.012, -0.002, -0.007, -0.010, -0.001, -0.007, -0.007, 0.002, -0.006, -0.002, 0.006, -0.007, -0.000, 0.009, -0.009, -0.003, 0.007, -0.007, -0.010, 0.000, -0.006, -0.009, 0.001, -0.007, -0.006, 0.002, -0.007, -0.003, 0.004, -0.006, 0.001, 0.008, -0.008, 0.002, 0.010, -0.011, -0.001, 0.008, -0.004, -0.005, 0.003, -0.006, -0.005, 0.003, -0.007, -0.003, 0.004, -0.008, -0.002, 0.004, -0.007, 0.002, 0.008, -0.008, 0.003, 0.010, -0.010, 0.001, 0.008, -0.002, -0.001, 0.006, -0.004, -0.001, 0.006, -0.005, 0.000, 0.007, -0.005, 0.001, 0.008, -0.006, 0.002, 0.009, -0.008, 0.003, 0.009, -0.011, 0.000, 0.007, 0.005, -0.005, -0.003, 0.001, -0.006, -0.001, 0.001, -0.008, -0.004, 0.011, -0.003, 0.004, 0.004, -0.005, 0.005, -0.004, -0.013, -0.002, 0.007, 0.001, 0.011, 0.008, 0.000, 0.004, 0.004, -0.005, 0.004, 0.000, -0.008, -0.001, 0.008, -0.006, -0.002, 0.009, -0.001, 0.008, 0.004, -0.007, 0.006, 0.011, 0.004, 0.017, 0.009, 0.001, 0.002, 0.002, -0.008, -0.001, 0.005, -0.007, -0.004, 0.016, -0.002, -0.004, 0.015, 0.004, 0.002, 0.009, 0.000, 0.004, 0.014, 0.009, 0.018, 0.003, -0.003, -0.000, -0.003, -0.017, -0.010, -0.010, -0.027, -0.026, 0.010, -0.011, -0.015, 0.004, -0.011, -0.017, -0.006, -0.023, -0.022, 0.001, -0.009, -0.005, 0.002, -0.002, -0.003, -0.002, -0.013, -0.015, -0.020, -0.035, -0.041, -0.003, -0.017, -0.020, -0.001, -0.016, -0.017, -0.022, -0.041, -0.040, -0.020, -0.034, -0.032, 0.002, -0.002, 0.004, -0.004, -0.010, -0.012, -0.021, -0.029, -0.036, -0.014, -0.023, -0.028, -0.009, -0.019, -0.021, -0.028, -0.040, -0.044, -0.028, -0.037, -0.039, 0.005, -0.000, 0.012, 0.010, 0.011, 0.017, -0.001, -0.000, -0.001, -0.006, -0.012, -0.012, -0.001, -0.009, -0.011, -0.011, -0.018, -0.022, -0.008, -0.009, -0.009, -0.003, 0.001, 0.005, -0.023, -0.016, -0.007, 0.015, 0.023, 0.021, 0.003, 0.028, 0.001, 0.028, 0.025, 0.008, 0.003, -0.014, -0.003, 0.010, -0.015, -0.001, 0.017, 0.003, 0.021, -0.027, -0.041, -0.028, 0.020, 0.039, 0.021, 0.039, 0.110, 0.052, 0.026, 0.053, 0.024, -0.039, -0.069, -0.037, 0.008, -0.033, 0.002, 0.011, -0.017, 0.004, -0.064, -0.096, -0.082, -0.001, 0.043, 0.004, 0.102, 0.246, 0.138, 0.010, 0.064, 0.029, -0.089, -0.159, -0.096, -0.008, -0.061, -0.010, -0.004, -0.043, -0.005, -0.082, -0.120, -0.103, 0.026, 0.110, 0.038, 0.177, 0.381, 0.215, 0.026, 0.067, 0.032, -0.158, -0.285, -0.186, 0.025, -0.062, 0.002, -0.009, -0.053, 0.006, -0.089, -0.128, -0.106, 0.083, 0.184, 0.100, 0.182, 0.382, 0.212, -0.006, 0.016, -0.019, -0.178, -0.318, -0.216, 0.046, -0.034, 0.049, -0.021, -0.047, -0.009, -0.068, -0.091, -0.080, 0.067, 0.146, 0.076, 0.130, 0.278, 0.161, -0.040, -0.041, -0.045, -0.153, -0.272, -0.174, 0.040, -0.010, 0.056, 0.006, 0.011, 0.018, -0.018, -0.012, -0.019, 0.061, 0.112, 0.061, 0.063, 0.147, 0.078, -0.030, -0.037, -0.019, -0.101, -0.163, -0.091, 0.025, -0.018, 0.028, 0.009, 0.020, 0.037, 0.007, -0.012, 0.008, -0.005, -0.051, -0.027, -0.010, -0.048, -0.018, -0.021, -0.032, -0.013, -0.012, -0.002, -0.005, 0.014, 0.013, 0.002, -0.005, -0.048, -0.047, -0.010, -0.080, -0.071, -0.027, -0.093, -0.094, -0.021, -0.047, -0.059, -0.004, 0.006, -0.006, 0.005, 0.038, 0.024, 0.032, 0.036, 0.013, -0.013, -0.057, -0.076, -0.019, -0.054, -0.070, -0.007, -0.009, -0.039, 0.016, 0.083, 0.047, 0.033, 0.124, 0.099, 0.032, 0.123, 0.100, 0.046, 0.088, 0.071, 0.014, 0.023, 0.003, 0.029, 0.084, 0.057, 0.032, 0.133, 0.099, 0.021, 0.159, 0.141, 0.019, 0.140, 0.143, 0.045, 0.136, 0.126, 0.027, 0.052, 0.037, 0.030, 0.047, 0.043, 0.047, 0.116, 0.098, 0.023, 0.118, 0.098, 0.005, 0.086, 0.081, 0.004, 0.037, 0.051, 0.020, 0.008, 0.014, -0.007, -0.074, -0.061, 0.012, 0.029, 0.024, 0.024, 0.079, 0.075, 0.006, 0.058, 0.064, -0.003, 0.019, 0.034, -0.016, -0.052, -0.033, -0.019, -0.086, -0.079, -0.032, -0.111, -0.102, -0.001, 0.001, -0.003, 0.009, 0.024, 0.028, -0.005, -0.005, 0.011, -0.007, -0.032, -0.019, -0.004, -0.065, -0.066, 0.004, -0.064, -0.079, 0.012, -0.044, -0.060, -0.023, 0.017, -0.011, -0.016, 0.021, -0.004, -0.020, 0.016, -0.006, -0.024, 0.014, -0.005, -0.023, 0.019, 0.000, -0.025, 0.016, -0.003, -0.026, 0.020, -0.003, -0.024, 0.018, -0.008, -0.018, 0.020, -0.003, -0.020, 0.017, -0.004, -0.023, 0.019, -0.002, -0.022, 0.021, 0.001, -0.021, 0.020, -0.000, -0.022, 0.020, 0.000, -0.024, 0.020, -0.005, -0.014, 0.024, -0.001, -0.018, 0.024, -0.001, -0.013, 0.029, 0.003, -0.020, 0.025, 0.000, -0.023, 0.024, 0.001, -0.020, 0.025, 0.005, -0.024, 0.019, -0.007, -0.011, 0.025, -0.003, -0.015, 0.026, -0.001, -0.017, 0.028, -0.001, -0.020, 0.028, -0.002, -0.025, 0.026, 0.000, -0.020, 0.030, 0.008, -0.028, 0.022, -0.004, -0.018, 0.027, 0.002, -0.022, 0.024, -0.000, -0.024, 0.027, -0.003, -0.022, 0.034, 0.002, -0.024, 0.029, 0.003, -0.020, 0.030, 0.008, -0.029, 0.025, -0.003, -0.022, 0.028, 0.001, -0.027, 0.024, -0.004, -0.025, 0.031, 0.000, -0.027, 0.031, -0.001, -0.030, 0.025, 0.001, -0.031, 0.026, 0.006, -0.029, 0.025, -0.003, -0.024, 0.025, -0.002, -0.023, 0.025, -0.001, -0.024, 0.029, 0.000, -0.025, 0.030, 0.003, -0.030, 0.026, 0.004, -0.032, 0.027, 0.007, 0.024, -0.007, -0.009, -0.023, 0.001, 0.032, 0.071, 0.012, -0.096, 0.130, 0.040, -0.167, 0.095, 0.031, -0.147, -0.052, 0.018, 0.024, -0.135, 0.013, 0.131, -0.006, -0.022, 0.006, -0.042, -0.009, 0.062, 0.117, 0.015, -0.135, 0.255, 0.051, -0.316, 0.269, 0.058, -0.327, 0.141, 0.035, -0.196, 0.007, 0.052, -0.046, -0.071, -0.023, 0.121, -0.152, -0.026, 0.186, 0.019, 0.015, -0.046, 0.252, 0.026, -0.306, 0.377, 0.061, -0.405, 0.265, 0.052, -0.325, 0.138, 0.060, -0.207, -0.192, -0.060, 0.225, -0.329, -0.044, 0.390, -0.184, -0.006, 0.229, 0.079, 0.012, -0.122, 0.372, 0.040, -0.441, 0.428, 0.048, -0.490, 0.368, 0.065, -0.456, -0.141, -0.045, 0.196, -0.399, -0.071, 0.480, -0.407, -0.037, 0.496, -0.265, -0.010, 0.275, 0.115, 0.014, -0.147, 0.314, 0.023, -0.401, 0.388, 0.058, -0.493, 0.068, -0.033, -0.037, -0.206, -0.098, 0.291, -0.370, -0.072, 0.481, -0.466, -0.035, 0.530, -0.244, -0.008, 0.239, 0.074, 0.033, -0.058, 0.241, 0.061, -0.329, 0.192, -0.022, -0.205, -0.000, -0.065, 0.069, -0.176, -0.090, 0.266, -0.389, -0.082, 0.506, -0.370, -0.064, 0.407, -0.155, -0.036, 0.169, 0.083, 0.019, -0.092, -0.029, -0.022, 0.005, -0.004, 0.005, 0.003, -0.048, -0.054, -0.035, 0.031, 0.030, 0.030, 0.059, 0.098, 0.060, 0.007, 0.043, 0.014, -0.062, -0.045, -0.044, 0.005, -0.007, -0.017, -0.007, -0.023, -0.015, -0.087, -0.134, -0.067, -0.013, -0.051, -0.010, 0.082, 0.127, 0.076, 0.068, 0.114, 0.043, -0.001, 0.008, -0.024, 0.012, 0.026, 0.004, 0.037, 0.040, 0.027, -0.180, -0.251, -0.135, -0.110, -0.196, -0.066, 0.081, 0.121, 0.085, 0.095, 0.174, 0.066, 0.034, 0.076, -0.022, 0.039, 0.046, 0.022, 0.107, 0.126, 0.083, -0.143, -0.254, -0.125, -0.212, -0.377, -0.169, 0.045, 0.033, 0.067, 0.094, 0.172, 0.079, 0.038, 0.097, -0.010, 0.005, 0.034, 0.004, 0.136, 0.183, 0.110, -0.026, -0.098, -0.036, -0.223, -0.417, -0.212, -0.041, -0.111, -0.011, 0.069, 0.118, 0.063, 0.050, 0.097, 0.011, -0.015, 0.018, -0.017, 0.115, 0.167, 0.087, 0.046, 0.047, 0.039, -0.124, -0.234, -0.114, -0.125, -0.193, -0.091, -0.010, -0.001, 0.009, 0.037, 0.065, 0.021, -0.032, -0.014, -0.022, 0.086, 0.133, 0.066, 0.070, 0.087, 0.052, -0.036, -0.072, -0.034, -0.081, -0.126, -0.059, -0.045, -0.051, -0.026, 0.005, 0.019, -0.003, 0.059, -0.045, 0.016, 0.052, -0.041, 0.028, 0.046, -0.045, 0.023, 0.030, -0.061, 0.016, 0.020, -0.069, 0.016, 0.028, -0.065, 0.023, 0.041, -0.060, 0.034, 0.051, -0.045, 0.018, 0.048, -0.035, 0.037, 0.039, -0.037, 0.034, 0.026, -0.053, 0.026, 0.023, -0.056, 0.032, 0.023, -0.059, 0.028, 0.037, -0.053, 0.036, 0.044, -0.050, 0.015, 0.035, -0.049, 0.022, 0.018, -0.059, 0.019, 0.012, -0.065, 0.019, 0.016, -0.064, 0.022, 0.013, -0.064, 0.022, 0.024, -0.054, 0.034, 0.040, -0.056, 0.006, 0.023, -0.058, 0.013, 0.017, -0.058, 0.024, 0.011, -0.059, 0.031, 0.009, -0.064, 0.030, 0.018, -0.054, 0.036, 0.034, -0.036, 0.051, 0.037, -0.056, 0.011, 0.014, -0.065, 0.012, 0.011, -0.060, 0.028, 0.007, -0.056, 0.040, 0.003, -0.063, 0.035, 0.012, -0.052, 0.042, 0.022, -0.040, 0.050, 0.041, -0.058, 0.012, 0.027, -0.056, 0.021, 0.020, -0.054, 0.030, 0.012, -0.055, 0.042, 0.008, -0.055, 0.043, 0.006, -0.049, 0.041, 0.012, -0.047, 0.040, 0.055, -0.051, 0.018, 0.043, -0.045, 0.029, 0.040, -0.042, 0.041, 0.024, -0.051, 0.040, 0.014, -0.056, 0.033, 0.014, -0.050, 0.037, 0.018, -0.049, 0.038, -0.013, -0.005, 0.009, 0.013, -0.018, 0.004, 0.018, -0.023, 0.012, 0.025, -0.023, 0.005, 0.027, -0.015, 0.015, -0.003, -0.038, 0.007, 0.013, -0.012, 0.023, 0.007, -0.020, 0.003, 0.035, -0.041, -0.003, 0.041, -0.050, 0.002, 0.039, -0.058, -0.008, 0.043, -0.052, -0.001, 0.038, -0.052, 0.010, 0.022, -0.057, 0.001, 0.004, -0.024, 0.006, 0.037, -0.046, 0.007, 0.048, -0.054, 0.011, 0.051, -0.061, -0.001, 0.057, -0.053, 0.005, 0.055, -0.046, 0.025, 0.005, -0.084, -0.007, 0.012, -0.019, 0.002, 0.039, -0.046, -0.001, 0.050, -0.054, 0.005, 0.078, -0.045, 0.004, 0.099, -0.021, 0.026, 0.078, -0.029, 0.038, 0.036, -0.067, 0.006, 0.027, -0.005, 0.016, 0.034, -0.047, 0.002, 0.038, -0.064, 0.002, 0.061, -0.060, -0.000, 0.056, -0.066, -0.004, 0.057, -0.057, 0.022, 0.053, -0.058, 0.018, 0.010, -0.017, 0.001, 0.025, -0.049, -0.003, 0.035, -0.064, 0.005, 0.044, -0.073, -0.003, 0.055, -0.065, 0.007, 0.063, -0.054, 0.024, 0.067, -0.054, 0.020, 0.015, -0.009, 0.000, 0.041, -0.031, -0.003, 0.042, -0.057, -0.004, 0.043, -0.076, -0.015, 0.057, -0.065, 0.000, 0.054, -0.067, 0.004, 0.069, -0.057, 0.008, 0.011, 0.000, 0.002, -0.017, -0.021, -0.011, -0.014, -0.019, 0.011, -0.034, -0.043, 0.003, -0.027, -0.051, -0.004, 0.010, -0.016, 0.011, 0.084, 0.060, 0.069, 0.017, 0.006, 0.008, -0.006, -0.011, -0.019, -0.029, -0.042, -0.016, -0.049, -0.093, -0.028, -0.060, -0.140, -0.052, -0.056, -0.142, -0.060, 0.036, -0.020, 0.038, 0.020, 0.029, 0.000, 0.029, 0.058, 0.012, 0.004, 0.034, 0.002, -0.048, -0.056, -0.049, -0.091, -0.159, -0.088, -0.143, -0.252, -0.144, -0.099, -0.196, -0.086, 0.043, 0.072, 0.040, 0.094, 0.161, 0.075, 0.128, 0.217, 0.110, 0.101, 0.205, 0.099, 0.035, 0.086, 0.043, -0.060, -0.085, -0.046, -0.114, -0.189, -0.103, -0.010, -0.014, -0.010, 0.032, 0.074, 0.023, 0.114, 0.197, 0.093, 0.127, 0.266, 0.127, 0.119, 0.240, 0.123, 0.047, 0.109, 0.059, -0.014, -0.010, 0.001, -0.041, -0.073, -0.034, -0.060, -0.083, -0.073, 0.005, 0.020, -0.012, 0.083, 0.149, 0.061, 0.108, 0.192, 0.078, 0.066, 0.133, 0.063, 0.041, 0.078, 0.048, -0.029, -0.056, 0.009, -0.076, -0.117, -0.053, -0.084, -0.128, -0.087, -0.051, -0.067, -0.060, 0.013, 0.019, -0.006, 0.016, 0.031, -0.007, 0.014, 0.021, -0.001, 0.012, -0.006, -0.008, 0.004, 0.011, -0.008, 0.007, 0.003, -0.014, -0.007, -0.010, 0.008, -0.018, -0.011, 0.005, 0.016, 0.016, 0.008, 0.016, 0.014, -0.011, 0.017, 0.017, -0.008, -0.003, 0.009, -0.022, 0.002, 0.007, -0.021, -0.008, 0.002, 0.013, -0.012, 0.007, 0.024, 0.023, 0.024, 0.013, 0.024, 0.029, -0.016, 0.017, 0.018, -0.012, 0.011, 0.006, -0.024, 0.003, 0.002, -0.019, -0.023, -0.020, 0.036, -0.045, -0.035, 0.039, -0.010, -0.012, 0.015, 0.041, 0.038, 0.003, -0.009, -0.002, 0.004, -0.009, -0.004, 0.001, -0.009, -0.005, 0.028, -0.078, -0.067, 0.063, -0.115, -0.092, 0.069, -0.109, -0.101, 0.021, -0.045, -0.045, 0.009, 0.004, 0.004, -0.005, 0.009, 0.012, -0.002, -0.006, -0.008, 0.020, -0.072, -0.063, 0.060, -0.102, -0.077, 0.068, -0.120, -0.107, 0.011, -0.075, -0.068, -0.013, 0.026, 0.021, -0.015, 0.035, 0.025, -0.018, 0.035, 0.022, -0.002, -0.045, -0.043, 0.011, -0.087, -0.083, 0.005, -0.085, -0.079, -0.023, -0.019, -0.024, -0.020, 0.019, 0.027, -0.001, 0.005, 0.019, -0.027, 0.041, 0.045, -0.005, 0.011, 0.020, 0.019, -0.037, -0.034, -0.002, -0.018, -0.026, -0.018, 0.020, 0.021, -0.008, -0.017, 0.019, 0.038, -0.012, 0.013, 0.022, -0.009, 0.014, 0.019, -0.001, 0.003, -0.008, -0.002, 0.002, -0.006, -0.006, 0.011, 0.009, -0.003, 0.025, 0.031, -0.013, 0.007, 0.010, 0.005, 0.006, -0.007, 0.021, 0.007, -0.017, 0.047, 0.005, -0.044, 0.047, 0.002, -0.042, 0.040, 0.014, -0.016, 0.020, 0.014, -0.003, -0.017, -0.004, 0.003, 0.007, -0.007, -0.022, 0.040, 0.002, -0.031, 0.074, 0.002, -0.057, 0.067, -0.010, -0.064, 0.052, -0.006, -0.040, 0.017, -0.014, -0.025, 0.001, 0.005, 0.005, 0.021, -0.008, -0.034, 0.058, -0.006, -0.052, 0.092, -0.016, -0.088, 0.092, -0.022, -0.091, 0.061, -0.033, -0.077, 0.031, -0.027, -0.052, -0.004, 0.008, 0.013, 0.031, 0.004, -0.016, 0.061, -0.005, -0.045, 0.100, -0.016, -0.079, 0.093, -0.030, -0.088, 0.071, -0.026, -0.060, 0.038, -0.021, -0.032, -0.005, 0.014, 0.024, 0.020, 0.010, -0.002, 0.047, -0.004, -0.029, 0.068, -0.030, -0.075, 0.073, -0.033, -0.069, 0.041, -0.034, -0.050, 0.023, -0.013, -0.007, -0.007, 0.012, 0.031, -0.001, -0.006, -0.004, 0.024, -0.009, -0.016, 0.048, -0.023, -0.048, 0.052, -0.023, -0.040, 0.030, -0.018, -0.014, 0.011, -0.005, 0.015, -0.001, -0.006, 0.006, 0.010, 0.003, 0.022, -0.004, -0.001, -0.003, -0.004, -0.026, -0.029, -0.002, -0.020, -0.009, 0.017, 0.022, 0.000, 0.027, 0.008, -0.012, 0.008, 0.015, 0.003, -0.030, -0.000, -0.033, 0.037, 0.066, 0.041, 0.072, 0.021, 0.045, -0.018, -0.079, -0.045, -0.001, 0.018, -0.005, 0.006, -0.007, -0.013, -0.006, 0.025, -0.004, 0.045, 0.079, 0.045, 0.116, 0.089, 0.108, -0.130, -0.321, -0.203, -0.123, -0.201, -0.160, 0.062, 0.147, 0.093, -0.000, 0.022, 0.018, -0.011, -0.022, -0.015, 0.077, 0.014, 0.050, -0.148, -0.371, -0.253, -0.284, -0.440, -0.372, 0.236, 0.475, 0.324, 0.142, 0.326, 0.209, -0.038, -0.060, -0.031, -0.025, -0.048, -0.042, -0.044, -0.130, -0.088, -0.131, -0.219, -0.188, 0.267, 0.509, 0.333, 0.343, 0.679, 0.455, -0.143, -0.186, -0.159, -0.073, -0.198, -0.106, 0.013, 0.033, -0.014, 0.004, 0.023, -0.006, 0.103, 0.193, 0.144, 0.165, 0.383, 0.276, -0.145, -0.183, -0.142, -0.201, -0.413, -0.284, 0.064, -0.031, 0.024, 0.015, 0.036, -0.007, 0.020, 0.029, 0.021, 0.022, 0.036, 0.051, -0.088, -0.102, -0.059, -0.123, -0.246, -0.143, 0.057, -0.028, 0.021, 0.070, 0.093, 0.047, 0.023, -0.004, 0.024, -0.021, -0.027, 0.048, -0.054, -0.033, 0.074, -0.082, -0.049, 0.109, -0.081, -0.048, 0.113, -0.040, -0.039, 0.078, -0.012, -0.027, 0.065, -0.043, -0.018, 0.065, -0.143, -0.056, 0.115, -0.228, -0.083, 0.187, -0.310, -0.123, 0.240, -0.309, -0.122, 0.251, -0.234, -0.100, 0.197, -0.149, -0.072, 0.146, -0.029, 0.009, 0.042, -0.108, -0.019, 0.082, -0.209, -0.066, 0.135, -0.287, -0.099, 0.209, -0.314, -0.109, 0.226, -0.252, -0.084, 0.196, -0.170, -0.053, 0.149, -0.028, 0.006, -0.006, -0.026, 0.001, -0.007, -0.054, 0.008, 0.027, -0.091, -0.011, 0.056, -0.132, -0.022, 0.093, -0.133, -0.026, 0.098, -0.115, -0.011, 0.091, 0.017, 0.037, -0.024, 0.096, 0.046, -0.081, 0.159, 0.054, -0.123, 0.201, 0.071, -0.138, 0.145, 0.048, -0.113, 0.080, 0.047, -0.061, 0.022, 0.026, -0.028, -0.009, 0.012, -0.066, 0.122, 0.061, -0.127, 0.252, 0.077, -0.194, 0.352, 0.090, -0.257, 0.306, 0.080, -0.238, 0.226, 0.079, -0.167, 0.111, 0.039, -0.137, 0.039, 0.030, -0.090, 0.166, 0.072, -0.160, 0.253, 0.082, -0.214, 0.343, 0.111, -0.282, 0.338, 0.094, -0.285, 0.296, 0.092, -0.243, 0.221, 0.081, -0.207, -0.016, -0.010, 0.028, -0.011, -0.010, 0.027, -0.012, -0.013, 0.027, -0.012, -0.014, 0.021, -0.014, -0.014, 0.019, -0.012, -0.011, 0.025, -0.008, -0.010, 0.030, -0.015, -0.010, 0.032, -0.011, -0.006, 0.026, -0.013, -0.007, 0.024, -0.016, -0.009, 0.019, -0.016, -0.009, 0.018, -0.011, -0.007, 0.022, -0.006, -0.003, 0.028, -0.015, -0.009, 0.027, -0.013, -0.005, 0.022, -0.016, -0.006, 0.023, -0.018, -0.007, 0.017, -0.019, -0.009, 0.015, -0.014, -0.008, 0.020, -0.007, -0.004, 0.027, -0.012, -0.005, 0.024, -0.013, -0.005, 0.018, -0.023, -0.008, 0.015, -0.023, -0.009, 0.015, -0.020, -0.010, 0.013, -0.015, -0.005, 0.020, -0.011, -0.002, 0.023, -0.015, -0.005, 0.026, -0.012, -0.006, 0.017, -0.020, -0.009, 0.014, -0.019, -0.005, 0.019, -0.017, -0.002, 0.020, -0.014, -0.000, 0.025, -0.011, -0.002, 0.026, -0.017, -0.005, 0.029, -0.014, -0.003, 0.023, -0.021, -0.006, 0.020, -0.018, -0.002, 0.023, -0.015, 0.000, 0.028, -0.013, 0.000, 0.032, -0.012, -0.003, 0.033, -0.019, -0.010, 0.028, -0.015, -0.006, 0.023, -0.017, -0.005, 0.024, -0.017, -0.003, 0.028, -0.012, -0.001, 0.030, -0.011, -0.000, 0.036, -0.008, -0.001, 0.038, 0.001, 0.010, -0.006, -0.024, 0.009, 0.005, -0.014, -0.022, -0.006, 0.011, 0.044, 0.017, -0.006, -0.018, -0.023, 0.001, 0.024, 0.007, -0.005, -0.015, -0.005, -0.001, 0.006, -0.002, 0.009, 0.055, 0.038, -0.070, -0.127, -0.070, 0.063, 0.095, 0.063, -0.003, -0.006, -0.016, 0.022, 0.016, -0.003, -0.021, -0.042, -0.014, -0.008, -0.024, -0.029, 0.037, 0.110, 0.078, -0.054, -0.162, -0.088, -0.055, -0.053, -0.082, 0.150, 0.288, 0.170, -0.094, -0.160, -0.111, -0.004, -0.014, 0.014, 0.003, 0.003, -0.016, 0.014, 0.097, 0.085, 0.023, -0.073, 0.032, -0.256, -0.371, -0.352, 0.495, 0.815, 0.565, -0.350, -0.517, -0.374, 0.103, 0.086, 0.115, 0.011, -0.009, -0.016, -0.030, 0.036, 0.033, 0.067, -0.053, 0.054, -0.291, -0.415, -0.381, 0.507, 0.831, 0.565, -0.380, -0.573, -0.431, 0.109, 0.096, 0.121, 0.018, 0.007, -0.006, -0.005, 0.046, 0.036, 0.004, -0.072, 0.004, -0.135, -0.149, -0.161, 0.300, 0.462, 0.317, -0.245, -0.346, -0.268, 0.062, 0.061, 0.100, -0.001, 0.004, -0.003, -0.017, 0.027, 0.000, -0.021, -0.058, -0.016, -0.010, -0.004, -0.041, 0.113, 0.139, 0.080, -0.074, -0.104, -0.100, 0.000, -0.017, 0.036, -0.050, 0.006, 0.057, -0.049, -0.053, -0.026, 0.025, 0.051, 0.087, -0.088, -0.041, -0.022, 0.029, 0.074, 0.054, -0.088, -0.104, -0.081, 0.030, 0.038, 0.060, -0.013, -0.009, -0.020, 0.117, 0.067, 0.035, -0.085, -0.125, -0.166, 0.020, 0.015, -0.003, 0.076, 0.055, 0.073, 0.069, 0.121, 0.091, -0.106, -0.093, -0.122, 0.006, 0.024, 0.042, -0.005, 0.003, 0.002, 0.040, 0.086, 0.100, 0.175, 0.207, 0.203, -0.524, -0.642, -0.596, 0.369, 0.352, 0.383, -0.058, 0.016, 0.020, -0.013, 0.000, 0.018, -0.068, -0.091, -0.092, -0.139, -0.162, -0.114, -0.036, 0.037, 0.027, 0.652, 0.856, 0.712, -0.728, -0.926, -0.889, 0.248, 0.209, 0.237, -0.018, 0.017, -0.000, 0.007, 0.048, 0.031, 0.403, 0.418, 0.394, -0.555, -0.786, -0.672, -0.146, -0.114, -0.060, 0.630, 0.773, 0.688, -0.293, -0.281, -0.293, 0.011, -0.005, 0.017, -0.025, -0.072, -0.055, -0.304, -0.273, -0.301, 0.626, 0.724, 0.636, -0.228, -0.297, -0.239, -0.283, -0.327, -0.260, 0.159, 0.188, 0.179, -0.037, -0.004, 0.003, 0.032, 0.030, 0.045, 0.050, 0.044, 0.078, -0.214, -0.184, -0.177, 0.103, 0.113, 0.100, 0.072, 0.052, 0.051, -0.077, -0.028, -0.030, 0.013, 0.001, 0.019, -0.010, 0.000, 0.011, -0.023, -0.014, -0.011, -0.025, -0.030, -0.027, 0.024, -0.004, 0.001, 0.037, 0.014, 0.022, 0.023, -0.011, -0.003, 0.013, -0.006, -0.000, 0.015, 0.033, 0.027, 0.029, 0.070, 0.055, -0.030, 0.032, 0.031, -0.105, -0.090, -0.074, -0.044, -0.113, -0.082, 0.043, -0.027, -0.003, 0.001, -0.035, -0.019, -0.013, -0.051, -0.045, 0.052, 0.043, 0.031, 0.165, 0.294, 0.257, 0.103, 0.344, 0.246, -0.142, -0.078, -0.109, -0.074, -0.137, -0.128, -0.017, -0.048, -0.033, -0.008, -0.087, -0.047, -0.113, -0.323, -0.229, -0.091, -0.281, -0.193, 0.255, 0.426, 0.356, 0.232, 0.543, 0.418, -0.010, 0.108, 0.052, -0.030, 0.008, -0.015, 0.008, 0.059, 0.041, 0.067, 0.005, 0.028, -0.211, -0.576, -0.427, -0.322, -0.645, -0.474, 0.016, 0.025, 0.051, 0.076, 0.207, 0.179, 0.027, 0.057, 0.036, -0.012, 0.071, 0.035, 0.114, 0.280, 0.206, 0.188, 0.207, 0.167, -0.068, -0.266, -0.172, -0.146, -0.318, -0.213, -0.040, -0.069, -0.026, 0.002, 0.015, 0.002, -0.047, -0.017, -0.038, -0.085, 0.008, -0.039, 0.054, 0.175, 0.117, 0.105, 0.164, 0.126, -0.001, -0.023, -0.020, -0.023, -0.040, -0.047, -0.040, 0.087, -0.071, -0.050, 0.087, -0.039, -0.034, 0.072, -0.039, -0.023, 0.112, -0.107, -0.052, 0.167, -0.109, -0.089, 0.218, -0.140, -0.104, 0.229, -0.142, -0.028, 0.069, -0.040, -0.028, 0.054, -0.032, -0.033, 0.076, -0.031, -0.022, 0.110, -0.099, -0.030, 0.155, -0.129, -0.065, 0.217, -0.156, -0.084, 0.225, -0.141, -0.033, 0.082, -0.037, -0.037, 0.060, -0.005, -0.038, 0.053, -0.010, -0.003, 0.022, -0.016, 0.033, -0.011, -0.026, -0.003, 0.051, -0.054, -0.040, 0.126, -0.085, -0.026, 0.096, -0.090, -0.022, 0.077, -0.055, 0.018, -0.022, -0.020, 0.113, -0.234, 0.111, 0.170, -0.403, 0.237, 0.149, -0.324, 0.186, 0.082, -0.102, 0.015, -0.049, 0.130, -0.104, -0.019, 0.118, -0.091, 0.021, -0.028, 0.011, 0.181, -0.424, 0.261, 0.224, -0.743, 0.544, 0.181, -0.652, 0.456, 0.130, -0.284, 0.159, -0.068, 0.208, -0.154, -0.046, 0.177, -0.139, 0.032, 0.023, -0.035, 0.154, -0.381, 0.220, 0.184, -0.659, 0.508, 0.176, -0.561, 0.417, 0.125, -0.237, 0.117, -0.115, 0.233, -0.122, -0.097, 0.201, -0.112, -0.028, 0.110, -0.095, 0.125, -0.119, 0.004, 0.160, -0.289, 0.120, 0.149, -0.249, 0.087, 0.105, -0.056, -0.041, -0.070, 0.046, -0.073, -0.022, 0.098, -0.046, -0.017, 0.101, -0.058, -0.043, 0.082, -0.080, -0.028, 0.105, -0.059, -0.013, 0.112, -0.045, -0.037, 0.080, -0.078, -0.093, 0.039, -0.088, -0.033, 0.092, -0.060, -0.015, 0.118, -0.051, -0.040, 0.100, -0.074, -0.024, 0.123, -0.051, -0.003, 0.137, -0.033, -0.044, 0.095, -0.068, -0.091, 0.052, -0.076, -0.044, 0.091, -0.065, -0.031, 0.105, -0.074, -0.037, 0.107, -0.078, -0.036, 0.104, -0.074, -0.038, 0.106, -0.065, -0.031, 0.103, -0.057, -0.079, 0.068, -0.065, -0.067, 0.077, -0.076, -0.033, 0.098, -0.072, -0.048, 0.090, -0.104, -0.041, 0.091, -0.099, -0.049, 0.080, -0.102, -0.044, 0.086, -0.085, -0.068, 0.077, -0.050, -0.039, 0.094, -0.058, -0.011, 0.113, -0.064, -0.018, 0.111, -0.082, -0.030, 0.097, -0.095, -0.038, 0.087, -0.104, -0.027, 0.100, -0.082, -0.067, 0.079, -0.047, -0.031, 0.088, -0.059, -0.018, 0.091, -0.079, -0.027, 0.099, -0.083, -0.027, 0.101, -0.077, -0.024, 0.102, -0.081, -0.016, 0.107, -0.078, -0.056, 0.092, -0.045, -0.022, 0.108, -0.044, -0.010, 0.107, -0.060, -0.017, 0.111, -0.061, -0.023, 0.092, -0.068, -0.001, 0.105, -0.056, 0.001, 0.108, -0.069, -0.001, 0.009, 0.000, -0.008, 0.001, -0.005, -0.009, 0.001, -0.006, 0.014, 0.022, 0.012, 0.010, 0.020, 0.005, -0.019, -0.006, -0.018, -0.027, -0.013, -0.015, -0.003, -0.001, 0.006, 0.003, 0.003, 0.006, 0.015, 0.026, 0.018, 0.038, 0.043, 0.030, 0.046, 0.047, 0.028, 0.024, 0.023, 0.011, 0.002, 0.003, 0.003, -0.011, -0.008, -0.003, 0.019, 0.021, 0.017, 0.029, 0.043, 0.033, 0.031, 0.044, 0.026, 0.037, 0.045, 0.024, 0.029, 0.036, 0.016, 0.012, 0.018, 0.011, -0.007, -0.009, 0.001, 0.015, 0.016, 0.017, 0.019, 0.028, 0.021, 0.019, 0.037, 0.021, 0.019, 0.037, 0.016, 0.018, 0.036, 0.016, 0.032, 0.038, 0.024, -0.003, -0.019, 0.003, 0.014, 0.008, 0.019, 0.029, 0.028, 0.030, 0.024, 0.034, 0.025, 0.027, 0.039, 0.020, 0.030, 0.047, 0.031, 0.044, 0.048, 0.039, -0.001, -0.023, -0.018, -0.001, -0.005, -0.003, 0.011, 0.016, 0.014, 0.023, 0.041, 0.024, 0.033, 0.047, 0.025, 0.030, 0.043, 0.023, 0.029, 0.035, 0.026, 0.002, -0.015, -0.011, 0.007, -0.002, 0.003, 0.017, 0.012, 0.011, 0.036, 0.049, 0.034, 0.042, 0.058, 0.047, 0.019, 0.040, 0.035, 0.001, 0.014, 0.025, 0.008, 0.026, 0.038, 0.006, -0.007, -0.024, 0.020, -0.019, -0.052, 0.039, -0.019, -0.053, 0.041, -0.021, -0.058, 0.027, -0.010, -0.031, 0.023, 0.008, 0.003, 0.019, -0.003, -0.026, 0.030, -0.045, -0.101, 0.039, -0.082, -0.164, 0.046, -0.118, -0.211, 0.043, -0.121, -0.224, 0.036, -0.090, -0.176, 0.029, -0.053, -0.118, -0.002, -0.011, -0.020, -0.002, -0.059, -0.081, 0.010, -0.088, -0.134, 0.013, -0.129, -0.191, 0.013, -0.128, -0.203, 0.015, -0.092, -0.152, 0.029, -0.038, -0.071, -0.002, 0.001, -0.009, 0.001, -0.012, -0.014, 