//Numpy array shape [3, 3, 3, 32]
//Min -1.991744995117
//Max 1.845684289932
//Number of zeros 0

#ifndef W2_H_
#define W2_H_

#ifndef __SYNTHESIS__
model_weightdefault_t w2[864];
#else
model_weightdefault_t w2[864] = {-0.0740, -0.0436, 0.0263, 0.1793, -0.1081, 0.1104, -0.0300, -0.0277, -0.0717, 0.0912, 0.0375, 0.0608, -0.0169, -0.1492, 0.0507, 0.0980, 0.0688, 0.0366, 0.0027, 0.0402, -0.0071, -0.7275, -0.4120, -0.4448, 0.0275, 0.0622, 0.0145, -0.1656, -0.1811, -0.2110, -0.1396, -0.1551, -0.1751, -0.0756, 0.1052, 0.0337, -0.0265, -0.0305, -0.0925, -0.2581, -0.2610, -0.2423, -0.0266, 0.0688, 0.1073, -0.0288, 0.0411, -0.0398, 0.0378, 0.0877, 0.0126, -0.0522, 0.0056, 0.0201, 0.0920, 0.1540, 0.1000, 0.0107, 0.2384, 0.2216, -0.0905, 0.1074, 0.1618, -0.2022, -0.1897, -0.2142, -0.1188, 0.1174, 0.0951, -0.0662, 0.1524, 0.1304, -0.0898, -0.2753, -0.3417, -0.1381, -0.1624, -0.2113, -0.0027, -0.0131, -0.0462, -0.5135, -0.3685, -0.1154, 0.4252, 0.0956, 0.2767, 0.0291, -0.3726, -0.1286, -0.0708, -0.1115, -0.0738, 1.0737, 0.6298, 0.3704, 0.6743, 0.2463, 0.1038, -0.5088, -0.4030, -0.3202, 0.2163, -0.0087, 0.0105, -0.0121, -0.1720, -0.2081, -0.4362, 0.0218, 0.5415, -1.5967, 0.1934, 1.4532, -0.5455, 0.0310, 0.6813, 0.0563, -0.0253, -0.0964, -0.0687, 0.1319, -0.0712, 0.1165, -0.0991, -0.1131, 0.6184, -0.0265, -0.6672, 1.1793, -0.0452, -1.1397, 0.6682, -0.1017, -0.6471, 0.1450, -0.0552, -0.0523, -1.0413, -0.7511, -0.2875, 0.1647, 0.0672, -0.0384, 0.0230, -0.0045, -0.0034, 0.4058, 0.0734, 0.0811, 0.0284, -0.0638, -0.0634, 0.0461, 0.0427, 0.0249, 0.0654, -0.1474, 0.0311, 0.0454, -0.0482, 0.0054, 0.2151, -0.5550, -0.0696, 0.1357, -0.2114, 0.0515, -0.1056, 0.3419, -0.1025, 0.3170, -0.3694, -0.1068, 0.0058, -0.2940, -0.1001, -0.1554, 0.3807, -0.0589, 0.0585, 0.0522, -0.0113, -0.0398, 0.1196, -0.0754, -0.1842, 0.4444, -0.0643, -0.0030, -0.1356, 0.3270, -0.3240, -0.3039, 0.6470, -0.0276, -0.2656, 0.3233, -0.4508, -0.2716, 0.5376, -0.7948, -0.2901, 0.9832, -0.3992, -0.2788, 0.5631, 0.0311, -0.1339, 0.2982, -0.3449, -0.3110, 0.4590, -0.0380, -0.1497, 0.2294, 0.5838, 0.2577, 0.4358, 0.4878, 0.1021, 0.4386, 0.8468, 0.5474, 0.7345, 0.0764, -0.1894, 0.0100, -0.2559, -0.5954, -0.1804, 0.0588, -0.1324, 0.0754, -0.3197, -0.3727, -0.2670, -0.5591, -0.6423, -0.5034, -0.4612, -0.3924, -0.4151, -0.0500, -0.1163, 0.0982, 0.4959, -0.3804, -0.2174, -0.0649, -0.1747, 0.2266, 0.6532, -0.3444, -0.1441, 1.1771, -0.7908, -0.8111, 0.5480, -0.2786, 0.0080, -0.0642, -0.2719, 0.2781, 0.3634, -0.1538, 0.0888, -0.1409, -0.0912, 0.2713, -0.5537, 0.3885, 0.0619, -0.2105, 0.1330, 0.0807, 0.5700, -0.3025, -0.1936, -0.9202, 0.7072, 0.5752, -0.5323, 0.1099, 0.4713, 1.5666, -0.9495, -1.0996, -0.3749, 0.2787, 0.0991, -0.2461, 0.0924, 0.2180, 0.5865, -0.2790, -0.2884, 0.4685, 0.0884, -0.8173, -0.3396, -0.1372, 0.1081, -0.4753, -0.0885, 0.4897, 1.7000, 0.5050, -1.0606, 0.1162, -0.1811, 0.0998, -1.1171, -0.1513, 0.9443, 0.3871, -0.1564, -0.2896, -0.1109, -0.1491, 0.1274, -0.5528, 0.1265, 0.5043, -0.0898, -0.2078, -0.4021, 0.0927, 0.2133, 0.0150, 0.0419, 0.1018, 0.2923, -1.4091, -1.9917, -1.5983, 0.8660, 1.2436, 0.7789, 0.3112, 0.7795, 0.7546, 0.1400, 0.0096, -0.1739, -0.0414, 0.0577, 0.1162, -0.1157, -0.0307, 0.1949, -0.2868, -0.4004, -0.2349, 0.2007, 0.2262, 0.2579, 0.1368, 0.1893, 0.1754, -0.2536, -0.4156, -0.3457, -0.1385, -0.1055, -0.0580, 0.3176, 0.4106, 0.2270, 0.0767, -0.0053, -0.0094, 0.0651, 0.0448, 0.0094, -0.0716, 0.0175, -0.0214, -0.1793, -0.0390, -0.1290, 0.0657, -0.0291, 0.2788, -0.0839, -0.0353, -0.0420, 0.0972, 0.0304, 0.1171, 0.3950, 0.1601, 0.5594, -0.0037, -0.0396, 0.1149, -0.0928, 0.0771, -0.0852, -0.1529, -0.0521, 0.0999, -0.0642, 0.0320, -0.0423, 0.0355, 0.1930, -0.1059, 0.1585, 0.1790, -0.2552, 0.1223, 0.1326, -0.1715, 0.0870, 0.1795, -0.0868, -0.3516, -0.3632, -0.1526, -0.1567, -0.2360, -0.0666, -0.0292, 0.0846, -0.0604, -0.0697, -0.1186, -0.0577, 0.1377, -0.0369, 0.0274, -0.4215, -0.2876, -0.2758, -0.7683, -0.9455, -0.3629, -0.2263, -0.3450, -0.2542, 0.0828, 0.0453, 0.1781, -0.5042, -0.8635, -0.2318, 0.4491, 0.1806, 0.2985, 0.5052, 0.2907, 0.2991, 0.5631, 0.1264, 0.3257, 0.8351, 0.3724, 0.4046, -0.2600, 0.1127, 0.2616, 0.3396, 0.0521, -0.1803, 0.3893, -0.1987, -0.1404, -1.0225, -0.3024, 0.3483, 0.1530, 0.0094, -0.1016, 0.5072, -0.3254, -0.3272, -0.1628, 0.2795, 0.1086, -0.0905, 0.0418, -0.0020, 0.1723, -0.0220, -0.1033, 0.0750, -0.4918, 0.3652, 0.0683, -1.0182, 0.9684, 0.1474, -0.8710, 0.7540, 0.0154, 0.4351, -0.4316, 0.0385, 0.1368, -0.1957, 0.1157, -0.3302, 0.2545, -0.1492, 0.7372, -0.5748, -0.2211, 1.0802, -0.8541, -0.1188, 0.3229, -0.2636, 0.4739, 0.0290, -0.0254, 0.3798, 0.0568, 0.2198, 0.0168, 0.0155, 0.0974, 0.3164, 0.2179, 0.1762, -0.6570, -0.6039, -0.0481, -0.4123, -0.2458, -0.0817, 0.2148, 0.2631, -0.0118, -0.3017, -0.2290, -0.2073, -0.0251, 0.0569, -0.1442, 0.0713, -0.0158, 0.0384, -0.3417, -0.3255, -0.3085, -0.4408, -0.3733, -0.3275, 0.0362, 0.0068, 0.0445, 0.1199, 0.1445, 0.1401, -0.1516, -0.0269, -0.0497, -0.0230, -0.0204, 0.0232, 0.0784, 0.1035, 0.1047, -0.1256, -0.0238, -0.0169, -0.0174, -0.0752, -0.1709, 0.1316, 0.0116, 0.0518, 0.0353, -0.1287, 0.0137, 0.0319, -0.0948, -0.2990, 0.4684, 0.4548, 0.3738, 0.2251, 0.1845, 0.3255, 0.0079, -0.1053, -0.3288, 0.0725, -0.1241, -0.0937, -0.0097, -0.1000, 0.0389, -0.1472, 0.2336, -0.1311, -0.5668, 0.4066, -0.0416, -0.1339, 0.2574, -0.0575, -0.5471, 0.5105, 0.1464, -1.0482, 0.6164, 0.2187, -0.3917, 0.3788, 0.2054, -0.2512, 0.1962, -0.0528, -0.4080, 0.4356, 0.1959, -0.1608, 0.0397, 0.1475, 0.5200, -0.2906, 0.0370, 0.8332, -0.3889, -0.0956, 0.3397, -0.3772, 0.1688, 0.7318, -0.4487, -0.3973, 1.0939, -0.5781, -0.6210, 0.4922, -0.5206, -0.2314, 0.2361, -0.2209, -0.0433, 0.3225, -0.2466, -0.2092, 0.0464, -0.2499, 0.0640, -0.0838, -0.0348, 0.0803, 0.0617, -0.0127, 0.3683, -0.0175, -0.1441, 0.1162, -0.1582, -0.0916, 0.2099, 0.0526, 0.0284, 0.5920, 0.0098, -0.0197, 0.3502, -0.2315, -0.1521, 0.0005, -0.0748, -0.0622, 0.3209, -0.0877, -0.0187, 0.1482, 0.1812, -0.5448, 0.4187, -0.0222, 0.0087, -0.0150, -0.1933, 0.4019, -0.2771, 0.4158, -0.5992, 0.5336, 0.1049, 0.1435, -0.1059, -0.3557, 0.5554, -0.4814, 0.1035, -0.3353, 0.1590, -0.0856, 0.1275, -0.0976, -0.2437, 0.3205, -0.1289, -0.1763, -0.3411, -0.1109, 1.4488, 1.8457, 0.6780, -0.1760, -0.1892, -0.1568, -0.1176, -0.1603, -0.0434, -0.7061, -0.8593, -0.3926, -0.2485, -0.1065, 0.0355, 0.0338, -0.0009, 0.0261, 0.0314, -0.1580, -0.0633, -0.0819, 0.0933, 0.0128, -0.0156, 0.0107, 0.1033, 0.0765, -0.1045, -0.0840, -0.0252, 0.0647, -0.0171, 0.3596, 0.4138, 0.6212, -0.4022, -0.6888, -0.5813, 0.0220, 0.1497, -0.1385, -0.2605, -0.6632, -0.4328, 0.3081, 0.7312, 0.6304, -0.0856, 0.0447, -0.0362, 0.1739, 0.0686, 0.1331, -0.0460, -0.1250, -0.3219, -0.0112, 0.0985, -0.1102, 0.2851, 0.1192, 0.2241, 0.2519, 0.1478, 0.2353, 0.0478, 0.0148, 0.0309, 0.1801, -0.0382, -0.2085, 0.1533, 0.0047, -0.0926, 0.0074, -0.0346, -0.0736, -0.3423, -0.4725, -0.4891, -0.1115, 0.0013, 0.0207, -0.1430, 0.0358, 0.1899, -0.2105, -0.0235, -0.1286, -0.1430, 0.1049, 0.1553, -0.1358, 0.0468, 0.2239, -0.1025, 0.0908, 0.0757, -0.0509, -0.0076, 0.0946, -0.0074, -0.0293, 0.1444, -0.0338, 0.1697, -0.2278, 0.2814, 0.6461, -0.8872, -0.0869, 0.3368, -0.3410, 0.2933, 0.4069, -0.6412, 0.7743, 0.8253, -1.3971, 0.3096, 0.3829, -0.6316, -0.1159, 0.1535, -0.0010, 0.0748, 0.2514, -0.5018, -0.0922, -0.0306, 0.1112, -0.3878, 0.5077, -0.1492, -1.1108, 1.1628, -0.0428, -0.4218, 0.6965, -0.2838, 0.0040, -0.1662, 0.1868, -0.2676, -0.0265, 0.3455, -0.1785, 0.1277, 0.0363, 0.5804, -0.6806, 0.0946, 1.5535, -1.3426, -0.2659, 0.2016, -0.3616, 0.1675};
#endif

#endif
