//Numpy array shape [256]
//Min -4.030155181885
//Max 1.431926965714
//Number of zeros 0

#ifndef B103_H_
#define B103_H_

#ifndef __SYNTHESIS__
model_default_t b103[256];
#else
model_default_t b103[256] = {-0.9744, 0.9444, 0.3022, 0.6940, 0.2724, -0.8516, 0.0798, 0.3009, 0.1281, -0.2211, 0.5478, 0.1844, 0.6580, -0.2191, -0.3982, 1.1482, -0.9017, -0.3919, -0.1830, 0.0259, -0.3457, -0.4579, 0.2787, 0.9988, 0.2161, -1.4347, -0.6622, 0.3430, 0.3141, 0.3005, -0.3639, 0.6199, 0.1534, -0.4058, -0.8662, 0.1932, 0.3987, 0.0608, -0.4979, 0.6437, 0.1563, -0.0159, 0.3422, -0.7337, -0.3001, -0.2980, -0.2783, -0.1642, -0.6241, -0.6480, -0.4218, -0.2190, 1.1116, -1.8388, -1.1908, -0.1410, 0.3599, -0.6753, 0.7906, -0.0207, 1.3397, -1.4034, 0.0553, 0.0441, -0.1667, 0.1684, 0.2584, 1.2379, 0.1576, -0.2383, 0.2361, -1.0237, 0.6434, 0.0104, -0.2020, 0.0823, -0.4843, 0.0758, 0.4672, -0.9985, -0.7441, -0.3114, 0.7010, -0.4602, -0.8449, -1.5754, 1.2809, -0.1573, -0.0353, -0.9859, -0.9168, 0.2863, 0.3377, 0.3553, 0.5779, -1.1174, -1.9736, -0.2307, -0.0496, 0.1617, 0.2674, -1.3850, 0.2169, 0.4877, 0.6973, -0.8101, 0.8690, -0.5354, 0.6838, -0.1859, -0.2575, -0.6265, 0.0371, -4.0302, -1.8868, -0.3862, -0.3315, -0.2638, 0.1637, -1.5003, -0.1661, -0.3695, -0.5161, 0.3335, 0.8454, -1.3068, 0.1705, 0.1632, -0.9984, -0.0719, -0.6459, -0.0445, 0.5422, 1.2324, -0.3327, 0.7629, -0.3026, -1.3518, 0.9400, 0.0658, 0.2208, -0.3350, -0.5840, -0.1041, -1.0264, -0.3788, -0.0687, -1.0413, -0.7625, -0.4560, 0.8209, 0.2088, 0.5471, -0.3367, 0.7371, -0.1021, 0.5893, 0.1700, -0.1581, 0.9046, -0.3616, -0.6782, 0.6513, 0.0109, -0.1003, 0.6522, 0.1590, -0.2079, 0.5014, -1.0184, -0.0431, 0.1442, 0.6921, -0.7553, 1.2029, -1.3401, 0.7566, -1.3761, -0.0681, -0.9646, 0.4452, 0.3148, -0.2906, -0.1898, -0.5333, 0.6392, 0.8218, -0.2048, 0.8023, -0.3340, 0.1742, 0.0458, 0.2958, 0.2517, 0.6887, -0.4966, -0.0809, 0.4981, -0.2792, 0.1971, -0.4891, 0.0257, 0.4943, 0.4582, -1.1704, -0.0871, -0.5661, 0.5393, 0.6917, 0.0677, -0.7540, 0.7394, -0.7342, 0.8068, 0.0911, -0.2489, -0.2675, 0.8697, 0.6329, -0.4005, 0.8623, 0.4824, 0.1365, 0.2834, 1.0880, -0.1606, 0.4617, 0.7005, 0.6313, 0.3335, 0.1970, 0.7878, 0.3597, -0.8650, 1.4319, 0.1900, 1.0923, -0.5350, 0.8503, -1.1561, -0.1088, -1.7503, 0.0119, -1.0781, 0.3011, 0.0575, -0.9200, 0.6472, 0.0390, -0.1270, 0.3353, 0.2048, -0.8683, 0.4045, 0.0714, -1.8178};
#endif

#endif
