//Numpy array shape [256]
//Min -3.598112583160
//Max 1.902822375298
//Number of zeros 0

#ifndef B116_H_
#define B116_H_

#ifndef __SYNTHESIS__
model_default_t b116[256];
#else
model_default_t b116[256] = {0.6266, 0.5752, 0.1836, -0.3025, -0.1125, 0.3482, -0.2665, 1.0626, 0.3052, -0.1479, 0.7513, 0.2375, 0.0226, -0.8417, 0.7574, -0.3068, -0.5570, -0.3553, -0.8575, -2.3377, -0.2449, 0.2977, -0.3187, -2.9090, 0.3111, -0.0459, -1.6504, 1.0613, -0.0977, 0.7768, -0.6676, 0.1770, 0.1011, -0.3894, -0.1639, -0.1169, -1.3900, -0.2046, 0.4218, -0.2028, -0.2534, 0.7195, -1.9376, -0.3211, -0.2878, -0.4076, -0.0415, 0.8203, -0.6456, 0.4060, -0.1675, -0.3377, 0.6260, -0.0298, 0.0983, 0.2632, 0.2770, 0.7267, -3.5981, 0.1822, 0.3442, -0.1421, -0.2131, 0.5223, -0.2138, 0.3481, -0.0502, 0.2426, 0.0579, 0.2987, -0.1694, 0.7045, 0.3096, -0.3001, 0.1962, -2.5416, 0.2114, 0.1588, 0.6669, 0.5724, -0.5115, 0.7814, 0.8085, -0.1107, 0.4587, 0.2804, 0.3822, -0.0239, -0.0803, 0.5314, 0.0774, -2.2956, 0.2549, 0.2255, -0.4031, 0.5300, 0.1956, 0.0107, 0.1492, -0.2932, -0.2987, -0.1971, -0.0490, 0.5084, 0.1503, -0.5314, -0.4899, -0.1909, -0.3632, 0.0963, 0.4367, -0.0065, 0.3408, 0.6776, 1.0079, 0.0756, 0.6858, -0.2730, -0.3817, -1.4901, -0.4752, 0.4042, 0.6336, -0.2044, 0.0542, 0.1029, -0.4575, -0.3475, -0.2610, -1.2902, -0.1801, -0.1795, -0.2325, 0.1252, 0.7448, 0.2675, 0.5213, 0.3249, 0.2293, 1.9028, 0.2483, 0.1103, 0.3169, 0.7024, -0.4347, -0.8697, 0.8517, -0.9343, 0.5301, -0.0620, 0.0585, 1.1642, 0.4196, 0.4165, 0.0733, -0.6106, 0.2506, 0.2148, 0.2719, 0.2247, -0.6918, 0.1132, 0.1188, -0.3854, 0.9200, -0.4466, 0.7542, 0.0646, -0.6857, -0.0640, 0.0333, 0.2995, 0.0407, -0.2399, 0.4585, 0.4218, -1.1319, 0.0841, 0.1691, 0.3214, 0.8029, 0.1922, -0.8060, 0.3746, 0.0168, -0.3584, 0.4739, 1.1352, 0.0327, -0.0973, 0.6730, 0.2059, 0.5134, 0.2189, -0.0219, 0.7773, 0.5258, 0.2041, -0.0109, 0.8228, 0.0771, -0.2587, -0.0022, -0.9010, -0.2008, 0.0407, 0.3159, 0.0281, -0.5515, 0.1493, 0.0191, -0.3006, 0.3755, -0.1372, -0.8022, -0.1140, 0.2609, -0.4455, 0.3057, -0.2620, 0.3830, -0.0174, -0.0114, 0.5538, -0.3505, 0.7171, 0.3328, 0.3455, -0.4087, 0.5380, -0.4465, -0.2043, 0.4469, -0.3933, -0.2152, 0.2172, 0.4994, -0.5761, 0.1088, 0.2790, 0.6201, 0.2779, 0.1809, 0.0873, 0.0904, 0.2406, 0.3492, 0.6964, 0.0405, 0.3814, 0.2618, 0.1768, -0.3251, -0.5262, 0.9972, 0.6122};
#endif

#endif
