//Numpy array shape [1024]
//Min -1.895301580429
//Max 1.572741031647
//Number of zeros 0

#ifndef B119_H_
#define B119_H_

#ifndef __SYNTHESIS__
model_default_t b119[1024];
#else
model_default_t b119[1024] = {0.0214, 0.0109, -0.0407, 0.7023, -0.2624, -0.0553, 0.6420, -0.1907, -0.6733, 0.1852, -0.4934, 0.3540, 0.2785, 0.1812, -0.3709, -0.3139, -1.4515, -0.2796, -0.1233, 0.3440, 0.0738, -0.1536, 1.2293, 0.0254, 0.8339, -0.3783, -0.2739, -0.5021, -0.1005, -1.0834, -0.6499, -0.3328, -0.1053, -0.0142, 0.0766, -0.1995, 0.1022, -0.0007, -0.2544, 0.0112, -0.0913, -0.0133, 0.0126, -0.2353, -0.2555, -0.1508, -0.3378, -1.0413, -0.7416, -0.0147, 0.3663, 0.5320, -0.1470, -0.4680, -0.3180, -0.4386, 1.5727, -0.1999, -0.2553, -0.1764, -0.1145, -0.2191, 0.2687, -0.0612, -1.1087, -0.0827, 0.3161, -0.4562, 0.8947, 0.0120, -0.7228, -1.1858, -0.1320, -0.2518, 0.0112, -0.1055, -0.0213, 0.0007, -0.1724, -0.2876, -0.0996, 0.0742, -0.1891, -0.3427, -0.4461, -0.0351, -0.2159, -0.0517, -0.1266, -0.0467, 0.0951, -0.2809, -0.3719, 0.2317, 0.1354, -0.2335, -0.2466, -0.1516, 0.3624, 0.2876, 0.4192, -0.2756, -0.1657, 0.0351, -0.4315, 0.0508, -0.0250, 0.2566, 0.5497, -0.3554, -0.7245, -0.6069, 0.0424, -0.2732, -0.2270, -0.4088, 0.6151, -0.2389, 0.0578, -0.2957, -0.0669, -0.5288, -0.4215, 0.3930, -0.3304, -0.3579, -1.7916, -0.0645, -0.5917, -0.6145, 0.1197, -1.0697, -0.4765, -0.4959, -0.2465, 0.1724, -0.2940, 0.2125, -0.2959, -0.5270, -0.4803, -0.2123, -0.8445, -0.4721, -0.1887, -0.0234, -0.1389, -0.2191, -0.2442, -0.0120, -0.4451, -0.2513, -0.4296, -0.3635, -0.3819, -0.3321, 0.1227, -0.1051, -0.0690, -0.4782, -0.2600, -0.1814, -0.2223, -0.1868, -0.0301, -0.4301, -0.4619, -0.2315, 0.1495, 0.0691, 0.0053, 0.0734, -0.0164, -0.1065, -0.2309, -0.0904, 0.6844, -0.2002, -0.5694, -0.4424, -0.1992, -0.1950, -0.2859, -0.2344, -0.1816, -0.2343, -0.0358, 0.2646, -0.2510, -0.4120, -0.2667, -0.1707, -0.2030, 0.1945, -0.0464, -1.0287, -0.8487, -0.1463, 0.0224, -0.1080, 0.9133, -0.2129, 0.0476, -0.0464, -0.6153, 0.0963, -0.0956, -0.7034, -0.2032, -0.0161, -0.1195, 0.0578, -0.3419, -0.5253, -0.0060, -0.0709, -0.1326, 0.0076, -0.1235, -0.1033, -0.7343, -0.2578, -0.0008, -0.4637, 0.1819, -0.3679, -0.1036, 0.8693, -0.6574, -0.1242, -0.5510, 0.1580, -0.6640, -0.5182, -0.1229, -0.2289, -0.2456, -0.1199, 0.1153, -0.0071, -0.1433, 0.0368, -0.1424, 0.0724, -0.4148, 0.6675, -0.0866, 0.0263, -0.2121, -0.0372, -0.2251, 0.1263, 0.0476, 0.1987, 0.0909, -1.4417, -1.3619, 0.1294, -0.0526, 0.4140, -0.6029, 0.2547, 0.0106, -0.0887, -1.0407, 0.5414, -1.6292, -0.5576, 0.3431, -0.5106, -0.7312, -0.3248, 0.7704, -0.1108, -0.5388, -1.1793, -0.1785, 0.1561, 0.1182, 0.0782, -0.0116, -0.0605, -0.1605, 0.0953, -0.2034, -0.1143, 0.1744, -0.1291, 0.0181, 0.7666, -0.0124, -0.0256, -0.4756, -0.0264, -0.2387, -0.5783, -0.1402, 0.0529, -0.6957, -0.3309, -0.5943, -0.1613, -0.0821, -0.4863, -0.1503, 0.5157, -0.1561, -0.3138, 0.1715, -0.5509, 0.0728, -0.1985, -0.7493, -0.3559, 0.0320, -0.8627, -0.0702, 0.0559, -0.0436, 0.8812, -0.4290, -0.3963, -0.5330, -0.3940, 0.1826, -0.0181, -0.7531, -1.2297, -0.3068, -0.6342, -1.1850, 0.0639, -0.2561, -0.2711, -0.1748, 0.0510, -0.7127, 0.0570, -0.0375, -1.1155, -0.1565, -0.2253, -0.3975, -0.6637, -0.0664, 0.2539, 0.1793, -0.7550, -0.2103, 0.2874, 0.1308, 0.5636, -0.4943, -0.7044, -0.3886, -0.4274, -0.6390, -0.4037, 0.3419, -0.3543, -0.0183, -0.3084, 0.3336, -0.7881, -0.3254, -0.3064, -0.2729, -0.6554, 0.1779, 0.8112, 0.6031, -0.7011, -0.0367, -0.3857, 0.0101, -0.1634, -0.3166, -0.2581, -0.4065, -0.1720, -0.1455, -0.2447, -1.2137, -0.1690, -0.2826, -0.2042, -0.0788, 0.0705, -0.3477, 0.0278, -0.2953, 0.2119, -0.0803, -0.6421, -0.5902, -0.1601, -0.1668, -0.3953, 0.0186, -1.2455, 0.0915, -1.1946, 0.0423, -0.0010, -0.1786, -0.2632, -0.2107, -0.0201, 0.3780, -1.1242, -0.1952, 0.4590, -0.4967, -0.9982, 0.0475, -0.9819, 0.0052, -0.0237, -0.1477, -0.9162, 0.0682, -0.2497, 0.0800, -0.4409, 0.0021, -0.0434, 0.2766, -0.3676, -0.7835, 0.1039, 0.3365, -0.0758, 0.1217, -0.0862, 0.0202, -0.2233, -0.5038, -0.0473, 0.1289, 0.2476, -0.1084, -1.1612, -0.5572, -0.1737, -0.0410, -0.3937, -0.2374, 0.0285, -0.8253, -0.6222, 0.0215, -0.3875, -0.0335, 0.8628, -0.0049, 1.3412, -0.2706, -0.4216, 0.8102, 0.2818, -0.8905, 0.3995, -0.3557, -0.0816, -0.1704, -0.8049, -0.8610, 0.1091, -1.0038, -0.5108, -0.1551, -0.1106, -0.3378, -0.9405, 0.0928, -0.1211, -0.0202, -0.3351, 0.0045, -0.0357, -0.0189, -0.0231, -0.3936, -0.2515, -0.3661, -0.4080, -0.6151, -0.8047, -0.7846, 0.1591, -0.5157, 0.0767, 0.0191, -0.3673, -0.5967, -0.5842, 0.1337, -0.5666, -0.0603, -0.3356, 0.3229, -1.1442, 0.0341, -0.5522, 0.0654, -0.4292, -0.5746, -0.1164, -0.2326, -0.0542, -0.5220, -0.1641, 0.0096, 0.1760, -1.1667, -0.4007, -0.3856, -0.2198, -0.2874, -0.0160, 0.5306, -0.2059, -0.5942, -0.0764, 0.1847, -0.2496, -0.6475, -0.3978, 0.1748, -1.0131, -0.1882, -0.2000, -0.1352, -0.4192, -0.0896, 0.1159, -0.0027, -0.2428, -0.2048, -0.3351, 0.0443, -0.4987, 0.0584, 0.2386, -0.5689, -0.4700, -0.8409, -0.0447, -0.9609, 0.0224, 0.0178, -0.0701, 0.0777, -0.3584, -0.0593, -0.2133, -0.9178, -0.2427, -0.0722, 0.3458, -0.0061, 0.0228, 0.0851, -0.9477, 0.6301, -0.0458, -0.3081, -0.5190, -0.2910, 0.5646, 0.0510, -0.5565, -1.7210, -0.4271, 0.2244, -0.3649, -0.3711, 0.3976, 0.5581, -0.0192, -0.3606, -0.4394, -0.1483, -0.2529, 0.7130, 0.1153, -0.0973, 0.7864, -0.4655, -0.1805, -1.0880, 1.1250, -0.1697, 0.4985, 0.8128, -0.1796, -0.0421, -0.9075, 0.9210, -0.6021, -0.3791, -0.7529, -0.0152, 0.0409, -0.2095, -0.4453, -0.9150, -0.3167, -0.6064, 0.0556, -0.0245, -0.0122, -0.0329, -0.2877, -0.7061, -0.7014, -0.2467, 0.0270, -0.3279, -0.0021, -0.3076, 0.0249, 0.0626, -0.4070, -0.3141, -0.2866, 0.0007, 0.3755, 0.2833, -0.8706, 0.0343, 0.0675, 0.4606, -0.0541, -0.1996, -0.6585, -0.3219, 0.0265, -0.1020, -1.6196, 0.0133, 0.2158, -0.0206, -0.3134, -0.1269, -0.0785, 0.5436, 0.6467, -0.0374, 0.1554, -0.1183, 0.1155, -0.1100, -0.1163, -0.0483, -0.1056, 0.0561, -0.5322, 0.3322, -0.5399, -0.4787, -0.6256, -0.6505, -0.3993, -0.4376, -0.5150, -0.4746, -0.2211, -0.4249, 0.1321, -0.6578, -0.2208, -0.1621, 0.0233, 0.3395, 0.4031, -0.1907, 0.0534, 0.1335, -0.1742, -0.3727, -0.0199, 0.2522, -0.1944, -0.1570, -0.2475, -0.3748, 0.3797, 0.0945, -0.1099, -0.1825, 0.0292, -0.1961, -0.3677, -0.1333, -0.2288, -0.2650, 0.0737, -0.1129, -0.1947, 0.0399, -0.0564, -1.5139, 0.1547, -0.0377, -0.0214, 0.0185, -0.3537, -0.6114, 0.0322, -0.0542, -1.3716, -0.0169, -0.5857, 0.8947, -0.0569, -0.3704, -0.0183, -0.5837, 0.0232, 0.7309, -0.1199, -0.1251, -0.0643, -0.1100, -1.2172, 0.0881, -0.0689, -0.3646, -0.1836, -0.4643, -0.0723, -0.2153, 0.2219, 0.0328, -0.0654, -0.9897, 0.5119, -0.1325, -0.9033, -0.0622, -0.7625, -0.2175, -0.4609, -0.3335, -0.4086, -0.4156, 0.1335, 1.5002, 0.0048, -0.7726, 0.0531, -0.1290, -0.1437, 1.0428, -0.6747, 0.8312, -0.6040, -0.1086, -0.0137, 0.1559, -0.3172, -0.4020, 0.3773, -0.1310, -0.6020, 0.0364, -0.2726, -0.4200, 0.9955, -0.3198, -0.2413, -0.1273, -0.5362, -0.0181, -0.6006, -0.3204, -0.4546, -0.0323, -0.2619, -0.4704, -0.0008, -0.6394, 0.3923, 0.1673, -0.1075, -0.3605, -0.4604, -0.1548, -0.4174, -1.8953, -0.0094, 0.0455, -0.5147, -0.4429, -0.0982, -0.0649, -0.1898, -0.4022, -0.3404, -0.6745, -0.7758, 0.0061, -1.4506, -0.0418, -0.3111, -0.7810, 0.0423, -0.1242, 0.6309, -0.7390, -1.0573, 0.2419, -0.0265, -0.8993, -0.4429, -0.3283, -0.5566, 0.2020, -0.1223, 0.0395, -0.1578, 0.4142, 0.4901, 0.0120, -0.1374, 0.1629, -0.6220, -0.1023, 0.0917, -0.5305, 0.4140, -0.2918, -0.2949, -0.1852, -0.4821, 0.4178, 0.1120, -0.3210, 0.0512, -0.0369, -1.1073, -0.3889, 0.1391, -0.3030, 0.2284, -0.4984, 0.1402, -0.4472, -0.4478, 0.0254, -0.1533, -0.1420, -0.1348, 0.0481, -0.0230, -0.0508, -0.1569, -0.0459, -0.3686, -0.2041, -0.8716, 0.2683, 0.6763, 0.1966, -0.5741, -0.4300, -0.0448, 0.3132, 0.5853, 0.0693, -1.2330, -0.0587, 0.0124, -0.7273, 0.0022, -0.1568, -0.3344, -0.1403, -0.4272, 0.3401, -0.0202, -0.5578, -0.1623, 0.0550, -0.9291, -0.7594, -0.9463, -0.2466, 0.0492, 0.0991, -0.2119, 1.1030, -0.4320, -0.6706, -0.4785, -0.2471, 0.2729, 0.1005, 0.0065, -0.2024, -0.0909, -0.0785, -0.0776, 0.0155, -0.4594, -0.4617, 0.1063, -0.5736, -0.3950, 0.0129, -0.4095, -0.5753, 0.0457, -0.4866, -0.0876, -0.3704, -0.0110, -0.0335, -0.0449, -0.1027, -0.3038, -0.3215, -0.2986, -0.0468, 0.1076, -0.0951, 0.0243, -0.2950, -0.2573, -0.0347, 0.0073, -0.1032, 0.0013, 0.2344, -1.8323, -0.4048, -0.2729, -0.2218, -0.1060, -0.1318, -0.1513, -0.0539, -0.3052, -0.5049, -0.1956, -0.1096, -0.1140, -0.3475, 0.1882, -0.3300, -0.5561, -1.1222, -0.0496, -0.6963, -0.2011, -0.0808, -0.1370, -0.2813, 0.1136, -0.0280, 0.1163, -0.7865, -0.6344, 0.1591, -0.4779, -0.7590, -0.1049, 0.0133, 0.3934, 0.1628, -0.1315, -0.1396, -0.0693, -0.4551, -0.1479, 0.0763, -0.2052, -0.0027, 0.0076, -0.0780, -0.4812, 0.1991, 0.0883, -0.3549, -0.0615, 0.0404, -0.2422, -0.3215, -0.1220, -0.1835, 0.2840, 0.5990, 0.1767, -0.4105, -0.3459, 0.1398, -0.4622, 0.2553, -1.0188, -0.2544, -0.4445, -0.8171, -0.3007, 0.2013, -0.1281, -0.0329, -0.7471, -0.3758, -0.1297, -0.4620, -0.3602, -0.0888, 0.3625, -0.2377, 0.0279, -0.2528, 0.2781, -0.0805, -0.5823, -0.2655, 0.0175, -0.1956, -0.2067};
#endif

#endif
