//Numpy array shape [256]
//Min -4.636072158813
//Max 5.591994285583
//Number of zeros 0

#ifndef B13_H_
#define B13_H_

#ifndef __SYNTHESIS__
model_default_t b13[256];
#else
model_default_t b13[256] = {-0.6667, 1.2143, 0.2934, -0.0832, -0.1212, -0.3750, -0.0116, -0.0734, 0.5312, -0.8555, -0.4732, -1.1493, -0.4662, 0.2480, -0.1397, -1.2854, 2.3713, 0.2546, -4.6361, -0.4811, -1.3931, 0.9086, -0.1950, -0.3634, -0.3972, 0.0188, 0.1098, -0.4386, -0.6543, -0.0651, 0.5355, 0.3723, 0.4536, -1.2881, 0.0997, -0.3618, -0.0603, 1.2671, -0.2137, 2.1147, 0.4427, -0.4625, -1.5230, -3.8858, -3.9572, 0.3323, 1.3221, -1.0508, 0.5432, 2.8342, 0.4407, 2.0351, -0.8892, -0.3732, -1.2910, 2.5398, 1.5194, 3.0646, -0.4709, -1.1892, 0.6324, 0.5298, 1.4739, 0.7007, 1.3220, 0.6174, 0.0421, 1.4343, 2.9653, -1.1912, -1.6706, -1.1841, -0.6612, -3.2774, -0.1342, -0.5477, -0.6101, -2.0316, 0.7193, 0.0123, 0.0875, 0.7193, 3.6583, 0.3124, -0.2702, -0.1126, -2.4168, 4.9259, 0.2249, 0.4753, -0.1061, 0.5679, 0.1686, -0.4039, 0.0376, -1.1894, -0.5216, -0.7727, 0.1715, -0.6461, -2.7758, 0.2207, -0.9800, -0.5222, 0.0981, -1.0553, -1.2754, 0.3672, 0.0394, -1.3429, 1.6690, 0.9595, -0.2187, 0.7434, -0.3787, 0.4689, -0.4546, 0.0974, -1.1077, 0.2390, 0.3462, -0.3509, -0.8669, -2.2859, -0.1439, 0.3203, -0.7089, 0.3791, 0.2841, -1.2932, 0.9904, -0.9396, 0.3639, -1.3553, -0.3906, 0.3524, 0.6548, -0.6772, -2.1121, 0.7209, 1.3292, 0.5921, -2.0433, -0.1712, -0.5201, -0.9686, -2.0185, -0.4525, 0.4643, -0.1569, 1.3288, -2.1026, -0.1039, -1.1893, 1.5049, -0.0010, 0.6416, 0.2438, 0.1418, 2.1074, 0.5346, 1.7082, 2.2451, -1.2626, 2.7871, -1.3868, -1.0649, 1.0106, 0.3726, 0.2352, -1.0086, -0.2078, 2.9848, -1.4393, 5.5920, 2.6088, 0.9786, -0.3509, -0.7598, 0.7692, -0.5393, -0.0464, 0.5426, 0.7504, -0.2811, -1.5461, -0.3383, 2.2615, -2.8743, -1.0050, 0.9236, -1.3125, 0.6314, 0.3750, -1.9498, -0.0002, -0.6541, -0.8703, -0.5324, 2.0472, 0.0353, -1.1624, 1.3468, 0.3424, -1.9267, -1.1040, -0.1820, 0.3288, 0.6969, -0.1033, -0.5605, -1.3700, 0.4421, 0.2368, -0.4064, 0.3681, -0.4434, -1.6701, 1.0054, 0.8461, -0.6559, -0.5350, 0.3437, -2.4825, 0.7131, 0.5140, 0.7970, -2.2547, -2.8142, 0.1573, -0.5845, 1.3408, 2.8314, -3.1287, 1.6324, 0.1892, -0.1341, -0.6824, -0.2970, 0.8458, -0.9779, 3.0134, -0.3131, -0.4945, 0.9663, -0.1297, 0.1568, 2.2637, 2.5463, -1.0689, 1.4511, -0.2946, -2.2670, 3.9578, 0.5196, -1.4833};
#endif

#endif
