//Numpy array shape [256]
//Min -1.700164794922
//Max 1.251664519310
//Number of zeros 0

#ifndef B133_H_
#define B133_H_

#ifndef __SYNTHESIS__
model_default_t b133[256];
#else
model_default_t b133[256] = {-0.9485, -0.7269, -0.1862, -0.8038, -0.7394, -0.0114, -0.1471, -0.6908, -0.1737, -0.0045, -0.5707, -0.5093, 0.5899, -0.6843, -0.3453, -0.5426, 0.0566, 0.3443, 0.7017, -0.7400, -0.3244, -1.0987, 0.2834, -0.2084, -0.4927, 0.0120, -0.6042, 0.0275, 0.7824, -0.1476, -1.2044, 0.1264, 0.4512, -0.0873, 0.2018, -0.0930, 0.0467, 0.3989, -0.1252, -0.1830, -0.5573, -0.8646, -0.5630, 0.5136, -0.2431, -0.5771, -0.5994, -0.6584, -0.5242, -0.6723, -0.4964, -0.3700, -1.0593, 0.2891, -0.8443, -0.4580, -0.8427, -0.6912, -0.0503, -0.0675, -0.4161, -1.1436, -0.7530, -0.9590, -0.2837, 0.0610, -0.3513, -0.7077, 0.2702, 0.4706, -0.6404, 0.3182, 0.0328, -0.4201, 0.0930, 0.3827, -0.4440, -0.5115, -0.4967, -0.2497, -0.1861, -0.1715, 0.1734, 0.3616, -1.1360, -0.3744, -1.3935, 0.0554, 0.4458, -0.2830, -0.9415, -0.0798, -0.2586, 0.2492, -0.6856, -0.0899, -0.0785, 0.2130, -0.4457, 0.5017, -0.3615, -0.2434, 0.1512, 0.4479, -0.3963, -0.5273, -0.8653, -0.3735, -1.5153, -0.2509, -0.1720, -0.5866, -0.2203, -0.2540, -0.4481, -0.6389, 0.5116, -1.4753, 0.1515, -0.3738, -1.0301, -0.3356, -0.6864, -0.3370, -0.0777, -0.0989, -0.4903, -0.5195, -1.0783, -0.1027, -0.7469, -0.4034, -0.6831, 0.0526, -0.1567, -0.6603, -1.5349, 0.4303, -0.6120, -0.0381, -0.5033, -0.4967, -0.1084, -0.1111, -0.8400, 0.1627, 0.2622, -0.2881, -0.3583, -1.0415, 0.2820, 0.2589, -0.6913, -0.3209, -0.9087, -0.6565, 0.0831, 0.0048, 0.4863, -0.3975, 0.8100, -0.5362, -1.2509, -0.5433, -0.7897, 0.0895, -0.7726, 0.0121, -0.7503, 0.0814, -0.0897, -1.0234, -0.2061, 0.1172, 0.1656, -0.5198, -0.9606, -0.3120, 0.7437, 0.0335, -0.2908, 0.0081, 0.2368, -0.5214, -0.3289, -0.1169, 0.1588, -0.1589, -0.5825, -0.7145, -0.4897, -0.5111, -0.4062, -0.5892, -0.3430, -0.7538, 0.1528, 0.2218, 0.4002, -0.9014, 0.0260, -0.0736, -0.5525, -0.3318, -0.0512, -1.7002, -0.6102, -0.1178, -0.1421, -0.4379, -0.0864, -0.1792, -0.6128, -0.2591, -1.2793, -0.5689, -0.5835, -0.6917, -1.5175, 0.4585, -0.4031, -0.3925, -0.4660, -0.0991, -0.0108, -0.9883, -1.1819, -0.8916, -0.3709, -1.0956, -0.6251, -0.0289, -0.2613, -0.6370, -0.4282, -0.6691, -0.7721, -0.2650, -0.8139, -1.0547, -0.2552, 1.2517, -0.0036, 0.3061, -0.6309, -0.7654, 0.6231, -0.2537, -0.6808, -0.6443, -0.3330, 0.5687, 0.2615, -0.4327, -0.4661, -1.3314};
#endif

#endif
