//Numpy array shape [512]
//Min -2.397009372711
//Max 4.337020874023
//Number of zeros 0

#ifndef B57_H_
#define B57_H_

#ifndef __SYNTHESIS__
model_default_t b57[512];
#else
model_default_t b57[512] = {-0.3495, -1.2915, 0.0220, -0.5474, 0.5043, 1.2191, 0.3810, -1.7727, -0.5398, -0.6496, -0.3598, -0.3791, -0.2837, 0.0678, -0.1315, -0.8336, -0.3473, -0.4165, -0.1665, -0.7311, 0.0938, -0.3374, 1.9195, -0.2672, -0.7969, -1.3295, -0.1665, 2.3384, -1.2512, -0.1073, -0.4949, -0.7693, 1.3111, -0.6200, 1.6858, -0.0759, 1.2375, 0.0038, -0.6660, -0.7305, 0.2509, -1.3014, 0.3985, -0.8584, -0.7907, 0.1036, -0.1351, -0.8692, 1.2823, 3.1904, -0.5183, 0.4466, -0.0196, -1.0532, -0.8063, 0.0247, 0.7080, -0.0991, -0.7219, -0.0243, -0.4982, -2.3072, -0.0191, -0.4596, -0.5467, -0.1850, -0.1842, -0.8530, -0.1225, -0.0232, 1.9066, 0.3376, 0.5985, 0.8525, 0.1438, 1.1957, -1.1642, -0.1981, -0.0526, 0.0049, -0.2207, 1.1746, -0.3655, 0.3065, -0.2368, -0.0402, 0.4324, 0.3102, -1.1662, -0.4159, -0.2001, 1.6932, -0.3923, -0.0003, -0.7035, -0.3956, -0.4905, -0.0212, 2.5724, 1.0496, 0.0639, -0.0531, -0.2467, -0.4456, 0.8557, 0.5038, 0.2943, -0.5894, -1.1770, -0.3018, -0.1658, -0.7035, 0.0509, -0.0584, 0.1588, -0.0620, -1.0297, -0.0424, -1.4308, -0.1015, 0.9258, -0.3496, -0.3134, -0.4427, -0.3191, 1.0758, -0.8888, 0.5065, -0.5935, -0.1303, -0.5185, 0.6539, 0.4402, 0.2417, -0.0070, 1.4934, 0.7956, -0.8433, -0.8294, 0.0166, -0.3213, -0.3537, 0.0353, 0.0152, -0.4486, -0.1425, 0.5000, 0.4595, 0.3977, -1.6383, 0.0564, -0.2195, 0.2148, 0.3408, 1.2741, -0.4424, -0.3392, -0.6913, -0.2072, -1.1561, 0.2124, 0.1416, -0.4110, 0.0113, -0.8802, -1.1612, -0.3422, -1.1581, 0.4132, -0.4488, -0.4323, 0.5591, 1.9635, -0.6059, -0.9109, -1.0973, -1.5523, -0.4205, -1.6309, 0.4443, -1.4484, 2.1661, -0.3679, -0.2507, -0.2809, -0.9203, -0.4678, -0.9310, -0.5873, 0.2776, 1.0528, 0.1793, -0.3629, -0.5882, 0.6522, -0.5630, -0.0636, -0.0426, 0.2835, -0.3517, 0.1134, -1.2497, -0.0211, 1.0991, 0.3039, -0.6687, 0.0345, 0.3401, -0.0943, -0.0651, -0.2665, 2.1523, 0.0978, 0.0451, 0.5193, -0.1868, -0.8381, -0.2354, -0.3362, 0.1854, 0.3657, -0.0238, -0.0780, -0.2821, -0.3401, -1.5336, 0.3731, -0.0910, -1.8120, -0.6819, 0.3669, -0.2988, 0.3014, -0.4542, -1.2762, -0.3582, -0.8551, 0.7305, 0.1255, -0.5459, -0.6053, 1.5432, 1.7074, 0.0687, -0.7896, 0.4332, -0.0010, -0.9636, -0.4396, 0.0894, 0.3339, 0.1440, 0.6390, -0.4069, -0.4491, -0.3239, -0.1518, -0.5686, -0.3681, -0.0340, -0.2553, 2.3964, -0.3823, -0.3220, -0.1981, -0.0044, 0.2815, -0.0200, -0.3589, -0.7945, 0.0910, -0.0395, -0.1691, 1.0266, -0.2930, -0.4256, -0.1598, 0.2044, 0.6229, -1.1770, -0.0744, 0.5129, 0.5140, -0.1529, -0.2652, -0.0923, -0.2346, 0.2652, -0.9173, -0.3288, -0.5171, 0.1588, -0.2533, -0.4835, 0.5424, -0.0839, 0.0402, 1.3290, -1.2759, 0.2499, -0.0603, 0.7902, 0.4743, -0.6948, -0.3393, -0.2290, -0.1784, 0.0401, 3.1631, 0.1200, -0.2316, 0.0482, -0.1091, 0.2135, -0.3023, 0.6269, -0.0562, -0.0080, -0.2631, -1.0569, -0.7176, 0.9984, -0.3654, -0.2775, 0.0622, 0.0455, 0.2308, 0.0562, -0.1424, 0.1708, -0.6159, 0.0081, 0.1040, -0.0870, -0.4279, -0.9502, -0.4054, -0.3827, 0.1700, -0.5954, -1.2014, -0.3781, 0.4474, -0.0202, 0.1372, -0.8480, -0.2864, 1.7889, -0.4920, -0.1678, -0.1846, -0.2504, -0.4476, -0.3484, -0.7753, -0.4695, -0.0764, -0.1361, -1.8800, -1.0285, -0.2334, -0.1916, -0.1133, -0.2307, -0.8790, -1.3246, -1.0359, -0.2710, -1.7523, -0.9627, 0.1438, 0.1216, -0.7421, -0.8306, -0.8235, -1.1157, -0.3932, 0.6862, -0.3558, 0.0311, -0.1145, -1.0449, 0.7087, 0.2090, 0.3488, -2.0374, -0.8331, 0.0888, -0.1368, 0.4918, -0.2152, -1.0849, 0.8308, 0.0477, -0.3638, -0.5012, -0.3471, 0.0086, -0.3352, 0.0509, -1.3331, 0.2737, -0.4175, 0.6176, -0.8762, -1.1560, -0.0306, -0.5052, -0.2704, -0.4870, 0.5101, 0.1036, 0.0207, -1.5236, -0.3888, -0.6616, -0.0776, 0.3084, -0.5017, -0.6737, 0.0552, -0.2893, 0.3346, 0.0253, -0.4445, 0.2041, -0.2242, -1.0833, -2.3970, -0.7308, -0.1257, -0.9724, 0.8183, 0.8232, -0.0261, -0.0043, -0.6677, -0.8052, -0.6458, -0.3661, -0.3698, 0.0106, 0.5670, -0.0997, -0.0303, 0.8021, 0.4636, 0.0113, 0.1880, -0.7335, 0.4065, -0.1057, -0.4998, 0.7170, -0.0304, 0.0928, 0.0279, -0.0274, 0.0392, -0.8788, 0.0171, -0.8209, -0.2227, -1.6117, -0.5446, -0.6387, 1.7066, 0.3434, -0.4402, 1.0842, 0.6080, -0.9247, -0.3126, -0.4689, -0.9688, 0.0690, -0.0527, -0.3473, -0.5616, -1.1532, -0.6329, -0.2286, -0.6652, -1.3018, -0.2028, 4.3370, -0.5265, 0.5796, -0.1998, -0.1331, -0.6714, 0.9225, -0.1589, 0.4332, 0.0014, -0.1811, -0.9862, 0.0767, -0.3505, 0.2898, -0.1742, 2.3392, 0.3976, 1.0948, -0.1736, -0.3573, -1.1011, 0.0031, -0.4826, -0.9098, -0.1003, -0.1596};
#endif

#endif
