//Numpy array shape [128]
//Min -3.222640752792
//Max 2.914482831955
//Number of zeros 0

#ifndef B64_H_
#define B64_H_

#ifndef __SYNTHESIS__
model_default_t b64[128];
#else
model_default_t b64[128] = {0.0386, 0.6286, 0.5580, -0.5371, 2.4399, -0.1393, -0.2191, -0.3771, -0.6596, 0.5044, -0.6853, 0.4602, -1.5861, -0.6197, 0.7550, 0.1544, 0.1051, 0.6698, 2.4279, -1.0024, -0.7458, 2.4813, -0.1023, -0.6551, -3.2226, -0.4158, 0.9755, 0.1825, -1.0255, -1.7719, -1.3845, -0.4786, 0.0835, -0.3465, 0.5154, 0.5627, 0.0944, -0.0020, -0.1193, -0.5634, -0.9548, -0.4296, -0.3231, 0.4591, -1.0687, -0.1745, 0.2569, -0.5106, 0.7013, 1.4117, 0.7968, -0.1770, 0.0476, 0.0014, 0.3296, -0.4621, -1.0263, -0.0299, -0.8463, 0.1723, -0.6855, -0.4416, -0.0632, -0.3661, -0.0195, -0.1878, 0.1430, 0.1000, -1.2450, -0.1162, -0.5652, 0.1227, 0.6368, 0.4541, -0.3241, 0.0880, -1.5512, 0.4726, 1.4825, -0.2584, 2.9145, -1.2247, 1.0856, -0.1602, -0.8087, 1.5878, -0.2481, -0.3591, -0.3575, -0.1027, 0.3292, 0.2146, -1.2424, -0.1267, -2.1869, -1.8714, -0.7756, -1.3747, 0.0148, 0.2830, 0.1048, -0.2952, 0.3929, -0.0387, 0.8371, -0.0800, -0.2349, -0.5984, 0.3350, 1.2371, 0.9781, -0.3437, -0.2997, -1.5169, 0.1647, 0.0976, -0.0558, 1.3790, -0.3138, -0.1141, -1.3427, -1.5417, -0.3581, 0.3572, -0.8334, 0.4066, -0.3313, -0.3236};
#endif

#endif
