//Numpy array shape [128]
//Min -3.004385948181
//Max 2.875783443451
//Number of zeros 0

#ifndef B71_H_
#define B71_H_

#ifndef __SYNTHESIS__
model_default_t b71[128];
#else
model_default_t b71[128] = {0.5090, 0.5203, 0.9322, 0.5398, 0.1881, 0.2254, 0.7810, 0.1533, 0.3432, -0.3542, 0.5456, -0.6967, 0.7852, -0.2063, 0.0662, -0.1049, 1.0759, 0.3208, 0.8490, 0.3880, -0.2463, 0.0074, -0.2561, -2.4603, -0.3807, 0.1880, 0.7116, 0.0539, -0.6143, 0.0671, -0.5207, -0.9011, -1.2671, -1.0302, 0.7271, -0.5296, 0.2422, 0.9147, 0.9326, -0.6192, 0.3822, 0.6112, -0.7462, -1.6775, 1.6578, 0.7971, -1.4911, 1.0575, 0.2403, 0.2155, 0.1414, 0.2049, 0.2943, -0.6855, 0.6675, 0.1587, -0.0761, 0.9384, 0.2282, 0.6484, 0.9455, 0.5557, -1.5485, 0.2538, -0.4167, -1.3065, 2.6080, 0.5068, 0.6575, 0.6854, -3.0044, 0.1994, -0.5569, 1.4928, 0.5281, 0.9298, 0.2038, 0.2954, -0.2178, 0.7862, 0.6993, 0.9353, -0.4962, 0.0765, 0.7372, 0.3186, 1.1576, -0.4969, 1.4799, 0.2431, -1.7728, -0.4607, -0.7411, -0.3234, 0.8458, 0.6071, 0.2887, -0.7087, 0.0357, 2.8758, 0.7801, -0.7433, -2.5931, 0.5970, -0.0387, -1.2401, -0.7099, 0.0177, -0.2586, -0.0035, 0.7782, -1.3414, 0.4327, 0.0228, 0.3815, -0.7343, -0.0981, 0.2569, -1.7449, 1.4306, -0.6026, -1.5027, -2.0998, -0.0882, -1.1132, 0.2115, 0.4873, 0.3343};
#endif

#endif
