//Numpy array shape [128]
//Min -3.864678382874
//Max 1.534679055214
//Number of zeros 0

#ifndef B74_H_
#define B74_H_

#ifndef __SYNTHESIS__
model_default_t b74[128];
#else
model_default_t b74[128] = {0.8859, 0.4210, -0.9028, -0.0416, 0.0559, 0.1712, 0.2495, -0.3192, 0.6052, 0.8599, -0.1516, 0.1724, 0.7025, 0.0427, -0.5299, -0.9187, -0.2749, -0.9020, 0.2147, 0.1075, 0.3160, 0.3185, -0.4674, -0.4028, 0.7878, -0.3055, 1.0450, -2.3786, 0.1818, -0.4553, -0.5176, -0.3166, 0.1223, 0.3952, -1.5919, -1.6507, -0.6890, -0.7570, 1.2739, -1.0604, 0.0712, -1.4862, -0.2984, 0.1559, 0.4001, 0.0065, -0.3468, -0.1924, -3.0142, 0.9273, 0.4126, -0.6174, 0.0167, 0.4380, 0.0538, -0.4605, -1.0850, 0.4838, 0.2777, 0.1764, 0.7060, 0.1083, -0.6998, 0.4173, -0.9387, -0.2535, -0.1087, 0.4837, -0.4463, -0.9447, 0.9691, -0.0185, 0.8184, 0.3127, -0.2205, -1.3613, -0.2350, -0.0914, -0.0808, 0.3197, -0.7818, 0.3996, -0.3842, -0.3244, 0.8643, 1.0277, -1.2771, -0.1177, -0.2725, 0.0112, 0.7545, -0.3575, -0.3710, -0.9469, -3.8647, -0.3345, -0.3696, 0.6261, 1.5347, 0.3895, 0.3073, 0.9513, 0.1001, 0.5699, -0.8057, -0.1853, -2.5454, -0.6688, 0.0491, 0.1680, 0.4828, 1.1094, 0.0677, -0.8751, -0.0153, 1.0768, 0.5337, -0.0755, -0.3282, 0.4455, 0.0305, 0.3910, -0.3617, -0.5427, -0.3664, 0.1874, -0.8014, 0.4841};
#endif

#endif
