//Numpy array shape [512]
//Min -1.951709985733
//Max 1.871915817261
//Number of zeros 0

#ifndef B77_H_
#define B77_H_

#ifndef __SYNTHESIS__
model_default_t b77[512];
#else
model_default_t b77[512] = {0.1430, -0.3743, -0.5483, -0.1681, -0.3014, -0.3507, -0.3659, -0.2361, 1.8123, 0.8906, -0.5628, 0.6107, -0.6382, -1.0931, -0.3225, -0.9024, -0.0134, -0.4150, -0.0401, 0.0046, 0.4578, -0.4275, -0.1333, 0.2550, -0.5538, 0.7223, 0.1457, -0.0655, 0.0004, 0.0022, -0.0425, 0.0822, 0.0275, -0.2383, 0.0798, -0.4682, 0.0091, -0.4478, -0.0747, 0.0059, -0.6710, -0.0141, 0.0039, 0.0073, 0.0334, 0.4889, -0.2775, -0.3414, 0.8342, -0.4879, 0.0630, -0.5668, -0.0043, -0.8035, -0.0323, -0.0562, 0.3402, -0.0019, 0.7438, -0.3890, 1.0188, -0.9281, -0.8940, 0.1178, -0.4131, 0.8047, -0.4235, -0.1408, -1.2907, -0.4570, 0.0922, -0.5012, -0.3881, 0.0128, -0.0962, -1.0211, -0.1076, -0.6492, 0.5131, 0.0533, -0.1342, -0.0037, 0.8858, 0.3707, -0.9866, -0.1939, -0.0633, -0.3459, 0.0138, -0.5965, -0.1991, 0.0222, 1.4673, -0.8465, -0.1206, -0.9607, -1.2356, -0.7594, -0.7612, 0.1507, -0.0182, -0.4874, -0.0466, 0.2104, -0.6299, -1.0398, 0.0558, 0.5198, -0.9545, 0.1239, 0.0018, 0.0013, -0.3440, 0.5141, 0.1082, 0.2671, 0.0871, 0.0652, -0.4712, -0.3493, 0.5166, 0.5209, -0.5440, 0.5454, -0.0988, 0.0566, -0.2149, 0.0723, -0.1343, 0.8461, -0.3912, 0.1398, 0.0328, -0.1910, -1.0366, 0.0394, -0.0383, -0.8335, 0.0036, -1.1210, 0.8622, 0.3618, -0.5992, -0.1314, 0.2634, -0.0025, -0.1721, 0.0434, 0.0012, -0.2041, 1.1317, -0.1137, 0.0600, 0.0901, -0.0515, -0.1270, -0.8673, 0.0339, -0.1052, -0.0207, -0.0128, -0.9320, -0.9293, -0.6183, -0.4599, -0.0853, -0.1939, -0.3266, -0.0507, -0.8136, 0.0499, -0.2091, 0.0995, -0.1622, -0.0846, -0.0482, -0.4712, -0.2376, -0.4245, -0.6989, -0.3945, -0.1574, 0.0550, -0.0988, -0.2236, 0.2841, 0.3293, 1.4196, -0.0282, -0.0074, -0.1361, -1.4406, -0.0006, 1.3158, -0.1411, 0.0183, 0.3850, -0.1253, 0.0864, 0.0063, 0.6113, -0.0019, 0.7465, -0.2873, -0.0564, -0.0118, -0.3494, -0.1171, 0.6169, 0.9106, 0.0306, -0.0386, -0.0694, -1.9517, 0.2005, 0.0166, -0.2842, -0.0054, -0.6874, -0.2224, 0.1820, 0.0633, -1.2460, 0.0933, -0.0156, -0.2334, 0.0355, 0.0709, 0.0386, -0.3595, -0.2343, -0.1549, -0.7026, -0.1764, -0.0644, 0.0250, 0.2170, 0.0576, -1.9410, 0.1832, -0.5549, 0.0261, 0.5825, 0.1942, 0.7323, -0.2309, 0.0214, -0.1083, -0.2317, 0.4706, -0.0808, -0.8263, 1.0031, 0.0932, -0.1108, -0.6634, 0.1483, -0.0068, 0.0292, -0.0100, -0.4577, 0.0052, 0.1479, -0.3111, -0.5262, -0.2927, 0.1575, 0.5680, -0.7434, 0.0362, 0.1982, -0.5851, -0.0090, 0.0231, -0.9140, -0.3950, 0.6130, -0.1758, 0.1211, 0.0121, -0.5759, -0.0043, 0.6655, 0.3997, -1.0626, -0.4172, -0.2123, 0.2049, -0.1937, 0.0226, 0.0115, -0.7211, -0.5609, 0.4132, 0.1856, 0.0071, -0.3789, 0.0471, -0.0214, 0.0102, -0.0015, -0.0045, -0.0340, -0.0105, 0.0605, -0.3584, 0.2609, -0.0165, 0.0116, -0.3983, -0.6138, -0.1076, -0.7528, 0.2964, -0.0088, 0.1278, 1.6608, 0.4580, 0.3427, -0.0372, 0.0039, 0.0091, -1.1227, -0.5067, 1.1861, -0.0349, 0.5106, -0.0433, 0.5387, -0.0530, -0.0339, -0.9089, 0.7869, -0.6267, -0.3885, 0.0302, -0.0183, -0.7079, 1.0131, -0.0128, -0.4645, 0.2723, -0.3013, 0.0009, 0.0770, -0.9127, 0.1123, -0.2868, 0.0421, 0.4129, -0.7419, -0.4183, -0.0147, 0.0018, -0.0832, -0.4455, 0.0057, 0.1425, 0.0048, 0.1252, -0.5581, 0.1978, -0.6722, -0.6786, 1.8719, -0.0204, 0.7137, -0.0648, 0.0004, 0.0128, 0.0430, -0.2465, 0.0298, -0.1622, 0.9343, -0.0020, 0.0347, -0.0172, 0.0201, 0.7684, -0.5246, 0.0669, 0.3163, -1.1465, -0.2975, -0.0022, -0.0021, -0.0306, 0.0234, 0.3290, -0.5561, -0.3614, -0.3436, -0.4699, 0.0412, 0.6917, -0.6046, -0.0030, -0.6717, -0.7032, -0.0406, 0.3436, -0.3367, 0.0030, 0.2691, 0.0647, -0.5905, 0.0044, -1.1657, 0.1066, 0.0054, 0.4556, -0.3857, 0.0154, 0.4792, 0.0108, -0.9796, -0.5505, -0.1154, 0.3953, 0.1669, -0.2748, 0.3477, -0.5928, 0.0178, -0.1515, -0.0533, -0.0037, 0.0949, -0.3332, 0.0111, 0.5150, 0.0198, 0.0002, -0.0707, 0.7392, 0.0101, 0.4424, 0.2741, -0.1713, -0.0145, -0.1795, 0.0208, -0.1631, -0.6101, -0.0647, -0.2060, -0.0300, -0.0225, -0.0031, -0.1085, -0.2545, 0.0220, 0.0270, -0.3689, -0.0059, -1.2009, -0.3868, -0.1358, 0.0724, 0.0045, -0.0235, 0.0755, 0.0609, -0.0443, -0.3736, -0.0256, -1.0406, -0.9615, 0.0131, 0.6920, -0.4147, 0.1953, -0.2798, -0.4740, 0.0619, -0.2440, -0.8903, 0.0157, -0.0337, 0.9202, 0.9071, -0.3244, -0.4511, -0.0020, -1.0116, 0.1725, 0.3040, -0.6179, 0.1084, 0.0553, 0.0490, 1.4657, 0.0505, 0.4918, -0.4387, -0.0691, 0.2023, -0.9866, 0.3112, -0.3720, -0.0156, -0.1112, 0.0250, -0.0232, 0.6784, 0.0748, -1.5727, 0.0064, -0.0603, 0.0858, 0.5549};
#endif

#endif
