//Numpy array shape [256]
//Min -3.050613164902
//Max 1.954232215881
//Number of zeros 0

#ifndef B81_H_
#define B81_H_

#ifndef __SYNTHESIS__
model_default_t b81[256];
#else
model_default_t b81[256] = {0.1242, 0.8085, 0.2723, 0.0652, -0.2883, 0.1526, -0.3335, 1.1096, -1.6052, 0.7926, -0.1895, 0.1361, 0.0637, 0.8771, -0.4652, 0.0142, -0.3950, -0.0380, -0.4138, 1.2026, -0.4750, -0.4863, -0.6408, 0.8483, 0.5059, 0.7292, 0.4380, -0.0519, 0.6923, 0.0235, 0.8387, 1.3917, 0.2145, -0.6465, -0.1258, -0.2987, -0.4168, 0.2895, 1.9542, -0.7385, 0.9464, 0.6107, 0.2077, 0.0394, -0.7619, -0.2044, 0.4626, 0.3768, -0.0507, -0.6371, -0.3410, 0.8843, -0.7680, 0.5453, -0.0311, -0.6346, -0.6261, -1.6985, 0.4613, -0.1868, 0.2714, 0.0900, 0.4344, -0.3223, 0.8887, -0.8161, 0.2107, -1.0506, 1.3860, 1.1687, 0.2152, 0.6368, 0.1310, -0.1542, 0.7300, 0.5235, 0.1592, -0.0521, -0.3048, 1.2558, -0.3105, 0.0286, 0.1806, 0.3899, -0.1212, -0.0916, -1.0207, -1.2794, 0.4421, 1.6935, -0.0124, 0.0524, 0.2363, 1.4056, -0.3974, -0.2059, -0.4522, -0.7689, 1.2123, 0.0119, -0.1626, 0.5873, -1.0825, 0.1416, -0.7776, 0.8693, 0.7664, 0.3753, 0.1951, -0.8643, 0.5350, 0.3364, 0.6113, 0.0591, 0.1874, -0.0500, 0.4811, -0.6577, -3.0506, 1.1278, 0.1166, -0.0925, -0.5214, 1.1745, 0.4218, 0.1004, -0.4480, -0.2128, 0.3360, 0.4920, 1.7052, 1.6703, -0.5385, -0.2263, 0.0809, 0.2607, -2.8256, -1.1280, 0.7353, 0.1979, 0.0874, 0.1051, -0.0790, -1.4305, -2.7309, -0.7949, -1.5047, -1.0450, -0.0047, 0.5421, -2.3891, 0.1652, 0.2955, 0.0776, 0.0745, -0.0403, -0.0924, -1.1984, 0.9461, 0.2908, 0.6630, -0.1132, 1.4167, 0.9381, -0.0721, -0.2161, 0.5079, -1.3990, -0.3910, 0.5839, -0.0103, 0.6085, -0.0461, 0.5874, -0.3495, 0.5995, 0.2921, -0.5734, 0.6178, 0.3404, 0.3748, 0.2253, -1.5424, -0.0444, 0.4625, -0.5209, -1.1040, 0.7170, 1.4630, -1.0924, -0.4205, -1.2965, 0.7056, 0.0883, 0.2000, 0.9594, 1.1897, 0.3695, -0.3641, -1.3014, 0.2889, 0.3876, -0.4479, 0.2049, 0.5185, 0.5404, -0.6217, -1.6866, -0.4218, 0.1467, -0.8933, -0.6180, 0.1968, 0.5663, 0.3380, 0.7552, 1.1820, 0.5889, -0.0254, 0.4486, -0.5776, -0.0039, 0.0030, -0.6144, 0.5077, -0.1051, -0.0234, -0.5805, 1.1416, -0.1861, -2.4159, 0.2853, 0.4396, -0.7299, -0.1625, -0.4059, -0.1538, -0.1902, -0.1274, -1.2725, 0.1100, 0.6892, -0.4378, -1.6260, -0.4166, -0.2492, 0.7721, -0.1533, -0.3152, -0.7329, 0.1644, -0.7589, -0.2336, -0.1200, -0.6418, 0.3174};
#endif

#endif
