//Numpy array shape [1024]
//Min -4.032804489136
//Max 3.831655979156
//Number of zeros 0

#ifndef B87_H_
#define B87_H_

#ifndef __SYNTHESIS__
model_default_t b87[1024];
#else
model_default_t b87[1024] = {0.3659, -0.5772, -0.2739, -1.0327, 0.0307, 1.4884, 0.0006, -0.3761, 0.7156, 0.0687, 0.5894, -1.5940, -0.4847, 0.0701, 0.1820, -0.2090, -0.3898, 0.9089, -0.2136, -0.5434, -0.0087, 1.6955, -1.7105, -1.0506, 0.5372, -0.9034, -0.3622, 0.1468, -0.5225, -1.8764, -0.2844, -0.1070, 0.0837, -0.0855, 0.3501, 0.1815, 1.0652, -0.0556, 0.0880, 1.1164, 0.2424, -0.4225, 0.6873, -0.2401, -0.6034, -0.1580, 0.1097, 1.0204, 0.6780, 0.1187, 0.5231, -0.0562, 0.4909, 0.4134, 0.2777, -0.0658, -1.0602, 0.6056, 0.5028, 0.3313, 0.7631, -0.7124, -0.5450, 1.2902, 1.0553, -0.0625, -1.8696, -0.0967, -0.5267, 0.4380, 0.7276, -0.2737, 0.4486, 0.1235, -0.2592, -1.2488, 0.3679, -0.1135, 0.6772, -1.3279, -0.1874, 0.7543, -3.0315, -0.2133, 0.2927, 1.8613, 0.7979, 0.4404, 1.5580, 0.3372, -0.1085, -0.8222, -0.3234, 2.0656, 0.3950, -0.7694, -1.6458, -1.4019, 1.2863, -0.0347, 0.1484, 1.1602, -2.0278, 0.6002, 0.6878, -0.1123, -0.4125, 0.2283, 0.1631, -0.5203, 1.1566, -0.4734, 0.7871, 1.2941, -1.2533, -0.5263, 0.5529, 1.0921, 0.8871, 0.0843, -0.0066, -0.2931, 1.3047, -0.3418, 1.3648, -0.5339, 0.2054, -0.1296, 0.0366, -0.1434, 0.5592, -0.9102, 1.5117, 0.4345, 0.2988, -0.0875, 0.9286, -0.4414, 0.1126, 0.1375, 0.4342, 0.6973, -0.0679, 0.6328, -0.3369, 0.9587, -0.4255, 0.9029, 0.9118, -0.3795, 1.1878, -0.9609, -0.4472, 0.9570, 0.1522, 0.1635, -0.2608, 1.1596, -0.4893, 1.8184, -0.0198, 0.9541, -0.7649, -0.8153, 1.4643, 0.2708, -0.7680, -0.0560, -0.6640, 0.0889, 0.4185, -0.0646, -0.1558, 0.0473, -0.1922, 0.0682, 0.1577, 0.6134, 0.4466, 0.2726, 1.0193, 0.4737, 1.2114, 0.4497, -0.2015, -0.3592, -0.1631, 0.0615, 0.3753, 0.2151, 2.0704, 1.1714, -0.1533, 0.1308, 1.2341, 0.7527, -0.2225, -0.0209, 0.9564, 0.7029, -0.3665, 0.1868, 0.5073, -0.4006, 0.1740, 2.0041, 0.9166, 0.1069, -0.2347, 1.5119, 0.0244, 0.2529, -0.0403, 0.2910, 1.1901, -0.1651, -0.5621, -0.1284, 0.7528, 0.2815, -0.0845, -0.3473, -0.5097, 0.5284, 0.3216, 1.4299, 0.4252, -0.4274, -1.2023, 0.6309, -0.0866, 0.0374, -0.3143, 1.0544, 0.0088, -0.3563, 1.3439, 0.2650, 0.0913, -0.6133, 0.9429, -0.1269, 0.5410, -0.4271, 0.1481, -0.6851, 0.3483, 0.1967, -1.0640, 0.5399, -0.2797, 0.7873, 1.1522, -0.4951, -0.4151, -0.1675, 0.1687, -0.0474, 0.8314, -0.3168, -0.7212, -0.6918, 1.9709, 0.6104, 0.5750, -0.2389, 0.0959, -0.0105, 1.1389, -0.2659, -0.3056, 0.3169, -0.0658, 0.1944, 0.2562, -0.0876, -0.3142, 0.6525, -0.1435, 0.0276, 1.0066, 1.1260, -0.6257, -0.7857, 0.1360, 0.1106, 0.3514, 0.3240, 0.9972, 0.2326, 0.2449, -0.4946, 0.1687, 0.0718, 0.1881, 0.2571, 1.2880, -1.5331, 0.3319, -0.6693, 0.6083, 0.0831, 0.5002, -0.0832, 1.4164, -0.2304, 0.0691, 1.2423, -0.6243, 0.2684, 0.4045, 0.5330, -0.7380, -0.1700, 0.0511, -0.2018, 1.3735, -0.6844, 0.0006, -0.7410, -1.3342, 0.4500, -0.2404, 0.2444, 0.9745, 1.0597, 0.7439, 1.9866, -0.7168, 0.6391, 1.2906, 2.0696, -1.7524, 0.1149, 0.3101, 0.1764, -0.3526, 0.0105, -0.5771, 0.2275, -1.1834, 0.5411, -0.1693, 0.4805, -0.1481, 0.3672, 0.0704, 0.0773, 1.1412, 0.0462, 0.4486, -0.6551, -0.0508, -0.8996, 0.0441, 0.2164, -0.7124, 0.2551, 0.0236, -0.0953, -0.7372, 0.1846, 0.2772, 0.8901, -0.3161, 0.7566, -0.3391, 0.0887, 0.9366, 2.0943, -0.3579, 1.0563, -0.3263, 0.6115, 1.2641, 0.5223, 0.1134, 1.3674, 0.3577, -1.2468, 0.7389, -0.4462, 1.1754, 1.3743, 0.0913, -0.2113, -1.1202, -0.3099, -1.1874, 2.4794, 0.3125, 0.8524, 0.4652, 0.2788, -1.7755, 0.3739, 0.8125, 0.0011, -0.3074, 0.1142, -0.4346, -0.6537, -0.2470, 0.2785, 1.1574, 0.3065, -0.3712, -0.6700, -0.2003, -0.3116, 0.0446, 1.0269, 0.5155, 0.0991, 0.1709, 0.2793, 1.2003, -0.4017, -0.1025, -0.3233, -0.0734, -0.0753, 1.3339, 1.7253, 0.5089, 1.4642, 0.0250, -0.3027, 0.4351, 0.0020, -0.5360, 0.4157, -0.0887, 1.0349, 0.4842, 0.9327, -0.3417, 1.7041, 0.4648, -0.0429, -0.4296, -0.8972, 0.4096, 1.4273, 0.3185, -0.2877, 0.0330, 0.5678, 1.9902, 0.0102, -0.0421, 1.3240, 0.7595, -1.9438, 0.6211, -0.6397, 1.4315, -0.1755, -0.2217, -0.3065, -1.2678, -0.6648, 0.5884, 0.2596, 0.9512, -0.4982, 0.8892, 0.8940, -0.3528, -0.0623, 0.4266, -1.9824, -0.0850, -0.5157, -0.3767, 0.0173, -0.1699, -0.0625, 0.3641, -0.2803, 1.0007, 1.1289, 0.8078, 1.1606, 0.1278, -0.2904, -0.2624, -0.3946, -0.4208, -0.3594, -0.7502, -0.1837, -0.0758, 0.3402, 1.1558, -0.4546, 0.1893, 0.9700, -0.0234, 0.6939, 0.8473, 0.7577, -0.8067, 1.4416, 1.5187, -0.0336, 1.8209, 1.0111, -0.7386, 0.0371, 0.1442, -0.5275, 1.1878, -0.0004, -0.3727, -0.4389, 0.4275, 0.1592, 2.3948, -0.0739, -0.1282, -0.3852, 0.9217, 0.5944, -0.5867, -0.5269, -1.8881, 0.2105, 0.2372, -0.1423, 1.0749, -0.3749, 0.2239, 1.7014, 0.2646, -0.2515, -0.6174, 0.7320, 0.0508, -0.2064, -0.5416, -1.2935, 1.9729, -0.8742, -0.8646, -0.6002, 0.9605, 0.0328, 0.2156, -0.5179, 0.1773, 0.0652, -0.3048, -1.4901, 1.2724, 0.4054, 1.0972, 0.8747, -0.2768, 0.6006, -0.7691, 0.5803, 2.0843, -2.1361, -0.4367, -0.0003, 1.7511, -0.5918, -0.9784, 0.2700, 0.0660, 0.5983, 0.3271, -0.3230, -1.1411, -0.0694, -0.3960, -0.5308, 0.2835, 0.6291, -0.2657, -0.3015, 0.5057, -0.5202, -0.3452, -0.1395, -0.0963, -1.0330, 0.2018, -0.0101, 0.5379, -0.9000, 0.4742, -0.7037, 0.1894, -0.6351, 0.4517, -0.4410, 0.1464, 3.8317, -0.0719, 0.0615, 0.6132, 0.1765, -0.4166, -0.6659, -0.2339, -0.7459, 1.5460, 1.5335, 0.6734, 1.6627, 0.3365, 0.7370, -0.6602, -1.2576, -0.0828, 0.0788, 2.3077, 0.2725, 0.6593, 0.2551, 1.9964, 0.7326, -1.3985, 0.7939, 0.5410, -0.0562, 0.1450, -0.0919, 0.8729, 0.3502, 1.3019, 0.5469, -0.0721, 0.7976, 0.0235, -0.9312, 1.1331, 1.0947, -0.0647, 0.2961, -0.0430, 0.5187, -0.4900, -0.2599, 0.4652, -0.4458, 0.3634, 0.2909, 0.7057, -0.0654, 0.5894, -0.5527, 0.6385, -0.4446, -0.7658, 0.0790, -0.6739, 0.5937, 0.9487, 1.4340, -0.1775, 0.9905, -0.6962, -0.1927, 0.3842, 0.6098, 3.4506, 0.5589, 0.6628, 0.5498, 0.9999, 1.0620, -0.4329, -0.4415, 0.6622, 1.0186, -0.6760, 0.7453, 0.0082, 0.1557, 1.7170, 0.3208, 1.8052, -0.0102, -0.2493, -0.2482, 0.3480, 1.4771, 1.3126, 0.6680, 1.4552, 0.7320, -0.8085, 0.5675, 2.1551, 1.3036, 0.0857, 0.3800, 1.1479, -0.5311, -0.7401, -0.2759, -0.5331, 0.0769, 0.8896, -0.4655, -0.4638, -0.3474, 0.3710, -0.6380, 0.3970, 0.1139, -0.4141, -0.1101, 1.0327, -0.1455, 1.5651, -0.6888, 0.6832, 0.3373, -1.1230, 0.5089, 0.6366, -0.8919, 3.2314, 0.2209, 0.5562, 0.1999, 1.5800, 0.8161, -0.6526, -0.3387, 0.3766, 0.6257, -1.2672, 1.2156, 0.2678, 0.0876, 0.6244, -0.1138, 2.8747, -0.6636, -4.0328, -0.4739, 0.1515, -0.4094, 0.8358, 0.5794, -0.3771, 1.0898, 1.3124, -0.6238, -0.6520, -0.4805, -0.0721, -0.3654, 0.0784, -0.0809, 0.2556, 0.6022, 1.0440, -0.2065, -0.1369, 0.0933, 1.8105, 0.6564, 0.2605, -0.2056, -0.5143, -0.1769, 0.2404, -0.3955, 0.0633, 0.6984, 0.4356, -0.2250, -0.1323, -0.4066, 0.0405, -0.2378, -0.1322, 0.6394, 0.3865, 2.1194, -0.5925, 0.1410, 0.9348, 1.8723, -0.8740, 0.8935, 0.3004, -0.3901, 1.1520, 0.6381, -0.0426, 0.9580, 0.5080, 0.5757, 0.4515, 0.3251, 0.6496, 1.5119, -0.5319, 0.0307, 1.1005, 0.4616, 0.5592, -0.6547, -0.7976, 1.1133, 0.7893, -0.6185, 0.7754, -0.7480, 1.1036, -0.1835, 0.8859, 1.7169, -0.1683, 1.4208, 0.4461, 0.6445, -0.0582, 1.0943, 0.0153, 0.9924, 0.6079, -0.5449, -0.8804, -0.3208, 0.8489, -0.0825, -0.2558, -0.7586, -0.2418, 0.2339, 0.2270, 0.4610, 0.5482, 0.5109, 1.9089, -0.6142, -0.3952, 0.5971, -0.1202, -0.4948, -1.6648, 0.4539, 0.2436, 3.0400, -0.4735, -0.4590, -0.2646, 0.6384, 0.1620, 0.9373, 2.2787, 0.2703, 1.3114, -0.1811, -0.1123, -0.4630, -1.1853, 0.5254, -0.4597, -0.1056, 0.7296, 0.0971, 2.5348, 0.4561, 0.9405, 0.1518, -0.1572, 0.0187, 0.7730, 1.0883, -0.2589, -0.4077, 0.3115, 0.5823, -1.2991, 0.6897, -0.2540, -0.6437, -0.2012, 0.5188, -0.5205, -0.3861, 0.4228, -0.2235, -0.3415, 1.5860, -0.5558, 0.3792, 0.4304, 0.0189, -0.8071, 1.5928, -0.0165, 0.1382, -0.1599, 1.5628, 0.0747, -0.6392, -1.0129, -0.2882, -1.8654, -0.9080, 0.0065, -1.2156, 0.3703, 1.0261, 0.7928, 0.4442, 0.1389, 0.0675, 0.7073, -0.7889, 0.2743, 1.4188, -0.0704, 1.5916, -0.1626, 1.3583, 0.4181, 0.2201, -0.3190, 0.1061, -0.2626, 0.0099, 0.5491, 0.0254, -0.0288, 0.8197, 0.6531, 0.3325, 0.3191, 0.5322, -0.1532, 1.0521, 1.5703, 0.5616, -1.6251, 2.0402, 0.9793, -0.2954, 0.8481, -0.9617, 1.8548, -0.0559, 0.3054, -0.9995, -0.0721, -1.7635, 0.6409, 0.9554, 0.4435, 0.0946, 0.2461, -0.3495, -0.0735, 0.0816, -0.0854, -0.0103, -0.2489, -0.2437, 0.9480, -0.4736, 0.9633, 0.8989, 0.0472, 1.3648, -0.5292, -0.2789, 0.2467, 1.0137, 2.0873, 0.4459, 1.5322, 0.1992, -0.1539, -1.6189, 0.1377, 0.6056, -0.3048, -1.9506, -0.9619, -0.0650, 0.7797, -0.0393, -0.3445, -0.8509, 1.4143, 0.4313, 0.2570, -0.5558, -0.4812, 0.6165, -0.3683, -0.1992, -0.0771, 0.6093, -0.6083, 0.6508, -0.0803, -0.2509, -0.7915, 0.3809, 0.2631, -1.6718, 0.0806, -0.3391, 1.3656, 3.1900, 1.7478, -0.2413, -0.1070, -0.3683, 0.3887, 0.2773, 1.5900, 0.8354};
#endif

#endif
