//Numpy array shape [1024]
//Min -5.355054855347
//Max 4.984588623047
//Number of zeros 0

#ifndef S139_H_
#define S139_H_

#ifndef __SYNTHESIS__
model_default_t s139[1024];
#else
model_default_t s139[1024] = {-1.8256, 1.2610, -0.8407, -1.5254, -3.3692, 2.6021, 2.9151, 3.4762, 1.0494, -2.0825, -0.6926, 1.1600, -2.7191, 2.1324, 2.4706, 2.6259, -2.9591, -1.5975, -3.5003, -2.3234, 3.4709, -2.4125, -4.5639, 1.2256, -3.1781, -2.8225, -1.8187, 4.0621, -1.2744, 3.5521, 3.3800, -3.6672, 1.0196, 2.0765, -2.4406, -2.4675, 2.0899, 2.4653, -2.9599, 2.3527, 1.5448, -3.4227, -1.0487, -2.4515, -2.6522, 2.0832, -3.5848, 3.3617, 2.9215, -1.3517, -1.3976, -1.5337, -2.4073, 3.1782, -0.7272, -1.2000, 3.1961, 2.3058, -2.0896, 1.8653, 0.5106, 1.1501, 1.8734, -1.6231, -2.8462, -1.9098, -2.3449, 1.6182, 1.1427, -3.7288, 2.9411, 2.1327, 2.3956, 3.0037, 1.7299, -1.8990, 1.5503, 0.0799, -2.3881, -2.4149, 1.7866, 2.9030, -3.0698, -1.7169, -2.2303, 1.9221, 1.8848, 1.7350, 1.7396, -2.7631, 1.0353, 2.1013, 2.5479, -2.6957, -1.9516, -1.1118, -3.1597, 2.0000, -2.1091, 1.5224, 1.3853, -1.6155, -1.4419, -0.7758, -2.6811, -1.1577, -2.6803, -3.2898, -2.5599, 1.8115, 3.6425, 3.1742, 2.1827, 3.8171, 1.8678, 1.9255, -2.2470, -2.1843, -1.7664, 0.6120, -2.2596, -1.9229, -3.1464, -1.3058, -1.4865, 1.5235, -4.3591, 2.6887, 2.9865, -2.8959, -1.3114, 3.5529, 2.8870, 3.1931, -1.8542, 3.7351, 2.8593, -1.6227, -2.7063, 1.7222, -2.3331, 3.7837, -2.9124, -3.2891, 2.6897, -2.1532, 3.6918, -1.8210, 3.3380, 2.9075, -1.9765, -2.3106, -2.1815, -3.1317, -3.8000, 3.0515, 1.3048, 2.2500, -0.5746, 2.0136, 0.6158, -2.8471, 3.4549, -2.9551, 1.9295, 0.6233, 3.3716, 2.0317, 1.7148, -2.0502, 1.9950, 1.7031, -1.0055, -2.9225, 2.9068, -2.3965, 3.1777, -1.4187, -3.3460, -0.8540, 2.8480, 2.6907, -1.5186, 2.9326, -1.6074, 1.6787, 3.1418, 3.2743, -1.7389, -2.0486, -2.6754, -2.0549, -2.0702, 2.3459, 1.8220, -3.2311, -1.5817, 1.2205, 2.1413, -2.2343, 2.1191, 1.2201, -1.6804, 1.4028, -2.5013, -2.3475, -2.6103, 2.4963, -2.6338, 1.0106, -1.6139, -3.5838, -4.1383, -1.4261, -1.9920, 2.6537, 1.5804, 2.7424, 1.1797, 2.0330, -1.0793, -2.6162, 1.4565, -1.2508, 2.2288, 2.6113, 2.0750, 3.0403, 1.2364, 3.1566, -1.2143, -2.9945, -1.2474, 2.7496, -1.1245, 1.6551, -3.4133, -2.9885, 1.7295, 1.5849, 1.8571, 2.4842, -3.1705, -2.8012, -1.8630, 2.5778, -1.9602, 1.3671, 3.0495, -0.9796, 3.3277, -3.0227, 1.7331, -2.0272, 0.8119, 4.8359, 3.7989, -5.2304, 1.2148, 3.6285, 3.6701, 2.4896, -1.4566, -1.8863, 4.9846, -2.5567, 1.6063, 3.0202, 2.5238, -1.3105, 2.7832, 4.9303, 2.3855, -2.9708, 1.4572, 3.4974, 1.5693, -2.8893, 2.4857, 2.2305, 3.7951, -1.4612, -1.6152, 1.6051, 2.0551, 3.6273, -3.4169, 1.7374, -1.8671, 1.2143, 2.7156, 0.9124, 2.8790, -1.3414, 1.7433, -2.6547, 2.5670, 0.8815, -2.9733, 3.1209, 2.0101, -2.4787, -3.0074, -1.7422, 2.9040, 0.9632, -1.7524, 1.8745, 2.2972, 1.1510, -0.9836, -2.7253, -3.2172, -2.8473, -1.5841, -2.0869, -2.3761, -1.5197, -2.7884, 1.4650, 2.2626, 3.2583, 3.2765, -3.0045, -2.4393, 0.9791, -1.5369, -1.5746, 2.3291, 3.3166, 4.3312, 1.2481, 2.1719, -2.3685, -3.3726, 2.6468, -1.8729, 2.1218, -1.5590, -4.2603, -2.8618, 1.6140, -3.8101, -3.3705, 2.0116, -2.6809, 2.1417, -1.7068, -1.7973, -1.5618, -2.4823, -2.5470, 4.7139, -3.5573, 3.3121, 1.3117, 1.7952, 1.8856, 2.8483, 3.6056, 1.1195, 2.1597, -0.1840, 3.2586, 2.0448, -3.3755, -3.1419, -3.2230, 2.0314, -2.6374, 3.5982, -2.9655, -1.7243, -2.1699, -2.8083, 1.1966, -2.8491, -3.9474, -3.0306, -1.7850, -2.0577, -2.3895, -3.5145, -2.3041, 2.2841, 4.0742, 2.5579, 1.5539, -3.2540, 1.6871, -2.3479, 2.6238, -2.6421, 3.0428, -3.0797, 1.6562, -1.5297, 2.1028, 2.1748, 3.3671, 2.4961, 2.6285, 0.9223, -0.7386, 1.0152, -0.8761, 1.6298, 1.9509, -3.1339, 3.3946, -0.7321, 4.2430, 3.3274, -2.7107, 2.6833, -4.1741, -1.7630, 2.6728, 1.6893, -3.0103, -1.4464, -2.1897, -2.8677, -2.3537, -0.6568, 3.7443, -0.8666, 2.7816, 2.4213, 0.8639, -2.6520, -2.8416, 2.8551, 2.7612, 2.0164, 2.6413, -2.5502, 2.1766, 2.4506, 0.9545, -1.9308, -1.3209, -3.4243, -2.6074, 1.6476, 1.4189, -1.4609, -2.0971, -3.0475, 4.0215, 0.1182, -2.5463, -2.4529, 1.7416, -1.2870, -1.3195, 2.1085, -1.0291, -5.3551, 2.8278, 1.9883, -2.5717, -2.5195, 1.2151, 1.1602, -1.9071, -1.4380, -1.5649, -2.9229, -2.6855, 2.4859, 2.7418, 0.9863, -2.4432, 0.9959, -2.5128, 0.8912, -2.8926, -2.2669, -2.8769, 1.8992, 1.8002, -3.1048, -2.4042, -2.0175, 3.2545, 2.0976, 2.9437, 2.7178, -1.3348, -2.2910, -1.3695, -1.8830, -2.4594, -3.4580, 2.7812, -2.6027, -1.6395, 3.5967, -2.3073, 3.3300, 2.5263, -1.0652, -0.8168, 1.5844, -2.7104, -3.5212, -1.4950, 2.5534, -1.1517, -4.9309, -1.3130, -1.3470, -2.2601, -4.4048, -1.9157, -1.4489, 2.6642, 1.8481, 1.6712, -3.2401, -3.1385, 1.8170, -1.7042, -1.5748, 1.8415, 2.6193, -2.1654, 3.1723, 1.7816, 2.3323, -3.5793, 3.0749, 2.6525, 2.2116, 1.6586, -2.4971, 3.1469, 1.5805, 1.9161, 3.4484, 3.4529, -2.8089, -0.7096, -4.6100, 3.5939, -3.5271, 3.0502, -2.0997, 2.5346, 1.5760, 2.0427, -2.1110, 3.0185, -2.8394, 2.9616, 3.2355, 2.1538, -1.2621, 2.9011, -1.2068, -3.9256, 2.0061, -2.6051, 1.9107, 0.7876, 2.2756, -2.2790, -2.4326, -4.3610, 1.2590, -2.6016, -4.0861, 1.8740, -2.7388, -3.1130, 3.4479, -2.6475, 2.6139, 1.1740, 3.6161, -3.1569, -1.1975, -1.0278, -1.6054, -1.2907, -2.3396, -1.8199, -2.0854, 2.4335, -3.1639, 2.0983, 2.3957, 3.3137, 2.4888, 1.4748, 3.4797, -3.1973, -2.6705, -2.3705, 2.5552, 1.5929, -1.4432, -2.8243, 2.4260, -3.1020, -3.2938, -1.3817, 2.4653, -1.6034, 1.8477, 1.7112, 2.2736, -2.0390, -3.0991, -3.7355, -3.2746, 1.7151, -1.3722, -1.4180, 2.5293, -0.8371, -1.1860, 2.9829, -1.6608, -1.3216, 2.6645, 2.1362, -2.5640, -3.2586, -1.2909, 3.6029, 2.0196, 1.7853, -2.6571, 1.5140, -1.1095, 2.5301, -2.2505, 3.5240, 2.5307, -2.1569, -1.5329, -3.0327, 1.7744, -2.6168, -3.4532, 1.1067, 1.9261, 3.3219, -4.3106, -0.8967, -2.6157, -2.2183, -2.0251, -1.5180, 2.1952, 3.9473, -3.3138, 1.8481, -2.1640, 2.2867, -2.8409, -1.3495, 1.0386, 1.7832, 2.2986, 2.9306, 1.7814, 0.1534, 3.0795, 2.3277, -1.0691, -1.8874, 2.1827, 2.5529, 0.9944, 1.5412, 0.7819, 2.0003, -2.6305, 2.7331, 4.1950, 1.6759, 1.4709, -2.6961, -2.1884, -2.8151, -1.1630, -2.3043, 1.7414, -2.3088, -2.4403, 2.7460, 1.4166, 2.2906, -1.2838, 3.3917, -4.1134, 2.6093, -1.4406, 3.1953, -3.1531, -2.8744, -3.5617, -0.6210, 1.2937, 3.4714, -2.9071, -1.5928, -2.9569, 4.4777, -4.3446, -1.8738, -0.8675, -2.5652, -1.8975, -1.1412, 2.6049, -2.2065, -2.8319, 1.4102, 2.5065, 1.4813, 0.9783, -1.9684, -2.3436, -2.6499, 3.8625, -2.5984, -2.7484, 1.2493, -2.1870, 1.9785, 1.5728, -1.5243, -3.2426, -1.6271, 0.8788, -3.1658, 2.5360, -1.4059, -3.2876, 2.8892, -2.9944, -3.1490, 3.3066, -0.8401, 4.4125, -0.8421, -1.4949, -2.7355, -1.4912, -2.4612, 1.5356, -3.3035, 1.1623, 1.6422, 2.3421, 1.5335, -2.2835, 2.4780, -0.7830, 2.8318, 1.5280, -3.2331, 1.2709, 1.0124, 3.3710, -2.1009, 1.9489, -2.6877, -2.6570, 2.1338, 1.3791, 3.4327, 2.2172, 2.7647, 1.4809, -3.0102, -3.5154, -0.0402, 3.0040, 2.2160, -1.7277, 1.7573, -1.3958, 2.8455, 1.5223, -3.4883, 3.5342, -1.7543, 1.5680, -3.0376, 2.0596, 2.8086, -2.4023, -3.7842, 2.4174, 3.2322, -2.2121, 3.5436, 1.0948, -2.2361, -1.0355, -3.6690, 4.3201, -1.3495, -3.1907, -1.0669, 3.2619, -3.6796, 0.9361, 1.8645, -2.6124, 2.2388, 2.7993, -2.4092, 2.6293, -2.3074, -1.4359, 3.1942, 2.3093, 1.9807, 1.3407, -1.8098, -1.3370, 1.2725, -1.7083, -3.3690, -2.6301, -4.2284, -3.3777, -3.3264, 0.7731, -3.5306, -2.5718, 2.1543, 3.4026, 1.7077, -1.8728, 0.8994, -4.3970, 1.6075, 1.9438, -2.9547, -0.9430, -3.0682, -1.5079, 3.7205, -3.5042, -2.1547, 2.9323, 1.9847, 1.6465, -2.1482, 2.5231, -3.0823, -1.8385, 1.7702, 1.8914, 3.8455, 1.2683, -2.3020, 1.2889, -0.9783, -2.1980, -2.0533, 3.2372, -2.5171, 1.9791, 2.6526, -2.3428, -2.0850, -3.8343, -2.4120, -1.5064, 3.7365, -0.9902, -2.5131, 3.8442, -1.8398, 2.4399, -3.5649, 1.2081, -3.8594, 2.0119, 1.9151, 3.4924, -1.4683, 1.1478, 3.3744, 1.3937, -4.0872, 3.1722, 1.8741, -2.5683, 3.3027, -0.9215, -1.4752, 2.8296, -2.1947, 1.2107, -2.5178, -0.9204, -4.1278, -3.1100, -1.2480, 0.9366, -2.8432, 0.8207, 1.4258, -3.6310, 1.1514, -2.6385, 0.1055, -3.3751, -0.0188, 2.1986, -3.6869, -1.6732, -4.0345, -2.0238, -2.3421, -1.0979, 3.0858, -2.5249, 0.9944, 2.6099, 3.2406, -0.6665, -0.8822, 2.0699, -1.4172, -1.6128, 3.6346, 3.6215, 3.2091, -2.0640, -3.0601, -1.3585, -1.4712, -2.6756, -2.1374, -2.8981, 1.9970, -1.3600, -1.3636, 2.2226, 0.9691, 1.7002, 3.5642, 2.7492, -1.8040, 3.4725, -2.0912, 1.2789, -1.8377, -2.2941, 0.8470, 2.5016, -0.9087, 1.8070, 3.2977, -2.2235, -2.0932, 2.4622, -1.0926, -2.1464, 0.1664, 0.8709, -2.5307, -0.1787, 2.2626, -2.6527, 1.1118, 0.9281, 2.8922, 1.9019, -0.6261, 2.0338, -3.1609, 2.6524, -2.6936, -1.6119, 1.3735, -2.2607, 2.9535, 2.3822, 2.6363, 3.5855, -2.5975, 2.5987, -1.8066, 3.6153, 2.5571, -3.3241, 3.3144, 3.1110, -2.2636, -3.1849, -2.7655, 2.8959, -2.5057, 3.5774, -2.9592, -1.4875, 2.1602, -2.5610, -1.6109, 1.7960, 3.6805, 2.7192, 2.2295, 1.8547, -2.4981, -1.7791, -1.2012, 2.8729, 2.4755, 1.7999, -1.0415, 2.4182, -1.8331};
#endif

#endif
