//Numpy array shape [2048]
//Min -16.670673370361
//Max 15.188252449036
//Number of zeros 0

#ifndef S149_H_
#define S149_H_

#ifndef __SYNTHESIS__
model_default_t s149[2048];
#else
model_default_t s149[2048] = {10.8455, 10.1816, -9.7657, 10.7026, -8.8247, -9.8029, 10.2462, 9.8766, -9.9960, 8.4217, 9.0864, 12.0848, 9.5463, -8.8006, 10.2223, -8.8154, -9.5591, -14.1569, -11.0137, -11.5777, 9.9992, -9.1457, -10.3009, -9.2123, -10.8689, 9.7592, 9.5322, -9.1714, 8.6648, 11.1748, 8.8244, 12.1031, 9.5240, -11.1725, -10.1690, 10.8177, -12.2048, 10.9076, -10.4259, 11.3726, -10.0163, -13.5262, -11.7990, 10.1193, 9.3620, -11.2408, 10.4976, 10.2938, -11.1366, 10.9742, 10.0213, -9.2691, 8.3951, -10.0163, -9.2509, 10.8259, -11.3837, -11.0175, 9.1739, -13.4855, 10.3294, -12.7521, -9.8556, -9.0591, 13.4581, 8.2814, -8.2948, 9.4514, 9.8641, 9.5247, -11.5646, 9.2966, 11.4628, -13.2999, -11.6537, -9.5046, -10.9983, 9.7403, -10.5871, 10.0729, -9.9108, 10.2673, -12.5619, -13.4396, 9.5776, -11.1547, 8.4399, 11.1305, 12.4492, 8.8576, -10.9415, 13.0454, -10.7355, -11.2589, 10.2666, -11.3435, 9.8738, 12.2995, -8.9641, -10.1231, -10.0648, -11.1228, -10.7207, 11.3060, 10.5053, -10.6241, -9.3917, 12.8744, -5.0226, 9.7028, -12.9390, -9.3219, 10.2480, 11.6254, 10.1846, -11.0969, -11.5189, 10.5401, -10.6734, -9.9201, -11.0119, 9.4865, 10.9482, -11.2238, -12.0456, 11.9005, -8.5571, -11.8958, 10.3511, 10.1817, -13.1077, 6.7046, -10.8358, 11.2765, 11.1880, -11.8631, -10.8247, -13.2971, 10.9155, 11.0972, -11.4854, 8.2314, -9.7174, -8.7377, -7.5012, 11.5004, -11.6386, -10.4865, -10.9744, -12.0673, 7.2866, -9.3931, -11.4363, -10.7851, -10.9130, -11.2033, -11.4939, 10.7463, 11.2866, -14.1459, 10.9574, -10.3107, -10.4766, -10.3617, 11.2353, 9.5889, -13.4850, 10.0886, -8.5741, 11.4163, -8.5240, 10.8470, -9.8599, 10.8233, 10.8946, -10.5002, 10.3214, 10.3359, 11.5771, -12.0713, 9.7379, 8.5293, 10.7653, -9.8464, -9.1245, -10.2590, -12.3287, -10.9227, -9.8771, 11.4749, -10.4236, -9.1520, 10.1226, -11.6256, -10.8085, -10.6703, 10.8291, -10.5603, -9.8578, 9.9341, 10.7334, 11.3329, -12.5676, 10.2568, -9.8168, 10.3433, -6.1897, 11.4943, -10.6028, -13.0924, 11.1762, -11.1569, -10.2100, -10.7390, -11.0544, -10.3207, -12.2591, 12.2005, -10.5406, -10.9566, -11.2508, -11.0126, 9.6216, 9.2402, -11.5123, -10.4985, 10.5713, -10.3893, 11.1767, -11.6021, 9.9482, 11.5808, -11.2825, 10.4507, 9.7698, -9.8611, -9.6107, 11.0671, -8.6213, -10.2487, -11.7747, -11.3401, -9.8390, -11.1617, 9.1237, -11.1537, 10.9267, -11.6881, -11.0466, -10.4358, -11.4134, -10.3091, 10.9853, -10.1202, 10.0938, -10.3969, -9.8451, 8.2443, -9.4579, -10.8647, -9.7596, 9.5993, 10.1094, 9.4200, 11.1824, -10.6248, -10.6814, -10.2154, -9.3797, 10.4442, -11.1792, -8.7225, -11.2572, -11.0836, 9.6887, 13.2338, -12.7207, -10.1580, -8.5644, 10.6555, 8.5756, -13.9027, -10.8224, 9.3431, 10.3736, 13.6699, 10.8566, -9.4137, -10.3797, 10.4526, 10.6883, 10.5620, -10.7368, 12.2361, -10.4460, -9.8443, 10.8519, -10.2292, -11.0029, 9.1699, -11.4786, 10.0378, 10.6590, 11.5036, -13.8281, -11.6339, 9.6788, 11.0146, -11.0855, 9.2535, 10.4415, -10.6745, 11.2305, 9.4088, -9.1564, -10.9214, -10.9064, -10.7527, -10.3259, -9.4730, 10.8868, 12.8634, -8.4782, 9.8003, 1.7337, -9.8983, -12.0751, 10.0778, 10.9796, -11.0091, 10.2230, 12.3227, 10.8366, 11.0511, -10.0893, -9.5228, -10.6415, 9.7777, -11.0929, 12.4855, -8.3980, -11.3668, 10.4931, -9.6509, -9.9223, 11.8239, -9.6959, -11.1680, 11.8103, 10.0912, -11.4013, 10.7429, -10.7167, 7.9571, -12.9059, -11.3072, -9.2830, 11.7492, -9.6267, 10.2420, -11.9422, 10.3633, -10.4442, 14.5001, -11.3892, -10.9005, 11.3810, 10.3602, 10.7528, 10.2186, 10.8156, -11.8390, -12.6873, 10.0208, 10.0496, 10.4367, 7.6556, -11.3431, -12.4700, 10.5055, -8.4556, 10.7229, -9.8182, -11.7029, -9.2184, -10.5845, 9.8680, -10.4464, -12.2202, -11.7122, 9.6418, 9.7463, -11.0104, 10.0820, 10.9627, 10.3665, -12.0879, -10.4461, 11.0224, -11.1303, 9.8758, 11.7891, 8.7802, 11.8818, -4.3937, 12.0473, 9.1802, -8.7434, 8.7182, -9.9205, 11.3934, -9.4887, 10.4055, -9.3847, -9.1776, 10.2832, -10.5532, 13.0979, -11.8790, -10.9055, -10.7205, -10.9448, 9.3801, 10.0103, 10.1496, 12.8082, 9.8731, -12.2807, -12.0434, 10.0572, -11.3995, 11.5816, -11.0117, -9.0190, -13.5505, -10.2149, -11.8843, -10.4183, -10.9080, 10.5190, -10.7733, -8.5981, 12.3931, -11.9059, 9.9696, -10.1026, -10.0838, -10.1910, -12.3386, 10.3090, 9.9404, 10.8626, -12.0456, 10.4217, 11.2901, 10.3049, -10.9244, 10.6796, -11.7828, 11.8856, -9.4135, -10.5883, 11.8697, -10.9550, -11.5486, -10.7238, -10.7060, 10.7371, -10.9205, 9.5579, 10.5619, -9.4666, 10.7193, -10.0277, 10.9246, -11.3693, -11.2461, 10.9725, -9.3222, -9.8319, -8.8099, 11.7859, 10.9466, -11.0869, -10.3109, -10.9652, -11.3307, -11.1233, 11.0886, 6.3508, 11.5588, -10.1349, 8.5383, -11.9530, -12.3180, 11.3295, -10.4165, 11.7348, 8.9064, -11.9402, -11.0407, -12.0689, 10.0147, 11.3824, -12.9933, -11.8470, 10.3615, 9.9104, -11.5643, -10.5080, 11.0017, 10.0305, 11.6248, -9.9100, 11.7204, 11.7463, -9.6510, -10.2417, 11.6387, 10.9060, 13.2981, 10.1976, -11.7327, -10.5415, -9.5318, -9.1919, 9.2935, 10.2350, -11.2611, -9.8603, 11.7228, -10.0213, 10.6915, 10.7220, 12.5398, 11.6073, -10.1430, -9.6056, -10.3256, 12.7332, -10.6011, -11.5253, 11.3575, -8.5750, -11.9405, -10.5043, 10.8352, 10.5827, 12.8850, 10.0623, -10.8477, -8.6697, -10.1057, -9.8428, -11.3059, 7.4398, -11.4827, -9.3281, 10.1130, 11.4267, -10.5212, -10.7719, -10.6949, -10.0706, 12.4868, -10.1984, -11.7138, -8.2908, 8.7045, -9.7503, 10.6751, 11.9234, 11.7007, 10.3949, -10.3837, 10.2714, 12.1933, 10.7174, 9.0290, 11.0476, -10.7206, 11.2948, -10.0208, -10.4657, -9.3926, 11.5540, 11.8960, 8.2555, -11.8310, -10.9273, -11.3736, -10.4759, -10.8951, -10.6026, 10.4115, -10.0249, -12.0289, 9.8381, -11.3714, -10.0156, -12.7644, -9.9156, -10.4912, 9.9622, 10.4121, -8.5439, -8.9942, -8.9532, 13.2207, -9.9552, -10.4215, -10.6598, -11.1070, -10.4047, 11.9675, -10.7991, 9.5007, -11.1222, -11.3772, 10.6205, -11.0040, -10.3408, 8.9972, 12.7560, 9.6369, 9.3033, -11.0203, -9.5667, -8.9605, 9.8012, 8.6467, 11.9785, -12.9806, -10.3151, -11.5661, 10.7709, -10.0561, 11.3667, 12.9269, 9.0927, 10.1404, -10.7123, 10.7082, 9.0570, -13.4605, -10.6704, 10.3465, 3.2941, -11.0705, -10.7665, -10.4271, -9.2455, 11.2264, 9.5887, 11.0359, -8.9324, -11.3482, 10.5833, 10.6565, 11.2766, 11.0934, 10.6454, 9.6102, -10.6991, 9.4888, -13.5625, -8.5574, 8.8271, 10.8912, 11.7650, 10.2989, 10.9011, -7.5624, 9.9877, 10.4129, 10.7996, -10.2362, -9.9028, -10.8556, -11.5411, -10.1299, 10.0579, 11.7577, -10.4948, 9.9416, -11.1797, -9.1375, -9.9561, -10.9174, 11.2328, -11.6669, 10.0736, -12.5610, 10.6573, -10.5423, -9.5606, -9.8390, 11.0180, 10.6381, -11.8129, -9.9749, 11.9809, 12.9235, -8.4290, -10.1170, -8.8934, -11.2798, -11.6998, -11.3310, -9.0899, -12.2096, -9.3089, 10.6199, 9.9083, -10.6645, 10.5062, 11.0106, 10.4944, -13.8888, 9.9780, -12.3412, -11.3153, 9.1097, 10.5635, -9.4171, 9.9608, 10.1266, -10.0460, -11.3591, 10.2690, -10.3616, -10.9398, 10.6520, -9.2526, -10.6238, 10.8869, 6.0435, -10.4277, -11.8028, 9.7376, 11.3420, 8.3285, -9.7627, -9.7481, 11.2905, 9.2247, -10.3201, 11.1435, -11.8621, 11.7546, -10.1662, -8.5157, 11.2470, 11.7638, 10.0692, -10.0355, -11.7412, 9.8551, 9.7374, 12.1873, 9.5839, -10.0316, -8.8983, -11.3040, -9.7645, -10.8685, -12.2007, -12.8363, -10.0126, -11.2923, -11.8326, 10.2639, 11.6715, -10.3539, 11.2808, 9.8156, 11.0332, 9.1845, -12.3654, 12.7476, -13.2723, 10.7366, -11.5055, 11.5377, 10.4849, 11.0945, -11.2302, -9.9770, -9.7747, 9.7429, -11.7660, 12.6059, -12.4523, -10.0779, 10.3348, 11.9962, -12.7411, 10.9791, -11.2549, -11.3530, -11.8583, -10.3552, -10.9082, -11.2596, -11.1133, 10.6263, 10.1355, 10.9167, -9.7758, 11.1304, 11.0311, 10.2252, -9.8913, 7.8790, -14.4164, 11.0661, 9.6346, -8.7074, -9.4697, 9.2476, -10.4658, -9.4138, 11.8739, -13.0989, -10.8452, -10.7800, 9.6744, 11.4182, 10.6089, -12.5713, 11.8593, -12.0930, 10.8803, -11.1635, -12.5001, -10.2192, -8.5714, -12.3707, 11.6864, 12.0463, -11.0093, 11.2791, -11.6455, -10.8367, 11.1554, 10.1737, 10.6983, 12.3715, 11.8881, -9.3083, 10.3688, 10.9612, 12.2379, 10.8400, -11.9383, 9.8855, -11.1985, 8.8537, -8.8431, 10.7933, 9.7036, 11.5621, -10.6042, 10.2150, 10.8509, -9.5014, 10.5354, 10.3471, 12.5358, 12.0939, -10.6743, -13.7940, 9.7857, 7.6768, -10.0953, 9.1041, 11.1182, -12.9510, -10.7122, 9.3874, 5.2503, 10.8179, 11.1461, -9.4924, -11.3381, -11.3884, -9.7643, -10.0777, 11.2794, -11.1192, -10.7031, 12.2478, 11.7408, -13.7212, 11.3329, -9.6302, 11.9149, 9.6365, -12.1088, 10.2127, 12.4096, 10.2275, -12.4826, -9.6818, 10.8601, -11.5317, -9.7455, -10.0149, -10.8223, -10.6719, -10.2235, 11.4457, 11.9573, 12.0004, 8.2815, 11.3684, -11.6176, -11.1249, -12.5966, 11.8674, -9.7370, -10.5000, 9.8479, 10.4851, 11.9572, 11.3218, 3.8043, 8.6052, -11.0363, 9.4350, -11.8153, 10.6800, 10.9065, 10.7584, 10.4308, 10.6273, -11.6574, 10.4510, 9.4710, 12.4650, -10.4244, 8.2292, -11.3234, -11.6877, 12.4888, 10.7665, -11.4252, -11.7462, -9.5815, 9.4009, 9.4449, -10.0239, -9.2500, -10.7955, -10.3876, -10.4537, -10.8244, -9.4787, -9.9613, 11.9144, 8.3710, -7.4924, -10.6091, 8.2667, -11.8178, 9.4400, 9.7812, -9.4017, -13.6936, 12.3401, -9.8883, -8.6611, -11.6753, 11.0603, -10.8314, -7.1333, -9.8839, 11.7686, 11.5780, 11.3715, -8.1860, 12.4689, 10.8331, 10.3283, 10.9164, 10.1905, 10.7573, 11.6656, 12.4700, -11.0151, 10.7439, -10.1729, -10.4179, -10.7824, -10.3616, -10.6093, -10.7028, -9.3260, -12.1466, -10.6469, 10.3526, 10.6915, 10.8959, -10.3041, -11.5715, -10.8207, -11.1770, -10.1921, -11.9658, 10.8080, -12.2835, 12.5926, 9.6951, -11.0516, -11.7108, 9.8455, 11.2603, -9.6471, 11.2038, 9.1965, -12.9021, -11.6329, -9.9536, 8.7089, -11.6558, 12.0215, -11.1440, 10.2089, -11.3012, 10.7017, 11.1315, -9.5332, -10.5819, -10.2070, 10.3583, -11.2578, 11.7521, -10.5084, 10.3734, -10.8472, -11.6523, 8.6252, -9.6792, 10.5729, 11.0741, 11.7680, 7.7037, 9.4904, 11.2476, -11.0504, 11.0947, -10.1813, -10.8362, -13.9510, 11.6350, -11.8472, -10.8069, -10.2700, -10.0968, 10.4817, -10.5488, -11.0263, 9.0641, 12.4734, 9.0435, -10.6009, -9.4044, 11.3849, 10.1509, 12.7536, -11.7188, -11.5855, -10.6052, 10.7294, -10.2889, 11.4591, -9.4475, -7.4019, 10.4760, -10.9376, -13.0348, -10.5627, 10.9423, -12.2266, -11.4752, -12.2624, 12.9347, 8.5662, 10.6558, 10.7468, -11.7685, 12.2111, 9.9326, 10.4864, 10.9618, 10.0341, -10.6541, 10.6648, -9.5197, -11.2882, -9.3708, 10.4307, -11.4638, -11.0646, -11.7399, -12.2957, 13.1154, 13.5101, -10.2955, 11.1389, -11.2242, 11.0624, 10.3663, -10.1932, 10.2233, -12.7979, -11.6370, 10.7905, -9.7828, 10.3547, -10.0799, -8.3576, 10.2833, -11.1494, -11.1067, 11.2325, -11.2805, 12.1640, -8.8036, 11.4662, 11.6637, -9.1011, 8.6154, 10.1847, 9.5411, -10.1586, -10.4106, -9.6225, 11.1495, 12.0279, -9.8172, 10.0246, 10.0307, -9.7081, -10.3180, 10.2926, -10.8012, -11.3591, -11.5315, 15.1883, -11.2002, -9.4877, -10.6640, 10.2490, 10.7570, -11.2535, -10.9697, 10.2628, 10.9598, 8.5227, -11.1748, -9.2052, 10.5979, -11.2881, 12.8410, -9.5313, 10.7523, -10.0029, -9.1264, -10.7553, 10.5309, -11.8291, -10.8580, 10.3173, 10.4773, 10.2640, 11.6897, 9.8325, -13.2695, -9.3517, -10.5619, -9.6590, -11.1822, -8.9911, 10.8888, -9.8577, 10.7244, 10.1643, -9.4533, -10.2983, 10.6915, 9.4882, 10.8183, 10.2871, -8.5060, -10.3321, -12.6314, -10.8562, -10.5825, 11.7786, 9.1020, -12.8069, -10.3387, -8.9875, 9.1606, 11.1951, 10.3004, -10.4423, 11.9293, -10.8141, 12.7164, 13.9062, -11.5638, -11.3517, 14.6750, -12.5673, -10.6972, -10.8810, 10.4217, 8.2794, -10.6096, -12.0148, 12.0575, 10.3671, -12.0044, 11.0665, 8.0379, -3.8265, -9.5512, -11.8063, 12.1792, -10.0748, 8.9663, -11.4204, 10.1353, 10.4049, -11.8599, -10.8607, -11.6888, 11.8724, -10.6725, -11.3997, -10.6365, 10.0800, -11.0364, -8.5230, 11.2282, 12.5597, -10.7364, -11.8165, 12.1418, -9.5465, -12.1639, 11.0227, -9.9786, 7.7305, -10.7716, 10.0095, 10.5735, 10.6274, -10.9464, -10.5155, 9.5339, -11.4813, 11.5296, 10.9789, -10.4832, 8.2393, 10.9104, 11.9382, -13.3465, -12.7823, 10.9845, -11.6380, 10.8731, -9.6949, -7.8430, -10.9086, -10.5696, 9.6777, 11.3045, -10.5537, 11.4855, -9.7230, 13.1743, -9.4416, -10.3227, -8.7978, -10.5975, 11.2219, -10.8146, -8.2144, 9.4486, 10.6334, -9.2084, 10.2629, -8.4866, 11.3293, 11.6511, 10.0965, -11.2062, -10.8302, -10.1918, 9.5735, 12.8124, 10.8501, -11.3715, 11.6486, 9.1555, 10.4551, -10.6287, 11.0396, -10.6860, 10.3657, -11.2135, -10.4165, 11.1358, 11.0553, -11.0520, -12.2408, -12.3925, -10.6691, 9.1060, 11.3280, 12.3957, 11.7091, -10.9238, 9.6525, -10.3253, -11.9841, 10.8812, 12.8142, -10.0583, -10.0262, -9.6870, 9.9357, 8.9447, 9.6275, 10.6693, -6.4295, -10.9908, -10.0235, 10.6099, -10.8158, -11.1178, -11.1601, -10.7537, 10.7728, -11.0933, 10.9200, 1.5103, 10.1416, 11.3387, 10.4664, -11.0556, -10.9983, 13.2188, -9.6747, -8.7419, -10.2976, 8.7959, 10.7235, -12.5856, -9.6168, 12.1817, 11.4931, 13.3228, -9.0852, -12.8939, 12.3796, -8.4875, -11.8977, -10.9469, -9.7473, 10.6511, -11.1722, -8.9058, 11.8987, 11.1006, 9.5550, 10.1052, 10.5043, -11.2265, 11.8649, 10.3584, 8.5990, 13.9351, -10.9406, 9.8102, -11.6793, -12.1768, 10.9943, -11.2041, -11.3254, 12.8095, -9.5113, 12.6318, 9.5838, 10.9535, -7.3898, 8.8489, 9.4477, -10.9012, -7.6907, 10.6075, -11.5912, -11.0092, 9.5720, -10.3313, -11.8041, -11.6369, 11.1336, 10.7701, -12.0563, 8.3663, 10.5519, -10.0974, -12.4116, 10.4356, 8.6868, 5.8766, -10.8347, 10.8625, 10.7736, -10.9668, 9.6231, 11.1682, 11.6866, 9.9355, 10.0783, 10.1040, -12.8429, 10.7743, -10.6441, -9.3261, 11.1820, -12.6636, 9.6764, 12.0765, -11.2962, -11.4972, -11.2833, -10.3772, -11.7238, -10.2582, -11.4448, -11.9908, -10.2403, 8.8621, 13.4632, 12.2270, 10.5439, -8.2043, -11.0493, 11.2863, 10.3482, -10.6407, 10.1632, -9.7727, -12.6041, -11.2253, -11.8748, -11.7385, -8.0991, -10.6022, 11.1429, 10.5482, -12.0993, 12.5999, 11.9570, 13.6592, 11.5764, 12.7902, -10.9086, -10.8316, 10.6027, -10.1023, -9.8056, -10.5922, 10.0232, -9.7489, -10.5529, -4.3727, -10.7196, 11.1074, 10.7687, 10.1286, -9.9608, -9.8599, 10.8078, -10.3538, -10.0599, 13.3101, -10.3431, -9.0652, -8.3971, 11.0774, -10.7576, -9.0237, -10.5564, 10.9108, 11.1284, 9.6632, -10.3025, 10.6825, -10.8514, 9.1854, -10.2596, 9.8988, -10.4469, 10.4784, 10.6483, -10.1653, 11.2903, -11.0301, 10.8378, -14.1042, -10.1520, 11.3775, 11.0737, -13.7714, -11.0672, 9.2278, 8.9375, 10.0940, 9.8136, 12.1359, 10.7330, 10.0908, 10.0349, 12.3155, 10.7461, -10.3618, 11.1042, -10.7948, 10.0346, 8.7582, 10.1229, 12.0475, 11.3044, 11.6649, 8.1898, 10.0454, -11.7872, 10.0145, 10.5814, 11.2535, 10.3065, -9.5353, -10.1677, 8.7705, 10.9075, 10.3694, -11.2589, 10.1753, 8.4392, 9.2607, 10.2349, -11.2093, -9.3541, 10.4313, -10.2500, 11.7132, 10.5450, 9.9289, -9.6071, 9.1263, 10.3496, 8.9158, 11.2637, 10.3184, -9.1524, 12.0025, -9.0683, -11.3832, -10.0608, -10.3173, 9.6893, 10.9616, -9.8102, 12.3066, -9.8264, 14.0948, 10.1404, -10.9034, -9.4371, 10.4348, 11.0230, 11.0882, 10.8647, 9.1621, 10.4948, -10.9504, 9.9642, 10.7271, -12.7074, -8.6312, -8.4284, 10.1773, 9.8989, -10.9070, 8.8815, 12.1500, -12.2608, 13.3455, -10.4209, -11.0356, -12.8446, 12.6150, -10.7966, 10.9228, 9.6948, 10.2563, 10.7358, 12.6374, -11.8735, 9.7252, -10.7748, 9.5943, 9.6839, -11.1141, 12.0720, -10.4363, 11.4557, -10.7693, -10.9466, -11.7398, -11.1586, -9.5923, 12.1167, -11.3671, -9.2029, -12.5948, -12.9365, -12.9825, 10.8988, -10.6998, -10.9314, -13.5862, -10.5649, -10.3370, 9.8537, -9.3986, -11.0993, -12.0882, -9.8717, 10.1223, -12.2837, -11.1772, 9.9476, 11.2994, 9.8682, 11.2688, 10.0733, 8.3657, -12.9141, 10.1472, 13.0968, 10.2577, -10.7996, 9.0477, -12.2547, -10.3200, 9.7258, 11.0629, 10.6812, -12.1149, 10.4788, 12.8715, 9.2678, 10.5199, -9.4663, 10.5253, 10.5137, -5.5709, 10.2276, -10.5695, 9.8022, -10.9311, -10.7299, -10.7509, -9.7303, 10.3666, 9.4584, -13.9078, 10.6866, -10.7654, 10.2259, 11.8837, 10.8788, 10.4220, -12.7828, -10.8133, 12.8809, 10.9257, 11.0379, 10.9205, -10.1622, 8.5596, -13.0317, 11.5584, -12.1695, -12.1352, -11.0618, 10.7420, 10.8589, -10.7110, -11.3956, 10.5070, -10.2171, -9.8747, -10.0828, -10.1302, -11.1959, -11.8478, 10.3950, -8.4014, 10.2431, -11.7368, -9.9547, -10.2011, -12.2321, 10.1307, 11.0561, 11.5655, -14.2099, -11.7654, -10.3804, -10.9631, -12.1010, -9.2147, -9.5886, 10.0799, 10.5501, -10.4703, -10.3228, -10.6076, -9.8469, -9.9923, 12.4060, -11.0058, -10.6361, -10.8897, -10.3001, 9.8040, -10.5965, 9.8266, -11.9269, -11.4461, -10.4427, 10.6579, 10.9934, 12.2388, 9.3481, -11.4949, -9.4835, 11.1884, 12.3608, -10.8234, 10.5339, -10.3733, 11.8577, 11.7071, 10.6478, -10.8408, -10.2623, 10.1983, -11.3911, 10.2156, -11.6418, -12.4723, 9.4711, -9.9631, 11.2980, 10.8299, -8.5814, -10.8049, 9.8018, 11.5819, -9.5002, 11.2989, -9.3869, -12.7048, 9.4524, 12.6417, -12.1968, 8.2026, -9.8213, 10.7789, -10.2294, 11.2639, -9.9029, -13.7961, 9.8548, 13.2321, 11.8352, -11.1561, -10.4776, 10.2952, 12.9339, 9.4011, -12.9549, 9.6378, 10.6150, -10.7085, 10.5827, 12.1080, 13.1248, 11.4295, 12.4211, -9.1994, 12.2549, -10.3075, -11.0589, 10.6026, -9.6664, 12.2127, -9.2347, -9.3150, 11.1829, 11.3981, 10.8447, -11.2899, -9.4610, 9.0045, 10.5982, 7.1245, 11.5427, -9.8894, -9.7745, -10.3920, -11.3893, 10.2119, -12.1953, -10.4446, -12.2477, -10.4791, -10.2936, -10.6269, -11.4085, 9.9610, -10.3626, -11.6200, -11.4029, -10.5153, 10.3495, 10.5327, 8.6496, 10.7277, -10.4212, 10.1046, -12.2254, -11.1520, -15.4249, 9.9098, -10.0411, -11.3359, -10.0861, -10.9398, 13.0649, 11.9501, 12.7416, 10.8627, 9.6689, -10.4908, 9.7557, -8.9307, -10.7774, -11.0684, 9.8917, -10.9884, 9.6691, -8.9758, -9.7351, 10.6999, 13.2924, -11.5732, -9.9797, 12.2232, -11.3352, -12.6536, 11.1152, 11.8661, -8.2841, 9.4316, -11.7848, -11.5770, -10.3498, -10.4277, -11.7995, 9.6116, 10.1499, -10.3173, 7.2585, 11.8321, -9.3759, -10.2527, -11.9221, -10.7767, -11.3896, 9.6476, 11.0376, 10.7356, 11.2428, -11.6605, 10.2986, -7.3324, 9.6611, -10.1374, -10.5612, 10.4003, -9.7215, -10.9039, -12.4387, -9.8792, 9.3459, -11.8485, 11.0863, 10.6025, 11.9698, 9.2192, 10.3782, -12.4631, 10.5820, -10.2769, 12.3564, -10.7719, -11.6790, -11.0718, 10.4746, 7.7367, 12.2810, -11.6083, 11.1100, 11.1546, 11.0991, -10.9388, 11.3363, 9.7033, -9.7683, 11.9432, -11.0694, 9.3118, -11.8100, -10.2859, -11.3313, -10.5657, -11.0572, 9.5573, -8.5696, 11.3140, -10.7490, 10.8346, -9.5422, 13.5717, 11.5882, -12.4625, 10.6483, 10.1798, 11.3113, -9.3362, -10.5179, -10.9671, -11.3221, -11.3585, 6.3248, -11.9958, 9.8565, 10.9863, 11.9476, -10.7278, 9.7013, 10.1646, -10.4398, -10.3417, -10.0315, 10.5267, -10.1314, 10.6112, 11.7099, -12.6195, -7.6070, 11.6605, 10.8602, 10.7242, 12.4676, 12.8133, -9.5252, -9.3302, -9.5507, 9.6973, 11.7655, 12.1149, 9.7162, -9.2484, -8.5953, 12.4427, -11.2922, 11.6521, 11.2857, 11.3014, 10.7920, -11.2653, 10.2351, -11.5784, 10.8230, 13.0051, -10.7731, 9.1343, 10.9973, -10.5404, 9.0219, -11.2051, -9.7679, -10.7647, -11.1543, 11.4085, 10.3215, -11.5739, 10.8138, -16.6707, 10.2891, 10.4961, -10.1393, 11.3201, -11.4664, 8.9226, -10.8701, 14.8073, 8.4261, -10.6957, -9.4032, 10.6931, -9.8472, 10.4725, 11.9040, -12.7888, 11.9847, -8.2681, 9.9601, 9.3523, 10.1110, -9.8580, -10.3369, 11.8471, -7.9177, -10.7934, 11.2486};
#endif

#endif
