//Numpy array shape [2048]
//Min -19.956542968750
//Max 20.314191818237
//Number of zeros 0

#ifndef S161_H_
#define S161_H_

#ifndef __SYNTHESIS__
model_default_t s161[2048];
#else
model_default_t s161[2048] = {-13.4019, -16.1873, 13.6295, -16.4931, -13.1193, 11.9612, -15.7580, 15.1588, -13.0486, -14.9539, 15.5655, 15.2245, 16.0754, -15.5968, 14.0197, -18.0289, -15.5819, 15.4075, 13.5532, -14.3224, 12.5911, -13.3837, 17.1313, -14.3729, -13.9233, -14.2402, -16.7112, 15.5058, -15.2876, -13.8303, 16.1058, 15.9710, -14.8743, -15.4148, -14.6051, 14.3050, 14.4854, 15.6144, 14.6309, -18.6690, -14.1406, 16.2496, 14.4407, 15.4866, 15.3674, -13.5489, 17.5096, -14.7887, 15.2206, -14.7716, -12.0632, -13.6644, 15.3967, -13.9472, -15.5129, -13.8466, 14.8702, -13.4648, -12.3884, -13.3420, 15.1570, 15.9988, 13.7367, -16.6165, -15.9489, 17.1812, -11.9587, 16.5258, 15.8126, 17.1509, -14.2716, 13.1945, 14.9870, 13.1424, 16.7302, -13.6354, -13.2792, 13.9253, -16.9642, 14.7113, 16.2632, -15.5213, -18.0898, 14.3328, 12.8789, 11.7568, 15.6790, -18.3498, -14.7505, 13.5053, 14.1859, 14.4453, 14.1398, -14.9935, -15.3658, -14.3789, 13.8673, 14.0502, 14.3613, 14.5408, -17.8882, -15.6227, 14.3020, 15.9600, 16.1104, 17.1086, 14.7571, 13.4560, 14.4708, -14.7300, -15.5541, -16.3499, 15.4380, -12.3912, 14.9952, -14.5725, 18.0803, 12.5909, -15.0055, 15.7453, -17.0689, 13.9767, 14.8295, -13.2111, -15.3567, 13.8482, 11.3942, -17.3318, 15.3398, 15.1973, -14.6214, -14.4888, 14.0831, -15.0815, -15.4593, -11.8269, -15.7624, 15.1854, -14.8921, -15.5234, -16.4548, -14.1659, 13.0236, -14.2348, -12.7020, -15.8520, -16.9301, -13.8681, 17.3073, 14.5213, 11.6123, 14.3042, -12.6775, -16.9406, -14.6997, -14.8759, 16.1857, 16.5204, 17.5264, 16.0948, -13.7127, -13.0604, -14.7843, -13.3054, -14.2593, -14.9288, -13.8009, -15.7628, 15.3345, -15.2098, -14.9289, 15.2975, -17.1433, 13.4056, -16.3021, -15.8345, 14.0269, 14.5077, 14.4466, 14.8791, 13.7455, 8.3014, 12.7490, 16.2355, 14.5034, -13.2900, -14.8071, 13.8838, 14.1778, -15.1467, -13.4848, 15.4141, 16.1197, 15.3672, 13.3029, -12.9636, -14.2225, -17.3333, -13.4672, -15.2789, 15.4293, -15.6304, 15.5656, -13.2923, 14.7357, 14.1306, -12.9117, -15.2821, -15.1092, -13.9148, 15.0461, 13.6054, -12.1448, -13.5399, 16.5659, -15.7836, -15.6463, 14.8836, -15.4564, -14.6589, -16.0888, 16.1449, 14.7809, 13.5287, 14.6514, -12.1377, 18.4901, 14.3454, 16.9778, 13.7667, 15.0084, 16.0938, -14.7479, 15.6441, 13.6310, 13.3612, -14.1496, 13.3570, -17.6380, -11.9190, -13.3936, 14.2304, -15.0235, -13.4399, 13.7376, 16.1131, -15.1079, -14.8570, -15.4636, 13.6806, -12.6748, -15.0952, 14.3221, 13.5280, -11.8162, -12.1042, 16.4872, -12.7633, -18.2414, 15.5835, -14.7541, 14.1529, -12.8682, -14.3580, 15.9672, 11.9457, 12.8467, 11.7326, 13.2390, 17.2108, -14.7209, 11.1995, -13.8005, -13.6861, -15.5202, -15.7518, -15.4931, 13.5878, -16.9839, 16.0265, -15.6081, -12.7760, -14.3292, -14.6178, -16.1189, 15.0757, 12.1382, 14.1247, 14.3007, 12.6972, -14.1591, 13.3042, -16.0858, -16.6959, -18.3614, 14.8488, 15.2672, -14.2917, 13.5609, 16.3634, -17.6173, -13.1143, 13.2012, 15.3945, -18.9742, 11.7323, -16.9242, -12.9786, 17.1903, -15.1287, -13.7388, -12.5535, -12.0395, 12.4863, -14.1286, 15.9619, -13.5428, 15.2658, -14.3577, 14.7663, -14.8525, -12.4523, 14.5225, -16.1727, 10.5757, -15.9895, -16.0304, -16.5036, -13.7898, 15.3668, -16.8832, 14.3170, 14.2395, -15.3082, 13.2951, -16.5048, 14.5645, 11.7213, -14.8032, 16.6068, -14.6595, -15.0543, 14.4547, -11.0729, 18.4030, 15.5719, -14.0841, -17.4516, 16.4475, 14.2155, -12.7217, 14.0056, -18.0527, -17.9357, -16.1773, -15.3812, -12.8735, -14.0915, -14.1754, -12.8108, -14.5769, -13.0270, -13.5795, -14.5409, 14.9667, 15.2390, 14.8236, -13.1688, 12.9761, -14.3854, -15.7532, -14.6204, 14.8342, -12.2844, -16.9954, -15.0601, 16.7083, 16.4258, 15.7723, -14.5025, 14.7731, -13.8682, -14.2082, 14.7169, -16.5984, -18.4927, -14.2513, -12.9101, 15.4878, -15.5700, -14.3117, -13.4063, 16.1083, -13.6890, 15.0148, -12.0313, -17.5205, 15.9792, -15.4315, -16.4551, 12.8090, -14.9699, 14.8614, -17.4692, -15.1443, -14.1958, -15.7261, 16.5465, -15.1842, 13.1991, 14.6791, 14.0232, 13.6809, -13.5767, 14.8121, -15.8197, 16.0060, 15.5766, -12.4975, 12.2051, -12.7633, -14.8737, -14.1853, -14.3625, 14.6899, -14.2454, 14.0947, 15.0878, -12.8830, 14.3564, -15.5986, -13.1689, -14.9870, 13.8084, 15.2092, 15.1044, 14.1503, 14.8782, 17.0744, 16.1766, -12.8270, -14.0924, -15.2968, -14.4172, 13.6552, 13.7153, 14.9434, -14.9122, 15.9017, 14.8458, -13.7982, -14.9661, -14.6232, 14.0117, 17.4672, 14.9920, -14.5639, -13.5625, 14.1127, 12.0796, 16.5569, 14.8464, -17.2585, -13.4860, -15.6620, 14.2071, 14.7952, 14.4398, 14.4980, -16.0975, -14.9001, -15.2789, 14.5622, -13.9770, -16.1212, 14.8458, 17.9586, -15.4322, -15.3764, 14.7492, 18.1885, 13.2284, 15.8341, 14.4193, 12.9028, 14.1544, -17.2057, 15.1479, 18.0552, -12.1949, -14.0027, -16.6664, 14.2722, 15.7720, 13.3135, 14.0766, -16.4717, -14.0528, 14.4310, 14.3676, -15.4526, 14.5733, -15.1027, -16.8546, 13.6369, 14.4187, 12.3195, 15.4709, -16.9101, -13.5160, 13.9246, 13.2842, 13.3183, 16.2928, 14.9417, -14.4674, -15.3083, 16.0118, -13.0714, -17.0481, -16.1444, -17.4449, -14.8125, 13.0047, -17.0422, -16.3057, 16.5133, -17.5258, -12.1370, 15.3429, -13.8066, 14.1519, -14.4445, -14.8800, 13.2868, -17.1891, 16.0074, 15.2893, -13.7724, -15.0953, 16.5316, 13.0387, -15.3783, 12.7632, -14.3965, -13.6637, 16.5546, -12.0448, 17.0592, -13.1621, -15.0070, -15.9820, 13.9531, 13.7280, -16.0891, 14.3710, -14.4800, 16.3692, 13.1220, -16.7463, -13.5573, 14.8099, 17.4001, 12.7352, -18.4513, -13.0063, 15.0027, 15.5169, -14.7204, -15.0153, -16.5546, 11.5782, -13.2441, -17.8189, -14.6526, 14.1614, -14.3451, 14.0659, -18.0180, -17.1602, -16.1675, 16.7177, -13.5239, -13.0205, -15.5624, 14.7646, 13.6954, -8.6680, 15.0407, 14.9219, -14.3864, 12.1393, -19.9565, -13.7487, -13.2645, 14.9182, -10.8773, -16.2265, -15.6527, 15.0550, -15.2960, 13.7669, -15.2195, 14.2219, 14.0677, 14.8142, -17.7448, 14.4338, 16.5605, 15.2437, -13.8928, -15.1721, -14.4639, 15.2514, 13.6514, -16.1951, 14.2439, 15.1243, -14.0313, -17.8841, -13.2089, 13.2994, 11.3521, 14.2442, -15.8526, 12.9155, -15.6139, 12.8281, 13.0775, 14.3489, 13.4081, -15.0303, 13.6081, -15.6879, -15.9329, -13.4467, 13.4170, -17.0770, 16.5782, -14.2897, -12.8016, 14.5966, -15.3888, -15.7880, 13.7451, 16.6301, 15.7100, 11.4676, -12.2809, -13.7325, 13.9502, 11.9363, 14.3543, 13.9405, -17.4674, -15.5035, -14.1286, -15.9994, 13.7749, -15.6084, -14.2164, 16.4376, 13.7455, 12.8871, 14.1784, -16.5047, -16.8209, 14.3828, 15.3312, -15.1335, 14.8257, 13.1907, 11.0165, -12.9571, 14.3364, 14.3259, 13.9102, 14.9502, 16.0269, 15.3406, -16.5090, 13.8791, 15.2659, -14.8983, -17.5509, -13.6633, 15.7069, 14.9805, -18.0279, 13.4987, -14.8727, 14.9131, 13.6479, -16.0624, -17.5431, 15.9655, 15.9017, 17.4245, -13.5771, -14.6264, -16.4641, -12.4872, -14.7646, -13.4844, -16.5615, 15.6350, -13.8766, -14.0726, -17.6515, 15.2164, 15.4426, -12.5771, 13.2967, -14.7732, 12.4370, 15.9731, 16.2210, 14.4324, -13.2627, 16.7581, -17.3508, 16.3687, -13.1947, -14.6357, -14.3994, 14.5737, -13.7328, -15.9079, -11.8126, -14.4780, -15.9874, -14.1113, 11.6209, -13.6897, 14.9090, 14.5228, 14.7654, -12.4756, -13.9969, 14.3624, 15.7179, -16.1263, -14.1119, -13.5969, 14.2560, -14.2408, 15.5230, -14.6563, -13.1631, -15.7680, 14.6970, 13.6413, -18.0813, -14.5737, -15.4255, 15.9151, 16.3284, -17.1185, -13.3132, -13.7871, 13.9206, 15.8231, -17.1988, -13.7682, 15.0425, -14.7649, 14.1114, 13.4715, -11.9232, -12.8952, -16.4658, 13.4228, -16.6190, -14.1483, 14.0369, 14.4335, -14.0042, -14.3521, -15.0410, 14.9360, -17.8855, 14.5027, 14.7845, 13.3977, -14.2875, -13.4144, 15.2911, -16.4336, -15.1960, -14.6973, 16.5032, -13.2415, 14.5462, -13.3706, -16.0636, 16.9482, -14.7815, -12.2572, 14.6714, 13.5459, -13.6590, 15.3169, 15.5310, 14.5611, -14.6499, -13.3156, -15.7017, 15.8053, 13.8109, -14.6223, -13.5761, -14.3019, 10.9379, 13.6463, 15.7700, 14.8079, -16.3806, -12.6013, -16.2340, -17.6998, 13.4385, 14.9442, -14.1615, -15.3981, -14.4925, -14.0901, 13.9222, 15.4697, -14.9102, -13.7898, 15.1168, 13.5804, 15.8937, 16.0846, 16.9094, -13.3680, -15.8053, 15.9238, -14.9726, -12.2657, -13.9105, -15.2529, -16.2133, 14.0741, 16.5204, 16.8209, -13.7102, -16.5666, 12.9784, -18.1079, 14.2026, 14.3445, -14.3855, -13.9688, 17.7444, 12.4940, -15.3104, 14.3066, -10.7703, 14.6544, 15.4511, 18.4405, 17.6723, 14.4126, 15.0251, -12.6260, -12.3311, 15.6358, -13.4350, 12.3514, -15.9425, -15.0607, 14.8016, 15.9254, 16.3058, 13.0180, 17.4555, -16.3377, -15.6998, 13.2079, -13.3542, -15.3850, -15.4138, 13.9140, -15.4179, 13.7079, -12.8283, -12.6204, -15.8182, 13.9189, -13.2277, -15.2390, -15.1101, -12.8398, -14.3351, -12.3999, -14.4687, 12.4599, 13.7344, 13.2792, -15.8413, 14.9566, -16.5906, -14.9733, -17.5791, -14.2848, 15.1379, -13.5040, -12.1399, 14.7429, 13.2736, 14.5535, -16.1684, -15.2489, -15.6936, -15.4064, 14.8917, -14.4202, 17.1639, 12.8410, 17.1136, -13.4669, -17.8067, 15.7973, 13.4755, 15.5171, 11.1611, -14.9896, -16.0519, -12.5061, -13.8631, -15.9691, -12.7490, 15.1802, -16.0542, 14.8616, -12.7554, 14.4898, 12.8758, 18.4574, 15.6954, -12.4675, -15.2435, -13.2084, 17.7553, -15.2021, 16.2477, -16.9584, -14.0274, -16.6813, -15.6587, 18.5903, -16.6653, -14.1177, -15.2265, -13.2502, 17.0856, 14.0299, -17.0192, -15.6892, -14.4686, -14.1531, -16.9914, -9.9742, -13.4065, 14.5111, -14.4002, 15.4781, -19.5963, 18.0264, 16.0458, -16.0076, 15.0423, 13.2354, -18.6728, 16.6248, 14.5324, -13.1979, -15.5324, 15.2621, 14.2921, 12.6244, -13.5007, -16.8887, 15.2241, -16.0924, -14.0513, -13.0819, 11.4642, -13.5097, 16.0820, 15.3007, -17.0198, -16.6169, 12.7721, -16.0589, 11.9756, -15.0068, -15.2880, -13.7989, -12.8461, 14.1825, -13.8061, 13.5997, -13.2463, -13.0516, -12.6337, 12.6731, -12.7921, -12.8892, 16.3098, 12.5511, -16.1860, -16.2306, -17.1160, -14.4059, 17.0804, 14.3724, -14.7247, 15.6571, -13.9981, 16.0649, -13.4845, -10.3936, -16.1871, 16.0628, -14.7702, 20.1261, -14.7026, 15.9172, -14.7008, 16.4701, 17.8347, 16.7118, -15.3874, -14.5317, 14.4973, -14.9814, -12.7812, -13.8545, -17.2098, -14.1957, -15.9411, 14.6572, -14.8035, -13.7144, -14.8168, -13.9338, -16.4376, -14.2804, -14.9776, -14.9920, -14.5456, 13.4704, 13.1736, 17.6640, 15.1808, -15.2714, 15.4361, -15.5964, 15.9170, -13.2409, 14.0730, 14.9718, -15.9727, 15.8894, 15.1360, 13.6944, -14.7625, 12.1895, -13.8058, -16.2652, 15.6932, -13.1527, -14.6914, 15.9298, 14.6946, 15.7359, -16.1562, -13.9585, -15.6047, 14.5607, -15.6820, -14.3241, -13.7799, -18.7698, 18.0566, -16.8779, 15.0219, -15.7561, -12.1224, 15.1023, 16.2585, -14.7488, 15.1895, 11.9980, -17.3731, -13.7343, -18.0151, 13.3386, 15.7151, 15.5757, 15.3565, -13.0519, 13.3421, -16.6853, -12.3447, 12.6634, 14.0045, -18.1999, 17.7333, -13.9843, -14.8645, 12.7601, -12.7585, 14.0346, -17.7661, -15.0408, 15.9565, 13.8218, -15.3146, 13.8494, 14.5013, 15.5529, 13.1970, -15.6397, 14.5417, -15.5929, 14.4112, -14.5788, 15.9279, -14.4887, 12.5953, -14.7597, -13.0854, -13.6833, -16.9622, -15.7037, -14.8000, -15.9937, 18.0796, -13.2828, -16.5613, 16.7736, -12.2421, -17.1788, -14.8409, -16.8100, 14.6310, -13.2319, -14.7413, 13.4591, -15.6708, -17.3465, 13.3348, 15.7458, -14.8338, 13.9525, 16.7350, -14.4372, 12.8635, -13.6702, 14.2286, 14.0241, 12.8643, -14.5569, -12.2650, 14.4291, -14.5779, -13.0046, -12.7919, -14.0511, 11.7786, 14.4242, -15.3633, 16.9900, -12.4740, -13.0547, 13.4687, 13.9836, -14.3887, -16.7066, -13.2387, 15.6555, -14.5318, -15.6091, 15.3687, 13.3981, -13.3382, -17.2458, 12.0376, -15.5216, -13.4341, 14.1561, -15.7345, -14.2849, -13.2057, -14.0735, 18.4813, 17.5245, 14.2349, 14.7706, 14.5403, -14.5115, -16.9972, 14.5522, -14.2519, 15.3387, 13.1865, -14.4086, 12.3955, -14.8058, 12.5320, 16.9161, -15.3516, -14.1077, 12.9530, 16.1350, 17.7684, 13.7862, 16.7654, -15.8302, 15.1955, 13.5328, 13.9465, -14.3231, 6.4552, -11.7290, -15.5928, -17.3837, -15.8975, -13.7863, -18.1773, 15.3835, 12.4030, -14.8086, 15.4202, -13.1926, 13.1228, -13.4908, -13.6217, -15.1465, -16.8565, -15.8218, -16.6070, 14.7227, -13.3120, 16.5176, 19.0966, -15.8788, 12.3708, -18.5105, -14.3738, -16.6126, -16.3765, -16.0112, 14.9628, -12.5108, -15.3785, 14.6305, -14.4843, 14.9262, -14.0839, -19.1653, -15.7581, 12.1507, 15.9024, -16.1266, -12.8091, 15.4237, -15.2787, 13.8214, 13.1339, -14.7727, -14.8445, -17.1377, -16.7959, 13.5795, -13.2211, 17.4194, -14.2652, -12.7669, 16.6580, 13.7495, -13.4258, 15.0304, -13.6270, 15.2893, 15.7852, 14.7602, 14.3406, -17.3349, 16.4938, 16.6419, 14.2629, 16.5637, -16.6842, -16.9462, 16.9840, 11.3362, 17.3281, 15.1470, -14.3273, 16.0370, 17.6822, -12.4855, 13.1280, -16.3494, 14.3775, 18.1481, -13.8034, 12.9665, 14.0338, 14.7461, -16.1631, -13.9234, 14.1920, -14.2196, -15.9968, -14.2582, 15.0259, -15.0490, -15.6927, -12.6638, 13.9739, -14.1498, 20.3142, 14.2691, 17.0332, 14.6652, -13.7225, -15.9112, -17.7594, -14.2352, -14.7281, 14.4040, 14.4171, 15.1964, 13.1157, -17.6078, 17.1669, -15.8910, 11.7561, 11.6490, -12.8027, -15.4625, 12.5211, 13.9994, 14.3417, 19.2468, -6.9297, 13.9170, 14.5333, -13.7290, 16.5917, -13.9086, 13.7881, 11.6294, -15.7599, -13.7089, 14.2354, -15.3094, -13.2365, -14.8684, -10.8236, 15.3935, -14.9729, 15.5055, 15.4384, -11.4080, -15.4936, -15.9011, -14.0690, 14.5274, -14.9736, 14.7252, 15.4836, -15.1397, 16.9932, 13.8883, -13.7908, -16.5558, -16.8603, 13.0314, -18.2689, -17.6006, -16.8164, 13.3390, -14.3082, -14.1520, -14.4165, 12.2933, 13.7688, -12.8408, -14.8114, 13.9674, 17.7621, 14.5429, -16.1439, 16.5917, -13.2752, -14.7744, -12.6152, -14.3414, -12.7889, -14.6992, 17.4434, 16.0169, -16.0474, -13.1866, 15.8566, 12.6746, -17.7488, 17.8084, -13.8552, -13.6732, -17.6886, -15.1424, -12.4694, 15.4787, 11.2940, -12.7463, 14.3263, 15.0757, 13.3761, 14.7587, -18.6400, 14.3367, -15.0005, -12.3620, 16.7402, -12.9478, -16.2176, 16.6118, -19.0218, -14.0866, -13.5214, -15.1551, 14.5509, 13.9073, -16.7450, -16.0322, -17.1365, -15.8083, -13.6841, 14.9980, 15.9739, -13.5587, 15.5815, 13.6633, -14.7783, -15.4650, -12.1258, -14.2313, 13.9867, -17.7036, -17.0917, 14.5623, -13.8797, -17.1753, 14.6886, -14.0332, 16.4919, -14.1451, -16.7694, 14.9610, 13.8989, 15.8765, 14.9214, 13.3385, -17.5867, -16.8468, -16.8472, 15.5894, 12.1622, -15.6927, 12.2971, -14.7272, 15.0263, 16.1196, 16.2603, -13.6466, 15.7410, -15.8471, -14.6555, -14.8444, 14.7512, 14.9850, -15.4797, -15.0827, -12.6419, 19.0993, 13.5675, 12.9465, -16.6562, -9.7506, 16.0531, -13.9253, 16.0034, 14.4202, -15.1907, -14.5179, 12.1448, -13.8517, 12.6912, 16.2188, 16.5336, 12.6493, -14.3945, 13.2308, -15.0140, 14.7291, -15.4088, 14.9415, 12.6490, 13.7550, 13.7126, 16.5112, -11.9029, -15.3086, -16.9873, -13.3866, 16.1605, 14.2681, 12.8544, -11.4681, -14.9701, -12.8765, 14.1967, -14.0242, -12.6754, 18.4254, -12.0125, 14.9256, 15.6146, -15.2587, 14.9317, 17.0718, 14.8450, -13.7280, 14.2786, -14.8665, -15.0450, 16.2767, -15.5011, 15.9625, -13.2015, -13.8473, -14.9276, 14.2928, -14.4879, -13.8252, 14.2323, 16.0413, -16.3903, 14.0556, -14.9397, 15.1363, -13.3026, -15.5004, 13.6560, 16.3978, 13.0654, -15.7189, -18.4680, 15.4075, -15.0949, 16.7815, 16.3457, 15.3344, -15.2134, -13.5371, 16.0914, 15.4665, -15.1619, -12.7694, 14.0819, 14.0094, -16.0274, 15.9780, -16.8192, -15.8030, -14.4883, -13.6191, 14.1052, -12.2883, -16.0930, 11.9681, 14.8190, -15.8527, -14.5658, 13.6159, -15.9816, -16.4191, 11.8786, -14.9857, 16.7889, -15.2010, -14.8504, -14.3680, 11.7751, 14.7005, -15.2802, 12.9168, -12.9538, -16.6726, -17.0125, -14.0126, 11.9020, -16.8582, 14.8844, 15.6206, -16.0486, -14.7737, -17.6429, 14.5855, -13.9701, 13.7100, -17.5151, 13.8603, -14.2441, 12.5128, 15.8624, 16.2251, -15.1297, -15.0942, -15.1085, -11.3807, -16.6106, -16.5300, 15.8236, -13.0147, -15.2986, -13.4017, -16.3391, 15.3020, 15.3466, -15.2049, 14.4911, -14.8677, -16.1858, 12.7110, 14.4673, -15.2402, -14.2257, -15.1550, 16.9585, 16.3518, 13.4173, 14.7896, 12.4063, 13.7299, -15.0553, 15.6964, -16.5352, 14.1014, -15.7700, 12.3408, 15.9108, 16.6800, 15.0225, 14.6682, -13.9118, -14.9461, -15.3874, -15.1980, 14.0418, 16.7334, -12.7083, 13.6756, -16.6800, 14.2049, -16.6427, -12.9875, 11.0753, -15.5594, -13.1070, 15.9458, 17.3564, 15.6360, -13.4381, 12.9662, -16.1554, 13.5730, 16.4429, -13.6049, -13.3891, -15.2814, 14.2666, -13.4697, 12.0402, -19.7091, -16.8671, 14.6509, -16.4109, -15.4318, -14.2132, -13.6651, -12.9843, 15.1836, -15.3415, 14.7250, 16.3789, -16.2347, -15.1539, -14.0734, -17.0967, -15.7811, 13.9549, -13.6575, 15.4183, -11.7598, 13.6209, -12.3476, -13.7355, -13.1838, 16.2510, -13.8974, 14.4794, -14.3162, -12.7710, -14.3681, 12.7478, -14.6372, -14.6590, -13.8808, -15.6154, 13.7355, -13.6353, 13.2655, 16.9616, -14.3122, -15.5614, -17.1802, 16.7169, -15.2305, 15.3435, -16.0289, 13.0282, 17.9802, -13.7088, 13.9306, -12.6361, 14.5068, -14.0431, 14.0864, 15.0392, 13.4650, -11.6694, -15.7429, -15.0717, 12.6476, -15.5849, 16.3365, -14.2587, -14.2343, 15.6789, 12.7853, 13.0616, 14.6824, 16.9701, 16.2005, 17.5948, 11.8310, -10.4313, -15.8052, 16.3271, 14.5555, 14.4613, 12.3686, -14.5881, -12.6111, -12.3248, 13.7109, -12.6855, 17.3703, -15.9795, -12.8976, 15.6951, -12.6429, -13.5122, -12.7383, -18.2844, -16.7718, -15.2654, -15.6019, 12.8994, 13.6140, -14.3343, 12.6857, 16.3518, 13.5712, -12.6376, 16.7157, 18.6902, 16.5619, 14.9377, -14.9462, -15.5177, 12.4179, 13.7295, -16.0539, -14.8574, 13.8391, 17.2115, -15.6035, -13.5996, -13.9855, -14.7848, 12.2759, -13.7703, 17.9793, 13.1222, 12.9146, -18.2376, 13.9795, -15.5557, -15.2326, 12.5482, 15.3439, 15.8669, 14.2796, 16.9654, 16.8897, -13.7438, 16.2689, -17.1750, 16.7621, -14.9338, 15.4269, -14.9373, -15.8553, -14.0912, -13.3873, -15.5717, -13.4615, 17.4701, -14.2824, -14.2120, 12.3054, -14.5537, 13.0600, -14.3926, -16.0294, 12.5921, 15.8789, -15.2061, 14.1141, 14.3548, 13.8562, 16.1930, 16.2475, -12.5043, -14.9654, -13.2213, 12.0661, 13.7120, -11.7262, 13.1765, 14.7264, -14.1212, -14.7362, 16.0324, 14.9282, -15.3840, -18.1313, 15.8485, -13.3692, 12.8573, -14.0494, 15.9609, -14.7973, 16.2341, -12.7892, -13.9656, 16.8490, 14.0222, 14.4984, -13.1105, 12.3090, 12.9320, -14.0183, 16.7889, 17.2795, -13.9883, -14.8201, -15.4962, 14.0771, 14.4586, 14.1459, 13.8330, 16.0544, 15.0417, 12.8298, 13.6794, 14.7132, -12.9511, -15.2999, -13.2772, -15.2480, 16.6447, -15.3797, -12.5412, 15.0599, 14.7925, -15.9637, 16.3140, 14.3993, 14.7459, -14.1792, 15.5321, -16.2805, -14.3489, -14.1825, 14.9622, -16.5894, -16.1062, 12.1694, 15.0286, 16.3258, -14.7549, 13.4663, -14.8276, -18.2138, -15.4421, -14.6768, 16.3543, -15.2106, -14.6941, -13.0534, -16.4262, 15.4275, -14.5977, 16.5635, 13.7854, -16.0279, 12.1668, 13.7613, -15.4249, -12.6475, 16.1910, 12.5197, 19.6898, 12.4357, 14.3133, -14.6840, -16.2408, 13.4012, 15.6843, 16.6544, -13.7459, 14.8956, -13.2300, 13.9253, 13.7789, 15.3295, 15.3894, -16.3777, -16.2667, 16.6896, -14.3129, 16.5312, 15.9933, 17.5902, -13.7551, 14.1876, -12.3561, 14.4319, 15.6994, -14.5962, 15.0987, -13.1999, 17.1817, -16.3594, 14.7594, 18.5887, 15.6611, 16.1882, 15.3317, 14.4692, -18.8151, 12.3318, 15.3838, 15.4863, 16.5628, -14.0773, 14.0882, 15.2428, 13.1832, 15.6329, -15.5802, -11.2523, 14.4780, -14.3773, -16.0151, -16.7050, -15.4147, -12.8367, 14.8181, 16.0669, -15.4051, 14.6277, 18.6358, 13.9463, -14.4353, 16.3904, 14.5540, -11.3405, 14.3091, 13.3021, 13.1897, 12.9123, 12.5758, -14.7463, 15.3017, 15.5766, 14.8368, -17.6301, -14.1307, 19.0150, 14.8284, 16.7099, -11.7944, -14.8126, 14.8226, 13.1131, 13.5263, -17.0553, 13.8770, 17.4016, -16.0415, -17.7811, -16.5676, 13.3935, -13.5410, -14.3985, -12.4392, -12.5378, 14.6378, -13.2462, -18.5132, 15.3938, -15.2271, 12.4774, 14.1565, 12.0841, -14.5374, -13.0102};
#endif

#endif
