//Numpy array shape [256]
//Min -4.174189090729
//Max 4.288859844208
//Number of zeros 0

#ifndef S25_H_
#define S25_H_

#ifndef __SYNTHESIS__
model_default_t s25[256];
#else
model_default_t s25[256] = {-1.0278, -1.5573, 0.1585, -3.0367, 3.5214, -2.2721, 1.6357, -2.3604, 2.0746, 2.4717, 4.2889, -3.3287, -1.4663, 1.5419, -3.0364, -4.1742, -1.9405, 3.1328, -0.0293, 0.2394, 0.7427, 0.7099, 1.1915, 2.3083, -0.8901, 1.2040, -0.1053, 0.1024, 1.9972, -1.3646, -1.7965, -0.4510, 1.2459, 1.1281, -2.6903, 0.0564, 0.0062, -1.8857, -2.5004, -0.2763, -0.1180, 0.0164, 1.9381, -0.0276, 1.1889, 2.1401, -0.0567, -1.3596, -1.9090, 1.1617, -0.0154, 1.6706, 1.1532, 3.1028, -0.6215, 1.3067, 1.8063, -2.0827, -3.3057, 0.5637, -1.7449, 1.9651, 1.2469, 2.2439, 1.4958, -0.1453, -0.1180, -1.6834, 0.5964, -1.2464, 0.0307, -0.5807, 1.2167, -0.0382, 1.0646, -1.3175, -2.5174, 0.1942, 0.7722, -2.0599, 2.1299, -0.7428, -3.0413, 0.2796, 2.6690, -1.3145, 0.6853, -0.9372, -2.2822, 0.1665, 1.5785, -0.7083, 1.8217, 2.5788, -0.1722, 1.5548, 3.0850, -0.0503, -0.0185, -0.1313, 1.0023, -0.0291, -1.0446, 0.0889, -1.8484, -3.7217, -1.7156, -0.1452, -0.0162, -0.9827, -2.3106, 1.8284, 0.8831, 2.2866, -1.2395, 2.4723, -0.0839, 1.5703, -0.0727, -0.0100, -1.6499, -2.5155, -2.3208, -0.2255, -3.1407, 3.3266, 0.0636, -0.7338, -0.9710, -2.5379, 0.0281, -2.1798, 1.7098, 0.8253, -1.5188, -0.3846, 0.9090, 2.9153, 0.4960, 1.4491, -0.9805, -0.1404, -0.0313, 0.0175, 2.7840, -1.6876, 1.0968, 1.9050, 0.0429, 1.7514, 0.0676, -1.2520, 1.3380, -1.8965, -0.9915, -1.2112, -1.7241, -0.1153, -1.7456, 1.2724, -1.9074, 1.7334, 1.0476, 4.1909, -1.1182, -0.0279, 2.0227, 1.1420, -1.7593, -0.8615, 1.8606, 2.0782, -1.3338, 1.6633, 1.2243, -2.6592, 1.5952, -0.0887, 1.6267, 1.2742, 0.2757, -1.9812, 0.1223, 0.0620, -2.5223, 1.0612, -2.4043, 0.2244, -1.6452, -4.1453, 2.1801, -0.0332, -1.2725, 1.2833, -2.0546, 2.9544, -0.0498, -3.6647, 0.0487, 1.8357, -0.1700, -1.0694, 0.0920, 0.0193, -2.2306, -2.4714, 0.0149, -1.7612, -1.0592, -0.9623, 0.7832, -0.8318, 2.3074, -2.2021, 3.0129, -1.0103, 2.2546, 1.1624, -3.3912, 1.4098, 2.2168, -2.4602, 1.6690, 1.7181, 1.5240, 1.8923, 0.6581, 0.9235, 1.3498, -2.2363, -3.1421, -1.3958, -1.3851, 1.7292, 0.8150, -0.1459, 1.0326, -0.0358, 2.0047, -0.0739, 0.6407, 3.9131, -2.7996, 4.2296, 0.9697, 1.8265, 2.4479, 1.6959, 2.2617, 1.4901, -1.2862, 2.5251, 1.0219, -1.6622, 1.6739, -3.2460};
#endif

#endif
