//Numpy array shape [256]
//Min -5.722853183746
//Max 4.986472606659
//Number of zeros 0

#ifndef S35_H_
#define S35_H_

#ifndef __SYNTHESIS__
model_default_t s35[256];
#else
model_default_t s35[256] = {3.8805, -1.8264, -0.0174, 4.3390, 1.4730, -0.6956, -1.9327, -3.1476, 1.7202, 3.7505, 3.1150, -3.4008, -4.1312, -3.8511, 3.8331, -3.4213, 3.7830, 4.3759, 0.2306, -3.4452, -2.0020, -2.2140, -0.9770, -3.2277, 1.5653, -0.6304, 0.0750, 0.1055, 1.8226, 3.2877, 3.7201, 0.2780, 1.7113, 1.3291, 3.5216, -0.2015, 0.0071, -1.9797, -1.0392, -0.0331, -0.1188, -0.0037, 4.5604, -0.0851, -0.8719, 2.1518, -0.0006, 2.1910, 1.2994, -1.2555, -0.0926, -0.5473, -0.4388, 1.1396, -0.2546, 1.6354, 2.4313, -1.4324, -4.5554, 0.1034, 3.2682, -0.9104, 3.7949, 1.8892, -0.1102, -0.1749, -1.9548, -0.3859, 1.1588, 2.3804, -0.1771, -0.1700, 1.7565, 0.1922, 2.8326, 2.3980, -3.3217, 0.0858, 1.0887, 1.9427, -0.7909, 0.8980, 4.5820, 0.1808, -4.3523, -0.1621, 1.9871, 1.9763, 1.5238, 0.0465, 0.7934, 1.4711, -0.2558, -2.3219, 3.6042, -2.1269, 3.8622, 0.0378, 0.2595, -0.1635, -4.2253, 0.0148, -4.5667, -1.4291, 3.1241, -3.7258, 2.5472, 0.3624, -0.1278, 0.0189, 2.5940, -1.3188, -3.7405, 1.4285, -0.9839, 1.0942, -0.0506, 1.8508, -0.1911, -0.0067, 3.4767, 3.6863, -3.9142, -0.0226, 3.1301, 4.0617, -0.0134, -2.8532, 1.8493, -4.5525, -0.2205, 2.2773, -0.7158, -1.4901, 0.8852, -0.0139, 2.0737, -0.5479, 0.3723, 0.0894, -0.1924, 0.1306, -0.0765, -0.1163, -1.6255, -3.4218, 2.1041, -1.6750, 0.0403, -5.7003, 0.0385, -2.4036, -3.2644, 2.1481, -0.4722, -1.0040, -0.9705, 0.3328, -0.2636, 0.8463, -0.9083, 3.5998, 2.7802, 4.3998, -0.9267, -0.6575, -0.2993, 1.3175, 2.7631, 0.3767, 3.3753, 2.0779, -1.7863, -0.5559, -1.7393, -3.1578, 3.4404, 0.0627, 0.6364, 1.0053, -3.2920, 0.2011, 0.0208, -0.0030, 1.3802, 0.9275, 2.5691, -1.8281, 3.0822, -2.9290, 2.8973, -0.1652, -3.3823, 0.1408, -0.9896, 3.4074, -0.1793, 3.6563, -0.0176, 2.3859, -0.7243, 2.3165, 0.0697, -0.0340, 2.1527, 4.9865, 0.3194, -0.1219, -0.3712, -3.7125, 1.1354, 0.8431, 1.6722, -3.5090, -1.9594, 0.2667, 1.3107, 2.4225, -3.0247, 3.8107, 2.0904, 2.1527, -0.5159, -2.0335, -1.2443, 2.4486, -0.0773, -1.7801, 0.0909, -2.9034, -1.8266, -1.4095, -3.1318, -3.2288, 1.9875, -0.1117, 1.6116, -0.0107, -3.8928, 0.0428, -1.9119, -2.1187, -2.3098, -5.7229, 3.3940, 2.2610, -3.9012, 0.1266, -2.2907, -0.3322, -0.1896, 2.4789, 3.2392, -3.6551, -3.5877, -2.7655};
#endif

#endif
