//Numpy array shape [512]
//Min -6.773203372955
//Max 5.676250934601
//Number of zeros 0

#ifndef S45_H_
#define S45_H_

#ifndef __SYNTHESIS__
model_default_t s45[512];
#else
model_default_t s45[512] = {-2.7683, 3.0889, -3.6179, -2.8982, -1.3550, -2.8909, 3.0854, -2.0541, -2.4338, 3.0366, 4.0381, -3.4712, -2.9292, 1.8560, 2.5784, -2.7238, -2.4308, -1.2485, 2.6607, 1.3759, 3.3557, -2.9606, 2.2447, 2.6245, 1.8705, 1.6212, 1.3969, 0.0631, -1.8035, -1.9315, 2.3691, -2.4349, 0.9621, -3.3030, -1.6837, 2.1735, -0.9617, -4.2828, -1.7719, -0.6748, -2.5837, -0.5688, -0.3215, -0.0627, 1.2164, -2.9497, 3.1449, 3.3531, 3.3692, -0.6426, -2.2797, 2.4986, 0.2211, 2.4178, -1.1473, 1.9947, -1.4712, -3.3460, 3.7970, -2.5508, 3.8543, 2.5454, -2.6229, 3.7219, -2.6052, -1.2716, 2.7215, 2.9579, -3.3788, 2.5370, -1.6177, 3.9167, 2.1895, -1.5268, -2.6552, -0.9393, -5.0545, -2.9264, -2.3751, -2.6130, -0.1913, -1.1486, 3.6292, -1.9646, -1.9116, -3.9431, 2.1925, -1.9035, 3.3175, 2.7036, 2.5666, 1.9666, -3.5314, -1.8546, -2.7801, -3.2998, 5.6763, 2.0194, -0.2760, 1.3749, 1.4872, -2.8603, 2.9882, -2.7758, -1.7542, -3.0488, -1.3984, 3.6249, 2.2035, 2.8403, 1.4854, 2.9223, -1.2894, 2.9468, -2.8124, 0.9480, -1.9206, 0.1355, -1.8600, 4.0398, 2.7053, 3.0151, -2.4972, 3.0417, -2.6592, 1.4681, 2.0812, -2.7456, -3.1393, 3.2217, -1.7925, 2.7359, -1.6242, 2.4386, 1.8077, -2.5014, 2.7017, -3.2221, -0.0461, -2.7840, -2.7338, -3.3984, -2.6230, 3.2692, -2.5243, -2.1343, 3.5009, -0.2278, 0.6980, -1.6913, -2.4481, 3.2639, 4.0123, -0.0157, 1.2910, -3.2341, -2.6488, 0.1065, -0.0186, 1.0942, 2.0401, -3.5523, -2.1529, 3.0379, -1.5089, 0.7544, 2.3146, -0.9231, 2.9477, 2.9541, -0.6714, 2.4093, -3.2567, -0.1953, -0.8463, 0.8200, 3.8794, 2.6328, -4.2963, 2.4713, 2.2555, -1.0489, 3.4281, 1.7874, -2.3295, 4.1158, 2.5165, -6.7732, 2.0546, 2.5549, 2.7481, 2.0217, 2.3642, -4.4381, -1.6393, -2.9260, 2.3598, -3.7043, -1.9497, -0.6988, 2.0596, -0.1154, -2.4904, 3.2294, -1.2700, 0.2281, 1.3922, -3.3782, 3.1243, -4.2160, 2.5589, 0.3497, 2.1592, 1.1396, -2.8645, -0.3635, -1.2253, 2.0410, 1.6753, -2.5368, -1.3299, -2.4679, 2.7872, 0.0826, -2.5526, 1.7172, 0.7042, 1.6252, -0.2652, 3.0997, -0.7972, 1.9996, -3.1293, -2.9555, 0.5216, -2.1616, -2.6767, -2.0467, 0.9683, 2.4638, 3.5649, 2.1775, -2.4558, -1.0521, -2.6821, 1.5202, -2.0619, -0.4086, -0.7257, -2.2099, 2.1963, 1.7400, -2.9101, 2.9800, 0.8878, 2.8215, -1.1578, 0.0282, 3.1622, 2.1839, 2.0027, -0.1307, 1.9619, -2.8694, 3.4333, -3.5144, 1.9554, -2.7565, -4.3551, -4.0494, -0.9530, 1.3508, -2.4288, 1.7806, -1.2386, -2.4179, -1.5743, -3.7150, 0.2856, -2.6137, -1.3320, -3.0067, -2.4532, 2.1458, -3.8618, 1.0831, 1.3907, -2.0116, -1.4111, 1.8943, 0.0968, 2.5724, -1.5577, 3.2643, 2.5846, -1.8690, -2.6182, -1.7792, -3.0987, 2.3555, -0.4924, 0.7310, 2.2011, 2.2664, -2.4862, -2.2999, -2.0499, -2.7037, 0.6558, 1.9544, -1.2174, 1.9033, -2.4982, 3.0703, 2.6223, 0.3755, 3.1161, -3.2274, 2.2001, -1.0590, 0.0531, -0.4637, 1.5436, 2.9344, -2.9937, 2.5985, -2.0209, -2.0061, -2.5593, 2.8689, 2.9816, 2.3018, -2.2475, -2.5465, 2.9243, -2.2419, -1.8442, -2.5257, -3.7553, -0.4651, 2.7235, -2.7693, -2.6641, -1.9625, -3.2006, -3.6854, -2.3924, 1.5097, -2.1682, -2.9107, -2.8618, -2.6486, 2.2453, 0.9475, 2.1390, -2.6264, 0.7524, 4.1239, -1.6055, -1.0491, 2.2033, -2.4669, -2.1438, 2.9223, 2.2718, -2.2307, -2.9560, -2.2495, -0.4163, 0.2380, 1.1507, 2.3632, 2.6276, -3.4519, 0.3052, 0.7153, 1.4181, 2.9611, -0.5189, -2.4606, 3.8457, -0.0021, 2.5165, -2.6239, 1.9705, 0.7554, 0.5854, -2.8974, 2.2485, 2.1510, -2.5030, -2.6795, -2.7528, 1.8959, -2.9137, 3.0075, -2.4080, 0.8264, -2.4183, -2.9568, 0.8223, -4.0602, 3.2685, -2.1914, -1.0963, -0.7595, 2.8172, 1.6270, 3.2465, -0.4787, 0.4582, -3.4289, -0.7085, -0.0085, -2.6505, -0.9674, -1.0700, -3.1420, 0.9186, -2.3334, -1.0156, -2.3998, 2.2180, 1.0645, 0.0707, 1.5755, -2.8835, -0.6923, -4.4511, -2.3136, -3.5094, 2.1474, 0.8452, -0.6132, 2.9678, -0.5127, -0.1911, -3.0886, -2.8274, 1.5842, 0.7115, 2.1846, 3.2371, 1.7883, -4.3119, -1.4008, -1.9314, -2.1577, -1.9185, 0.6266, -2.6465, 2.9574, 1.7116, 0.4582, -3.3701, 1.9945, -1.9658, 1.9806, 1.9481, 2.2372, 1.9822, 2.8349, -2.7104, 0.9974, 3.4951, -3.0342, 0.4114, 3.1770, -1.9935, 0.0673, 0.8513, 3.0422, -1.8984, 2.3255, 3.9181, 0.3940, -1.5569, -1.8973, 2.1181, 2.8024, -3.1143, 3.1429, 2.0462, 2.1005, -2.4364, -0.9610, 3.0623, 1.3711, -2.7887, 2.2202, -3.4872, 1.2205, 3.1187, 2.4545, -2.3899, 1.9926, -0.4719, 2.9178, 3.2764, 4.1568, -3.3603, -0.5638, -1.8182, -0.5538, 0.1260, -2.6127, 1.5587, 1.8028, 0.2707, 2.6037, -1.7992, 3.1786};
#endif

#endif
