//Numpy array shape [512]
//Min -5.685862541199
//Max 6.151774406433
//Number of zeros 0

#ifndef S57_H_
#define S57_H_

#ifndef __SYNTHESIS__
model_default_t s57[512];
#else
model_default_t s57[512] = {-1.7358, -3.2150, 1.6085, -2.8577, -2.7437, 2.3850, 0.0277, 3.7149, -2.3640, -3.0100, -1.8864, 2.5745, 1.4652, -1.3488, 1.5395, 2.6340, -2.5476, -2.3714, 1.5287, 1.7379, 1.8949, 2.3966, -5.6859, -1.1958, -3.2863, 3.6242, -4.5332, -5.5648, 3.6328, 1.9587, -3.2532, -2.1120, 3.2045, -3.2665, 2.6782, -0.8268, 2.2503, -0.8367, -3.4789, 2.6820, 2.9346, -3.5763, 3.7066, -2.8349, 2.9206, 3.1121, 1.7028, 3.1456, -4.5938, 3.2786, -3.4864, 4.4454, 1.1127, -1.8213, -2.6634, -1.9022, -0.0394, -2.1887, -3.3981, -0.5671, 3.0543, 3.9757, 1.8130, -3.8235, 2.3727, 1.4584, -2.1057, -3.2156, -1.5816, -3.5576, -3.7633, 2.5214, -0.7727, -2.7593, -0.0141, -3.3214, -0.8261, 1.8628, 1.8485, -0.1364, -4.6488, 2.2784, -3.3224, -1.0185, 1.5374, -0.9266, 3.1716, 0.5532, -3.4690, 3.7469, 1.0852, 2.5538, 1.4611, -0.6242, -2.4448, -2.4297, -0.2535, -0.0221, -3.3828, 2.3399, -2.5802, -0.0327, -3.4237, 1.4759, 0.1491, 2.7822, 1.5873, 3.6964, 2.8320, -1.6584, 2.1677, -3.0479, 3.2092, 0.9645, 0.7325, -0.6371, -2.7581, 3.0589, 2.2801, 1.7738, 1.5803, 2.4311, -3.4793, -2.3579, -1.5772, -3.7596, 1.9415, -2.7294, -3.2342, 1.1780, 1.0089, 3.3890, 3.5084, 0.2843, -0.6482, 2.2524, 0.4147, -3.1129, 2.4048, -1.0397, -2.0034, 2.2348, 1.1462, -1.5766, -2.3205, -0.9347, 3.9849, -0.7212, -4.3138, -2.3945, -0.9747, 2.1827, -0.0501, -0.5765, 2.1913, -2.4647, -2.8784, 3.7407, 4.7733, -3.3375, 3.0477, 4.0108, 2.6145, -2.5085, 1.9181, -3.1299, 1.5882, -2.3170, -3.9287, -2.0997, 1.2969, 0.6804, 2.6060, -4.5437, 2.9311, -2.9344, -4.0660, 2.4061, -5.1483, -0.7915, 2.8450, -2.9431, -1.8317, 3.4026, -2.0916, 2.4711, -1.0460, 6.1518, -2.2954, 3.5083, -2.4995, -2.4331, -1.0969, 3.5216, 2.6459, 1.7922, -0.8964, -1.1180, 2.7385, 1.8048, -2.4159, -2.7360, -0.7853, -3.7551, 1.6105, -1.6714, 0.9756, 2.5452, -2.0751, -3.4995, 1.5933, -2.3397, -1.3381, -0.2289, -1.8219, 2.5014, -3.0667, -2.9011, -1.5204, 1.6285, -0.1645, -0.3897, 2.6109, -3.7703, 1.2345, -2.2255, 2.6790, 0.7002, 1.6768, -3.5014, -0.3532, 1.1462, 1.9551, -2.4846, 2.9894, -1.0709, 3.1412, -1.6749, -0.0928, -1.1777, -2.2950, -2.2570, 2.4987, 2.0770, 2.1335, -0.1491, 0.9506, 3.5319, -3.0398, 1.2075, -0.4259, -1.4643, -1.0553, 1.6703, -2.2726, -1.6508, 2.9939, 3.7070, 2.8788, 0.3095, 1.8203, 3.6409, -1.9961, -1.4990, -2.6083, -1.2992, 2.6552, -0.8833, -1.4826, -4.0481, 3.1062, -0.3196, -1.0261, -1.6107, -1.8591, 1.6611, -3.0044, -2.1034, -2.2829, 3.9801, -0.6114, 4.9975, -1.0510, 2.1419, -1.0986, 2.3958, 0.7899, 0.0759, 1.8325, 2.6504, 4.4732, 1.8285, 0.5961, 3.0825, -0.1323, 2.7684, -0.3523, -3.6536, 3.8200, 3.8573, -0.1249, -2.4607, -1.4639, -2.4910, 1.3476, 2.4779, 2.9079, -1.4315, -3.6339, -1.5137, -1.4064, -0.7266, 0.9684, 1.1657, -2.8163, -3.3814, 0.7937, -2.8188, -4.4405, -2.6037, 2.4204, -2.5436, 3.8318, 3.0541, -2.2945, 3.3339, 0.3572, -3.4291, 0.7902, 3.1126, -2.8558, -0.5973, -0.0297, -0.9532, -2.8972, 2.1737, -3.6713, 1.8653, 1.0611, -4.1257, 3.4784, -1.2890, -1.1791, -0.3066, -1.0169, -3.4604, -1.6764, -2.3020, 1.0856, 1.0076, -0.7710, -1.5581, -2.8085, -2.8734, 3.4771, -1.2281, -1.8509, 1.7220, -3.7332, 1.9769, -1.0037, 2.7929, 0.9930, 2.8283, 3.1697, 2.5995, -2.8838, 2.2786, 3.6747, 0.9921, -4.0297, 1.4998, 3.0411, 2.8412, 2.9124, -2.9169, 1.8992, 4.0304, 1.5381, 2.1318, 1.6237, -1.9464, 2.4113, -1.9362, -0.0602, 3.4413, -3.3263, 2.4138, 0.9835, 0.9284, -2.0838, -2.5782, 3.4177, -0.7152, 2.5802, 1.5222, 2.2885, 0.1296, -3.5689, -0.0924, -2.4437, -3.2797, -1.7695, 3.0329, 3.0609, -2.9479, -0.7704, 0.9426, -3.1861, 2.0380, 3.6319, -0.7870, -1.4250, 1.6034, 1.5873, 2.8070, -0.5904, -1.8261, -2.4092, 3.0518, 0.0678, 1.6334, -0.2758, 0.2571, -1.8081, -1.6842, 3.2673, -3.6411, -4.0462, -3.1174, -2.7725, 2.1605, 3.4281, -2.7166, -0.5218, 0.5749, 1.9705, 3.4250, 2.8033, -1.2220, -3.1833, 1.0423, 3.0433, 2.2357, 3.8117, 2.6121, -3.4590, -0.4199, -0.7057, 2.1427, 3.3875, -3.1289, 1.2003, 2.4781, 2.6202, 1.4333, -0.1654, -0.9405, 2.4735, -3.9972, -0.4366, 2.3608, -1.5986, -3.0889, -1.9166, -2.0033, -2.9688, -2.9677, -1.3471, -3.7071, 2.0660, -2.0546, 2.8544, 1.5613, 3.6970, -0.0817, -0.6916, 1.7282, 1.1180, -2.7226, -2.1886, 1.7955, -2.5691, 2.1877, -1.8822, -3.6212, -1.6576, -0.7266, -1.7452, -1.9316, 3.3042, 2.1198, -0.7561, -3.7203, 3.5076, 1.2276, -4.2115, 1.9426, -1.3935, -2.5200, -1.5260, -2.6896, 0.5726, -5.1853, 0.8278, 1.8481, -2.9419, -0.0910, 3.3921, 2.1029, 0.9529, -3.9509};
#endif

#endif
