//Numpy array shape [512]
//Min -5.123734474182
//Max 5.770250320435
//Number of zeros 0

#ifndef S77_H_
#define S77_H_

#ifndef __SYNTHESIS__
model_default_t s77[512];
#else
model_default_t s77[512] = {3.2798, 1.1485, 2.4816, -0.7831, 1.4172, 2.0915, 4.0625, 1.5163, -3.1240, 2.8912, 2.2531, 4.2247, 2.7557, 3.7292, -2.0056, -3.6405, 1.4371, 2.4020, -1.1291, 0.1801, 3.2301, -3.1398, -1.3349, 3.0604, 2.1574, 1.6767, 1.3880, 1.7175, -0.3842, -0.0705, 1.1764, 1.4739, -0.5351, -2.1296, -0.7121, -2.8890, 0.2728, 3.4561, -1.8803, 0.5006, 3.7323, 0.3652, -0.1363, 0.5543, 0.3467, -3.4355, -4.2792, -2.4958, 4.2764, -1.4609, -1.6911, 2.9434, -0.2473, 2.7554, 1.2765, 0.8339, 2.2585, 4.5283, -2.7584, -2.2125, 3.0004, -2.7506, -2.8721, -0.8274, -3.1200, -1.8638, -2.3276, 1.2226, 3.2999, -3.8646, 1.3193, 3.5785, 1.3784, 0.1408, 1.1307, 5.7703, -1.4075, -3.5146, -1.3648, -3.8316, -1.1167, -0.2504, -3.2618, -2.9811, -2.7269, 3.4885, -1.6463, -2.0990, -4.8690, 2.7827, -2.6482, 0.9741, 3.6144, 4.4846, -0.9500, -4.5766, 3.0405, -2.1226, 1.7013, 0.3707, 0.4030, 3.0316, -1.9382, 2.2866, 2.4237, 3.4320, 0.3998, -2.7182, 2.3598, 2.7847, 0.4923, 3.1741, 1.9848, 2.5266, 2.7492, -2.3832, -1.9855, -0.6835, -1.4562, -3.9088, -2.9212, 2.2880, -2.4907, -4.0782, -2.6189, -3.6564, 1.9011, 2.8009, 4.0734, 2.0961, 1.9431, -2.9356, -0.3575, 1.9468, -2.3878, 0.7145, -0.5563, -2.7234, 0.3803, 3.1099, -3.9287, 2.3198, 4.2394, -1.2500, -4.6798, 0.5245, 4.9029, -0.0263, 0.0344, 1.5202, 2.5359, -5.1237, 0.4194, 0.1505, -0.3662, 2.6397, -3.7494, 0.0279, 1.8689, -1.5533, -0.9067, -4.3022, 2.9091, 2.7330, -2.3299, 1.3122, 2.0442, 1.1937, 1.4671, -2.5035, -0.0212, 2.3444, -0.0397, 1.1611, -0.9244, -1.2375, -3.0219, 2.4094, 3.1365, -5.0703, 2.5386, 1.1743, 1.0467, -3.6378, -1.5156, -2.5814, 2.5528, 3.6065, -0.8084, 1.0014, -4.6125, 3.5881, 0.0783, 3.6036, -1.1928, 1.4577, -2.9400, 3.3347, 3.7498, -0.6535, -2.1056, -0.0373, 3.5325, -3.2717, 2.0860, 0.1121, 2.3145, -4.7394, -1.7433, -3.0828, 0.7367, 0.1926, -1.1020, 2.4702, -3.5745, -0.4321, -1.8109, 1.4035, 3.1869, -3.2171, 1.3441, -4.1397, 4.4573, 1.4762, 0.5291, -1.8996, -0.4307, 1.0950, -0.0850, -0.9602, -1.1549, 1.5013, -3.7632, -1.1310, -0.7586, -1.4432, -2.0494, 0.8219, -2.4901, -1.3003, -3.0060, -3.1972, -3.5463, 1.4896, 1.9681, 3.0307, -1.1704, -1.5308, -1.3382, -3.9949, -2.0073, -3.8102, -2.6836, -1.2305, 0.8595, 2.3052, -0.7207, 0.1482, -1.2753, 2.8198, 2.2766, 1.0259, 0.8801, 3.3887, -3.4718, 3.8270, -2.3708, -3.1651, -2.7180, -0.2858, -0.5686, -2.1894, -0.5575, 0.3571, -3.0641, -2.0360, 3.1561, 4.6556, -0.1033, 1.2514, -1.4905, 0.5719, -4.2125, -2.3257, -4.4281, 2.1644, -1.1209, -0.8178, -2.3120, -0.6050, 2.9676, -4.2295, -1.4399, -3.0210, 1.1684, -0.3711, -4.4566, -0.6640, -0.8860, -1.0020, 0.3819, -0.1276, 0.5037, -0.4670, 1.1480, 2.1515, -3.3718, 2.1198, 0.8388, 2.2358, -2.0296, -0.8609, 4.3302, 3.5132, -0.0077, 0.0935, 3.0539, -4.4539, -1.9339, 1.1883, 0.4546, 0.1258, -3.5887, 3.3491, 3.3454, -3.8788, -1.5438, -1.4107, -2.0365, -2.4101, -2.9750, 4.7121, 1.8217, 2.4427, -1.4609, 1.4361, -0.9281, 2.8652, 4.5546, -1.0365, -3.8655, 1.3835, -3.1677, -0.2907, -2.5678, -3.7665, 1.8427, -1.3352, -0.2549, -1.6860, 1.8435, -2.5752, 2.5740, 0.0679, 1.2978, 1.6920, 0.2755, 3.8559, -0.1565, -2.1228, -2.9592, -0.9631, -3.8943, -4.2290, 3.5660, -1.0047, -3.3312, -0.1414, 0.1043, -0.0848, -1.4667, -2.9567, -3.1836, -2.5247, -1.7063, 1.0381, -0.5815, -1.2064, -0.0198, 2.6758, -3.5813, 0.1709, -3.6690, 4.5315, -1.2024, 0.6607, 0.9141, 1.4463, 0.7388, -3.4475, 3.3011, 2.1974, -3.0691, 3.2101, 3.9417, 3.8264, -4.0291, -0.4216, -4.2452, -3.8657, -0.7033, 2.9749, -1.5428, -0.0131, 1.1340, -0.5182, -2.7441, -0.2894, 4.4389, -0.1241, -0.3099, -1.0285, 1.5679, 0.0171, 2.0740, -0.2572, 3.0929, 2.8677, -1.0772, 2.7888, 0.7779, -3.5393, 2.8084, 1.5196, 0.0678, -1.5366, 4.7168, 0.4284, 2.7115, 3.5442, 2.7041, -2.1272, 0.0075, -0.3711, 2.4075, -3.2157, -0.1717, -3.6555, -3.8138, -1.5044, -1.0604, 1.6291, -0.3876, 2.6515, -3.8927, -1.0336, -2.4842, -2.1759, -1.6845, -0.2677, 2.7924, -1.9709, 0.2580, -0.4066, 3.1600, -3.1856, -3.9640, -4.2052, 1.9493, 2.5416, 0.1628, -0.7629, 2.0968, 0.1842, -1.8446, 1.5794, 0.7049, 2.3705, -2.1152, 1.2503, -3.2329, -1.5565, -1.4747, -2.0024, 2.5460, -0.4887, 1.0079, -1.9831, -0.3240, -1.1725, -2.6217, -3.8013, -2.9145, 2.4962, 0.9168, 2.2058, -1.6917, 2.3969, -2.7593, 3.5274, -4.2949, -0.6672, -2.8014, -1.2105, 1.5598, -3.3261, 1.6477, -4.1840, 3.1730, -2.1564, 2.4207, 0.4861, -1.7732, 3.2843, 0.5963, -2.5540, 0.8023, -3.1244, 0.2707, -2.1141, 4.2634, -3.3220};
#endif

#endif
