//Numpy array shape [1024]
//Min -4.294090270996
//Max 4.436725139618
//Number of zeros 0

#ifndef S87_H_
#define S87_H_

#ifndef __SYNTHESIS__
model_default_t s87[1024];
#else
model_default_t s87[1024] = {-1.6957, 2.4474, -1.2449, -3.5284, -2.3282, -2.5470, -2.3704, -2.5640, 2.2166, 2.9927, 2.0657, 1.6471, -1.9321, 2.0828, -2.1314, -3.7280, -0.7621, 2.6130, -2.2590, 1.7312, -2.3334, -2.7657, -3.1720, 1.9448, -2.3795, -3.0935, -1.5466, 2.4395, 2.3393, 2.8719, -2.5727, -2.7458, 1.2634, 1.9321, 1.2612, -0.5469, -2.3271, 2.8486, -2.5970, 3.2673, 2.9394, 2.6931, 1.9647, 2.4716, -3.0547, -1.6145, 3.1148, 0.3636, -2.0613, 2.0415, -2.2309, 2.3014, -2.2628, 0.8941, 1.5404, 2.1730, -2.2210, 1.6663, -1.6065, 1.8512, 1.9781, -2.2328, 2.1774, 1.7214, 3.2938, -2.9474, -1.5926, 1.1679, 2.9968, 2.5975, -3.5353, -1.5860, -3.0681, 2.6184, -2.4881, 2.4782, -1.4090, 0.6801, 1.9013, -2.9354, -2.0310, 2.3098, -2.2357, 1.5587, -3.4032, -2.7857, 2.7155, 2.0176, -2.1345, -2.6412, -2.2922, -2.6414, -2.7447, -3.3907, -2.4471, -2.1045, 3.1726, -2.2359, -3.5451, -3.0587, 2.1937, -2.4350, -1.9462, -1.3656, 2.9591, 2.0714, 2.8641, 2.1373, -1.9391, 1.3990, 3.4118, -2.1311, 1.4347, 3.0128, 2.1720, -2.1272, 1.3131, 3.3509, -2.3915, 1.5517, -2.1506, 2.7128, 2.7261, 0.9329, -2.4315, -2.4659, -1.7102, 2.1410, -2.8636, -1.9081, 1.5843, -2.0344, -2.6181, -2.7593, -2.0830, -3.2388, 2.6625, -1.4484, 1.6835, -2.0752, 2.2082, -2.8927, 2.4867, 3.4473, 2.2886, 2.6569, 1.6638, 1.5223, 3.1737, -1.8217, 2.1104, 3.3554, -1.7919, -2.6348, -1.9952, -2.3578, -2.0951, 2.0615, -1.5087, -2.5328, -1.5218, -3.0076, 3.7765, 2.3500, -2.2376, -2.0019, -2.2541, 1.2257, 2.1922, 1.5051, -1.9148, -1.8699, -1.6654, 2.9906, -2.4016, -1.3424, 3.4512, -2.4465, -2.9491, -1.9524, -2.5783, 3.0732, 2.8364, -1.6056, 1.6349, -1.0676, -2.4970, -3.8581, 1.6011, 2.5001, -1.8505, 2.3631, -2.2511, 1.9796, 1.8815, 0.6343, 1.7121, -1.3647, -2.2566, -1.4913, -1.4398, -2.1327, 2.4291, 1.5934, 1.6841, -3.0072, -1.6736, 1.6222, -2.7876, 2.5823, -2.2209, 4.0029, -1.8298, 1.0237, -2.5642, -2.7921, 2.2180, 2.1777, -2.1758, -2.0548, 1.4599, 3.5111, 2.6971, -0.6482, -2.2868, 2.7094, 2.2923, -1.7303, -2.2800, -2.1382, -2.5753, -2.0115, -2.4448, 2.8592, 1.8899, 2.2652, 2.5750, 2.0224, 1.1047, 1.7523, -2.8579, -2.9950, -2.8110, 2.5378, -1.7298, -3.9028, 2.9787, 2.5038, 2.6213, 0.6146, 2.1619, -2.4191, -2.7378, -1.7750, -2.0210, -1.7444, 3.1597, -1.8655, -2.2081, -1.2218, 2.2114, 1.5940, -2.7241, 2.1858, 4.1935, 2.1013, -0.7569, 2.2612, -2.2090, 1.6210, -2.9901, -2.6722, 1.5595, 2.4660, -0.8203, -1.4636, -3.4448, -2.6403, -2.3610, -2.0626, 2.3465, -1.8179, 2.7046, 3.2653, -1.9204, 2.9259, 2.6548, -2.7338, -2.2093, 1.1752, -3.0090, -2.0681, -2.4871, -2.3540, 2.5729, 1.9491, -3.2338, 3.4056, 0.3629, 2.2741, 2.1209, -2.6161, -2.3852, 1.9825, 3.1445, 2.5327, -1.3446, 2.6188, 2.1727, 2.4677, -0.7353, -2.6339, -2.3170, -2.4773, 1.6778, -1.6077, 1.5556, 2.2977, -2.2506, 2.2592, 3.1527, -3.1119, -3.1132, -1.2128, 2.2291, 1.9264, 2.1474, 3.6484, 3.2845, -2.6592, 2.0420, -2.1630, 2.9663, -1.9870, -3.7608, 1.3596, 1.3166, -2.6017, 2.0680, -1.8630, 2.3608, -3.3291, -2.8874, -1.8350, -1.6416, 2.7836, 1.9285, 1.3050, -2.9155, -1.8325, 1.5445, -2.0150, 1.7883, -2.5200, 1.9027, 0.6913, -2.0397, 2.7968, 2.2979, -3.3885, 1.9454, 3.0056, -2.3490, -2.8672, -2.6520, -2.5744, -2.5202, -2.9810, 1.5211, 3.4493, -2.0481, -3.9853, -1.7396, -2.6327, 3.6206, 2.2016, 3.0823, 4.0467, -2.7491, -2.9580, 2.5187, 2.1254, -2.4420, 2.1786, 1.2547, 2.8178, -2.6368, -2.0117, 1.8638, 2.7348, 3.5019, -1.4574, -0.5735, -2.6584, 3.0327, 2.8973, 2.0552, -1.8017, -2.7103, 3.4198, -3.0750, 2.3818, 1.5997, 1.4720, -2.5149, 1.6453, 2.5226, 2.1655, -2.0101, 1.4890, -0.9374, 1.8464, -1.3746, 3.4852, 2.3559, -0.7519, -1.3238, 2.2183, -1.3861, 2.8153, -1.5271, -2.3740, 2.9101, 4.0759, 1.7893, 2.4205, 1.3908, 1.9489, -2.2424, -1.7431, -2.5688, -2.2916, -1.8549, 1.8683, -2.1474, 1.5618, -2.1224, 2.1941, 2.4295, 1.3607, 2.3926, 2.8014, -3.0154, 2.7282, 2.1872, 2.1095, 1.9925, 2.3515, 3.0446, 3.3522, -0.7163, -3.1526, -2.6980, -3.1803, 1.7018, -1.9680, 2.5111, -2.1603, 0.8500, -2.1602, 2.6722, 2.5024, 1.6374, 2.7150, -2.3644, -2.3813, 3.5411, 2.3708, 2.8705, -1.8896, 2.1798, -2.5604, -1.6086, 1.9391, 1.7686, 0.9894, -0.9614, 1.6918, -2.2656, -1.9463, -2.2770, -2.1425, -3.3206, 2.6396, -1.7464, 2.1443, -2.7691, 1.3604, 2.2559, -2.2885, -2.8273, 1.3712, 2.5818, 2.3017, -3.4992, -1.0793, -2.2421, -2.3929, -2.9052, -2.4129, 2.6056, -0.6609, -2.1126, -2.9470, 2.4953, 1.7904, 3.3373, -3.2616, 3.3474, 1.5193, -4.2941, 1.8155, -1.2701, 1.9063, 0.3766, -1.4535, -1.5639, 2.7567, 2.2578, 2.2294, -3.0369, 1.5457, 1.9594, 2.1176, 2.2381, 2.4808, -3.1966, 1.9652, 2.4719, 0.9984, 2.4222, -1.8929, 2.6207, -3.3657, 1.2568, -1.6018, -2.3099, -3.1224, -2.2356, -1.3158, 2.2086, -3.1357, -2.6891, 2.1606, 3.5934, -2.0296, -2.7792, 2.1234, 1.7253, -2.2756, -2.1434, -2.4332, 1.4566, -2.6939, 2.5853, -2.8064, 2.6604, -2.6090, 1.4367, 2.1037, -2.0262, 3.0503, -2.8819, -3.3056, 3.0056, 1.0800, 2.5152, 1.5595, 2.6012, -1.8081, 2.3632, 2.3705, -0.6701, -2.0265, 2.1160, 3.1601, 3.1842, 2.6626, -2.3246, -1.9114, 2.2413, 3.0128, -2.3121, -2.5565, 1.5190, -2.5797, -2.0498, 3.0856, 1.7849, -1.7480, 0.6836, -2.0196, 3.4187, 2.3088, -2.5634, 2.0850, 3.0720, 2.3344, -2.3575, -3.6096, 2.1458, 1.4719, 1.8592, -2.2074, -2.5421, -2.2145, -1.9523, 1.9680, 2.3354, -2.0451, -2.4121, -2.2561, -1.6134, 3.0404, 1.7748, 3.2137, -2.9952, 2.2348, -1.7304, -2.2749, 2.7213, 1.1013, 2.5088, -2.8495, -3.5404, 2.7345, 2.2329, -2.3115, 2.0777, 2.2815, -1.4668, 2.0759, -3.5296, -2.0678, 1.9327, -2.1577, -2.1153, 2.6932, 1.8299, -0.0283, -2.7175, 1.7382, -2.3290, -2.2540, 2.4862, -2.3410, -2.3366, 2.2167, -2.6346, 1.0365, 3.7525, 1.4203, -2.0598, -2.1174, -2.8839, -1.5749, -2.2495, -3.6096, -2.7774, 0.7339, -3.7432, 2.2195, 1.3991, -2.2235, 1.5931, 2.8380, -1.4756, 2.4716, 2.8715, -1.5147, 2.6711, 2.0239, -2.1164, -1.9511, 2.3657, -2.0828, 2.1439, 2.6699, 1.7200, -2.3001, -3.1938, -2.2359, -3.0978, 2.5689, 2.2262, -1.1947, 1.6331, 2.6714, -2.4866, -2.4012, 2.7531, -2.3087, -2.8514, 2.8838, -2.2564, 2.1045, 2.8276, -3.3705, -2.3284, -2.4377, -3.2953, 1.8249, -0.9968, -2.4307, 2.2219, -2.4407, 1.3953, 2.0577, 2.3599, 2.0226, -3.1380, 2.1210, 3.6061, -2.1719, 2.4799, -2.0549, -2.8845, 1.7424, 2.0523, -2.1185, -2.2556, 2.1220, -3.2632, -1.6595, 1.6540, 2.1284, 3.0415, 1.7356, 1.9050, 2.1700, 2.6414, 2.0149, 2.0690, 1.1146, 2.4683, 1.9020, -2.8951, -2.0623, 2.3470, 0.4638, -3.0081, -2.1280, 3.6915, -3.1662, -3.2159, -2.6769, 2.3051, -1.8531, -2.5625, -2.1340, -3.2777, 2.4495, 1.9667, 2.3299, 1.4415, -1.3668, -2.2846, -2.6145, 2.8966, -1.5813, 1.9643, -2.6990, 1.4982, -3.3743, -2.6777, -1.5713, 2.6032, 3.2860, 2.7883, 1.5684, 2.3441, -1.2318, 2.7664, 1.3139, 1.2964, 2.9107, -2.5486, 2.3385, -2.4292, -2.5300, 1.9704, -1.4589, 2.4335, -3.0927, -1.8385, 2.6264, -2.3984, 3.1093, -2.0499, -3.7487, -2.3080, -2.1285, -1.6397, -3.1578, -2.8409, -2.5356, -2.2652, -2.7673, 2.6646, 2.3689, 2.6455, 3.0399, 1.5583, 2.4939, -2.0254, -3.2319, 4.4367, 2.0236, -2.0165, -1.3042, 2.2437, -2.5221, -1.5378, -1.7436, 3.3751, 2.5449, -2.3878, -2.2354, 2.2647, -2.9528, 1.9414, -3.2800, -1.6488, 2.6306, 2.4213, -2.6435, 2.6103, 2.5684, 2.4255, 2.1527, 2.8753, -3.1529, -3.1833, 2.1112, -2.6239, -1.4855, 2.0070, 2.5620, -3.3195, 0.9708, -1.8962, -0.8512, 3.2747, -2.0714, 2.8449, 2.8740, 1.2420, 2.9113, -2.5481, 3.6232, -1.7198, -3.0230, -2.7379, -2.3877, 1.4700, -2.4970, 1.9539, -1.7992, -1.7123, -1.0864, 2.6640, -1.2876, 0.9008, 2.6257, -1.5630, 2.7819, -2.5756, -1.8324, -2.1349, 2.5394, -2.9621, -1.0170, 1.9397, 3.4015, -1.8534, -2.8187, -2.4356, 3.4986, 2.0961, -2.7039, 2.6403, -2.3672, -2.8858, 2.8967, -1.4529, -1.7013, -1.2613, -1.8373, 2.5096, 1.6918, 1.8643, -0.6155, 2.1165, -2.9517, 2.2140, 0.5273, 2.7663, -3.2467, -1.4657, 2.2036, -1.0668, -2.2363, -1.6699, 3.5044, -0.8682, 2.7476, -2.5529, 1.3061, -2.3238, 3.4073, 1.2256, 2.3817, 2.8994, -2.1807, 3.1385, -2.0715, -2.8593, -0.7272, 2.2320, 2.6177, 1.4824, 3.7030, -2.5501, -2.9489, 2.3315, 3.1558, 1.0860, -1.4179, -2.4730, 2.3686, 1.7680, -0.9468, -1.6150, 1.8525, 2.7097, 1.6795, 3.0767, 2.7689, 2.3552, -2.8198, 1.9620, -2.3023, -3.0605, 2.6399, -2.4155, 2.1789, 1.7718, 1.7920, -2.1192, 2.2900, 2.6122, -1.7636, 1.3558, 2.1737, 1.1788, 2.5001, 2.0051, 2.7944, -1.2838, -1.5755, -2.9327, 2.2191, 2.6768, 2.5362, 1.6518, -1.7451, -1.7553, 2.4581, 2.4778, -2.2096, 1.8825, 3.3697, 1.6900, -2.8178, -1.8061, -1.1700, 1.5509, 2.5233, -1.5209, -2.4014, -2.4319, 1.8689, -2.3325, -1.2500, -1.5592, -2.0492, -1.4872, 3.4964, -3.2323, 2.5121, -3.3059, 3.8697, -1.5363, -2.4270, 3.5748, -3.1884, 2.2164, 3.6249, 2.1896, -0.7765, -1.9302, 2.6537, 2.5991, -2.0951, 1.8756, 2.7892, 2.3451, 1.7645, -2.5237, 1.6241, 1.6333, 2.9192, -3.0906, 2.2830, 2.4960, 2.7274, -2.6452, -2.0188, -2.0657, -1.7362, -0.8441, -1.4537, 3.2731, 1.8374};
#endif

#endif
