//Numpy array shape [1024]
//Min -5.567172050476
//Max 5.324971675873
//Number of zeros 0

#ifndef S99_H_
#define S99_H_

#ifndef __SYNTHESIS__
model_default_t s99[1024];
#else
model_default_t s99[1024] = {-1.7157, -1.7915, 1.3885, 3.5410, 2.2819, 2.5374, 4.2518, 3.2286, 3.0354, 4.0216, -2.7136, -1.7530, -2.5437, 2.2004, 2.5966, -4.1846, -3.7605, -2.7459, 3.4964, -2.6894, -3.5000, -2.4316, -4.3017, -1.5719, 3.3775, 3.2832, -2.1549, -3.9236, 1.7018, -4.2971, 3.5606, -3.3848, -2.5890, -1.8263, -3.2031, -2.8259, 3.5541, 2.3178, 4.0561, 2.9652, 2.4545, 2.8147, 2.0912, 2.3571, -2.5085, 3.2953, -3.8963, 1.1958, -3.2365, -2.0357, 3.1888, 3.8440, -2.2818, -3.0008, -2.1454, -3.6864, 4.7558, -1.9725, -2.6966, -1.8069, -1.1983, 3.2809, 3.8449, -1.5083, -4.5360, 3.8143, 2.3156, 2.2515, -4.0692, 3.3969, -4.1903, 3.4607, -2.8890, -2.9113, -3.3745, 2.5783, -1.5390, -0.7988, 3.5901, 3.3435, 1.8511, 2.8996, -2.4586, 3.2112, -3.6530, -2.6279, -2.3389, 1.8281, -2.2835, -3.7940, 2.3016, 2.7253, 4.0408, 3.5009, 3.5162, 2.6571, 3.0037, 2.3544, -4.3259, 3.3595, -2.5431, -3.0284, -2.2393, -1.2539, -1.8766, -2.4111, 4.6477, 3.5141, 2.6252, -3.0538, -4.2016, 3.0817, -2.1176, 3.6676, -2.0258, -2.7515, 3.6550, 2.5998, 3.5986, -1.9019, 2.7382, -3.6244, 3.8695, 1.9400, -1.6659, 2.9904, -2.5460, -3.8352, -3.8971, -3.9449, -2.3673, 4.2368, 3.8731, 3.7685, -1.4330, -3.7888, 2.3791, 1.6007, -3.4301, 2.5152, 3.3537, -3.4091, -3.6895, 4.0129, -2.4202, 2.3204, 2.4895, -1.6592, -4.5102, -3.7383, 2.5550, 4.1856, 3.3555, 3.7642, 3.6212, 3.7569, -3.0479, -2.3614, -2.9113, -2.5644, -1.7413, -4.6392, 3.8723, 3.1877, -1.1273, 2.0189, -2.8806, 3.1375, -2.6580, 2.1824, -2.2043, 3.0981, -1.4202, -3.5242, 2.6102, 1.7980, -4.7265, -1.1938, -3.5287, -2.8724, -2.4547, -3.4078, 2.6980, -3.7381, 1.7097, -1.3287, 3.2311, 4.7543, -2.5024, -2.6940, 1.5695, 2.0659, 3.6994, 2.6774, 2.2483, 1.1318, -2.7224, 1.4010, 2.2902, -2.4911, -2.9266, -2.2810, -2.9944, -1.8287, 3.8286, -3.2485, -1.9174, 2.5029, -3.8375, 2.8915, -3.4833, 5.2188, 3.7708, 1.9894, 2.8180, -3.7939, -2.2121, -2.1673, 2.2827, 2.2678, -2.7195, 3.7050, 2.9287, 2.2817, -3.3747, -3.1234, -2.4844, -2.0174, 2.8907, 3.3871, 3.5164, -4.4918, 2.9229, -2.9758, -1.4321, -2.8467, -3.0490, 3.0779, -3.2496, -1.3509, 2.8984, -3.4204, 2.5733, -2.9938, -2.6099, -5.5672, 2.9527, 2.4996, 3.2781, 0.8547, 3.6192, -3.0753, 3.4677, -2.8341, -2.2237, -3.7441, -3.4765, -3.0995, -2.4983, -2.8646, -3.1966, 2.5314, 2.3424, -2.2147, 4.9942, 3.7158, 3.3310, -2.8581, 3.2379, 2.8454, -3.6252, 4.5947, -2.2452, 3.0022, -1.6738, 3.7948, -2.0975, 3.8924, 3.5532, -3.4780, -3.3435, -1.7988, -2.4626, 2.8679, -2.6343, -4.0745, -4.1825, 3.2623, 1.8986, 2.5388, -3.3948, 1.7073, -2.9241, 2.4556, -1.3425, -2.5886, -3.5479, 4.5432, 3.2231, -3.6000, -2.2756, -2.9218, 3.6421, 3.3286, -2.8591, -3.7648, -1.7071, -1.7794, -2.1822, 3.2522, -0.9731, -3.0953, 3.7919, -3.1656, 1.5459, 1.5209, 1.8456, -2.3285, -3.5938, -2.9160, 4.1580, -3.8268, -3.3663, -3.8285, 2.9523, -2.0854, -2.7983, -4.3069, -3.4944, -4.2446, -3.4046, 1.5270, -3.3260, -2.4170, 3.7330, 3.8778, 2.6153, 2.2191, 3.3548, -3.4687, 3.3883, -3.8374, 3.4431, 3.1294, -2.6377, 3.8173, -3.2965, -2.3573, 3.3812, -1.5958, -0.9329, -3.3239, -4.3426, -3.5472, 2.5677, -2.3370, -3.6257, 3.8910, -3.2311, -4.1111, 1.8415, -3.8020, 2.7629, 4.0118, 2.5881, 3.3059, -3.1099, 3.7345, 1.9495, 4.0732, -3.0160, -4.4593, 3.3584, -2.9597, 3.6123, 2.4287, -3.1156, 3.1718, -3.1745, -2.4245, -3.1280, 3.6651, 5.3250, 2.9674, -3.2852, -3.1815, 3.1595, -2.4059, 3.3332, -2.2461, -3.2864, -2.9701, 2.5868, 3.3791, 3.3955, 4.1011, -2.5599, -3.2265, 3.1173, -4.1654, 3.3695, 3.6765, -1.0561, -1.5473, -2.0470, 2.1223, -1.5495, -1.2609, -3.6791, -3.4136, 1.1791, -3.2688, 4.4421, -3.9594, 3.3330, 2.6992, 1.6470, -2.7302, 3.0813, 3.4887, -1.3350, 2.8888, -2.1802, -3.8490, 1.1541, 3.0171, -2.2769, -1.9464, -2.9702, 1.9355, -3.9021, 2.4257, -3.1034, -2.3259, 1.9536, 2.1109, 2.5393, 2.2507, -2.6702, -2.8611, -2.5608, -4.3177, 2.1894, 3.1715, 2.5630, -2.4290, 2.4544, -2.3328, 3.5319, 4.5139, -1.0143, -3.5121, 2.7145, 3.7839, -1.8727, -3.4759, 1.8973, -2.9781, 2.6904, -3.5568, -4.5013, -3.8744, -3.1401, 2.7444, -2.3583, 2.9978, 3.4551, -2.1897, 3.2508, 1.5454, -3.0869, 2.9522, -2.8759, 3.7018, -1.6422, -2.2875, 1.6983, -3.0454, 2.0754, -3.6659, -2.0867, 1.8769, 3.6169, 2.5830, -2.2824, 3.5165, 4.1371, 4.8085, -3.8307, -2.5029, 2.0760, 1.1406, 2.8355, -3.4687, 2.9240, -3.5662, -2.8232, 3.3893, -3.8482, -2.1206, -4.6275, 2.1962, -1.6237, 3.0179, -2.5385, 3.1997, -3.5983, -4.1357, 3.1907, -1.9392, 4.7934, 1.7712, -1.0923, 3.3037, 2.7272, -3.5202, 3.5789, 3.0360, 2.2446, 2.3860, 3.9788, -2.3520, -2.7503, 1.7025, -3.3232, 2.6858, 4.2072, -4.2521, -3.7459, -2.7131, -2.8493, -3.3757, 3.2846, 3.4367, -2.4773, 1.8247, 2.9290, -3.5460, 3.1778, -3.4904, 2.8156, 3.5645, -3.3964, 3.0222, -5.3932, 3.2577, -3.6014, 2.8520, 3.4924, -2.5856, -2.2057, -1.9576, 3.9270, -4.0093, -3.1018, 3.6153, -4.0241, -1.8951, 1.3733, 3.2803, 1.9027, -4.4996, -2.1414, 3.2055, -4.4663, -3.8459, -2.6645, -2.4842, 3.6767, -3.2857, 2.2824, 5.3238, -2.6904, -3.3852, 3.9909, -3.0176, -3.6059, -3.2663, 2.8680, 1.7333, -4.1524, 3.7791, -2.3388, 1.6725, 3.2822, -2.6760, 2.6705, -4.2678, 0.5639, 2.8899, -2.2678, 3.1466, -3.3807, 4.0952, -3.6364, 2.6643, -2.8875, -3.0556, -3.7054, -3.4018, 1.7227, -3.6792, 0.8964, -4.2005, -3.4805, -3.3573, 4.8545, 0.4105, 4.1373, 2.3386, -2.2161, -2.3357, -2.6480, 1.8023, 4.2674, -4.0044, 3.0931, -3.0712, 2.0567, 2.7618, -2.6436, -1.2575, 1.9226, 2.5473, 3.9725, -2.7806, 2.9802, 3.5128, 3.1585, -3.1365, 1.7564, 2.8770, -3.8499, 1.9626, -2.8134, -2.9160, 2.3697, 2.9632, -2.1997, 1.4296, 3.5617, 2.0438, -2.0623, 2.2008, -2.4593, -2.6787, -3.7610, 2.6163, 1.8984, 3.3616, -3.1110, 2.2520, -3.2738, -3.4682, 2.7529, 3.1481, 2.7306, -3.3165, -4.3961, -2.3795, 4.1028, 1.9389, -2.7535, 2.9252, -3.0106, 3.9002, -2.4733, -2.9963, 2.9267, -1.3136, 4.4542, 2.5838, 2.1670, -2.3116, -3.7991, -4.0272, -3.0615, -2.1583, 2.2216, 2.0449, -3.8369, 1.9785, 4.9765, 2.1115, 2.2842, 3.3433, 3.9412, -3.4531, 2.4378, 1.8983, -2.4295, 1.8155, 2.4777, -3.5635, 2.1553, 2.6892, 3.0405, 3.5442, -3.2921, 2.7064, 3.3073, 3.3535, -3.5960, 3.1895, 3.7206, 1.6950, -1.1118, 3.9684, -3.0835, 1.5181, -4.0319, 4.5333, 4.9038, 2.2516, -3.3036, -2.1240, 3.0315, -1.5242, -2.9839, -2.2860, -2.6194, -2.7624, -4.1587, 1.4650, 1.2277, -3.5517, -2.9433, -3.2664, 3.5927, 3.3039, -2.6138, 1.9746, 3.1053, 2.2831, -2.1602, -1.7269, -4.9574, 2.9146, 2.1012, -3.1152, 3.7209, 3.3624, 4.4064, -3.2999, 3.2385, 3.7837, 3.5177, 0.8060, 4.7643, 1.2640, -3.3065, -3.7109, 1.5701, 2.4990, -2.7874, -3.5968, -2.3281, -3.0817, 3.2738, 1.2578, -2.5755, 3.8781, 1.6589, -4.3283, -2.2793, -3.1684, -2.4679, -3.4956, 3.9553, 3.3599, -2.5173, -3.5050, -3.2194, -2.2073, 1.1648, 3.5069, -3.0611, -2.3620, -2.1880, -2.8714, 3.8714, -1.1686, 3.0692, -4.4030, 3.0811, -2.2572, -3.9304, 2.8358, -2.0774, -3.7260, 3.6691, -1.7791, 1.5331, -3.6543, -3.3446, -3.7675, -2.2715, -3.6401, -2.6133, -3.4435, -3.3089, 4.2702, -1.5288, 4.6623, 1.7719, -4.2981, -4.8874, -1.5926, 2.0733, 1.0640, 3.3809, -3.8485, -1.3032, -1.7276, -3.3484, 3.0375, 3.6435, 3.6218, 3.0702, -2.8337, -2.0573, -3.2189, 3.0003, -4.3138, 1.8700, 1.9907, 3.1075, -2.0909, -2.3966, -3.2114, 3.3861, 4.6667, 3.9347, 2.5943, 1.8472, 3.9343, 3.7670, 3.1693, -3.1703, 2.3411, 2.4438, -2.6602, -4.3429, -4.3020, -3.3707, 3.3397, -3.1664, 2.9930, 3.3215, 5.1603, 3.4616, 2.9080, -2.8113, 2.5004, -1.5303, 3.4006, 2.7734, -2.3294, 1.8127, 3.4058, -2.7975, -3.7132, -1.3010, -3.8141, -1.9943, -3.3576, -3.1960, -2.1805, 2.4400, -3.7867, -3.3940, -2.6868, 2.9050, -2.6701, -3.8612, 2.2000, -2.5418, 4.2530, 2.2320, 2.4923, -3.1326, -2.0556, 4.0599, 3.4649, -3.1392, 3.5384, 2.4782, 2.7062, 3.4970, -1.7849, 2.7486, 4.2621, 2.9640, 3.6442, 2.9398, -3.0054, -2.7686, 4.1740, -1.2549, 1.9773, -3.2462, 2.1566, -2.4723, 2.6205, 1.5358, 3.4479, -4.2300, -2.9571, -2.3537, -3.6642, 1.0084, -2.5867, 3.9361, -2.4679, 2.7231, 2.5675, -2.9437, 1.1880, 1.8242, -3.6553, -1.4604, -3.9427, -1.4933, 3.5266, 2.0237, 2.9804, 2.3211, 1.1699, -3.3298, 2.4271, -1.8381, 2.2952, 3.4621, -1.7780, -3.2953, 2.3806, 3.0153, -3.3754, 2.2743, -2.3559, -2.0161, -2.6076, 4.0754, -3.0337, 2.8523, -2.4924, 1.4075, -1.8411, -1.9868, -2.0136, 1.8960, 2.7887, -3.7584, 2.3924, 3.2930, -2.1030, 2.4462, -2.5765, 3.1529, -1.5642, -2.6057, -2.6778, 3.0178, 3.9522, -2.1509, -4.0250, -3.8870, -1.7670, -2.0902, -2.4660, 1.2990, -4.1606, 1.7232, 2.6291, 2.0655, -3.2538, -1.2010, 3.2232, 2.1517, -1.9229, 2.5887, -3.8096, 3.7892, -2.0087, 3.3879, -2.0574, -2.9265, -3.8548, 2.2973, 2.9299, -3.6702, -3.9660, -3.7882, 2.8696, 5.2112, 3.3014, 3.0741, 4.3401, -2.4872, 2.0527, -2.8289, 3.8614, 3.7222, -2.0265, 2.8175, 3.7471, -2.2358, 3.6905, -2.5253, -2.3091, 2.6299, 3.2505, 2.5352, 3.5834, 2.7442, 2.8963, 2.9517, 1.4424, 2.8120, -3.9559, 2.3161, -1.6999, -1.9722, -3.3228};
#endif

#endif
