//Numpy array shape [128]
//Min -0.387092322111
//Max 0.154008761048
//Number of zeros 0

#ifndef B14_H_
#define B14_H_

#ifndef __SYNTHESIS__
model_default_t b14[128];
#else
model_default_t b14[128] = {-0.0792, 0.0353, -0.0751, -0.0966, -0.0027, 0.0195, -0.0644, -0.0033, -0.0176, -0.0891, -0.1064, -0.0619, 0.0206, -0.0673, -0.0065, 0.1265, -0.0721, -0.0611, 0.0859, -0.0072, -0.1066, -0.0721, -0.0056, 0.0367, -0.0813, -0.0806, 0.0392, -0.0719, 0.1164, 0.1378, 0.0230, -0.0110, -0.0708, 0.0647, -0.0775, -0.0678, 0.0108, -0.0769, -0.0081, 0.0522, -0.0597, 0.0599, 0.0339, -0.0302, 0.0008, -0.1493, 0.0723, -0.1148, -0.0898, -0.0970, -0.0409, -0.1079, -0.0819, -0.0831, -0.0756, -0.0758, -0.0076, -0.2972, -0.0290, -0.1202, -0.0729, -0.0554, -0.1046, 0.1038, 0.1121, -0.2901, -0.0941, -0.0201, 0.0300, 0.0144, -0.1058, 0.0954, 0.1048, -0.1644, -0.0390, -0.1333, -0.1327, -0.0989, -0.1268, -0.0577, -0.1388, -0.0979, -0.0959, 0.0981, -0.0745, 0.0702, -0.0063, 0.0173, -0.1055, -0.0436, 0.0552, -0.0421, 0.0424, -0.1478, -0.1601, -0.0228, 0.0065, -0.0002, -0.1001, -0.0965, -0.0826, 0.0111, 0.0099, -0.0259, -0.0105, -0.0452, -0.0893, -0.3016, 0.0274, -0.1917, -0.1752, -0.1615, 0.0678, -0.0415, -0.3871, -0.0919, 0.0555, 0.1160, 0.0452, -0.0321, -0.0022, 0.1540, -0.0979, -0.0467, -0.1858, -0.0063, -0.0689, 0.0995};
#endif

#endif
