//Numpy array shape [128]
//Min -1.371113419533
//Max 0.530444324017
//Number of zeros 0

#ifndef B16_H_
#define B16_H_

#ifndef __SYNTHESIS__
model_default_t b16[128];
#else
model_default_t b16[128] = {0.2952, -0.1431, 0.0372, -0.1017, -0.0785, 0.1084, -0.1012, 0.5078, 0.2751, -0.1078, 0.1525, -0.1688, 0.3881, 0.1275, 0.2754, 0.3787, 0.3622, 0.2823, -0.5330, -0.4386, -0.2491, -0.9553, -1.0236, -0.1625, -0.0163, -0.8276, 0.1520, 0.2224, -0.1205, -0.0589, -0.0434, 0.0184, -0.1345, -0.0499, 0.1345, 0.1765, 0.1619, -0.2404, -0.1410, 0.3889, 0.4152, 0.2172, -0.0908, 0.3405, -0.0674, -0.4868, 0.1862, -0.1178, 0.3218, 0.0242, 0.5304, 0.1758, -0.1579, 0.1322, 0.3775, -0.1583, 0.3565, 0.1002, -0.1046, 0.1094, -0.1891, -0.0251, 0.1235, 0.0202, -0.1296, -0.0925, -0.0187, -0.1198, 0.1202, -0.0414, -0.1205, -0.1529, 0.1427, 0.1415, -0.0736, 0.1873, -0.7007, 0.1742, 0.0650, 0.1131, 0.1325, 0.0919, -0.5950, 0.0306, -0.0535, -0.8247, -0.4645, 0.1044, -0.1452, -0.1568, 0.3327, 0.1978, 0.0158, 0.4750, -0.1320, 0.1569, -0.1640, 0.0427, 0.2899, -0.0859, -0.4120, 0.1463, 0.0946, -0.0121, 0.3519, 0.1316, 0.4356, -0.1359, -0.0952, -0.0947, 0.2668, 0.1000, -0.1558, -0.4687, -0.0744, 0.1537, -0.0680, -0.1142, -0.0823, -0.0542, -0.9016, -1.1490, -0.2150, 0.3895, -1.3711, -0.7539, 0.3053, 0.1893};
#endif

#endif
