//Numpy array shape [128, 4]
//Min -0.365187883377
//Max 0.446901679039
//Number of zeros 0

#ifndef W18_H_
#define W18_H_

#ifndef __SYNTHESIS__
model_default_t w18[512];
#else
model_default_t w18[512] = {0.0192, 0.0850, -0.0385, 0.1376, -0.1609, -0.0115, -0.0176, -0.0167, -0.0115, -0.0686, -0.0658, 0.0061, -0.0490, -0.0031, -0.0516, 0.0203, -0.0796, 0.0052, -0.0509, -0.0192, 0.0157, 0.0052, 0.0102, -0.0151, 0.1144, 0.0026, 0.0626, -0.0206, -0.0505, 0.0077, -0.0539, 0.0234, 0.0187, 0.1404, -0.0324, 0.1067, 0.0134, -0.0548, 0.0974, -0.0214, -0.0276, -0.0534, 0.0326, -0.0129, 0.0474, -0.0703, -0.0457, 0.0332, -0.0087, -0.0139, -0.0539, 0.0187, -0.0139, 0.0161, -0.0922, 0.0020, -0.0147, -0.0597, -0.0481, -0.0088, 0.0404, -0.1363, -0.0370, 0.0652, -0.0843, -0.1062, -0.0460, 0.0127, 0.1674, 0.0312, -0.0099, 0.0591, -0.0057, -0.0214, -0.0240, 0.0432, -0.0487, -0.0130, 0.0575, 0.0770, -0.0936, -0.0006, -0.0146, 0.4469, -0.2444, -0.0138, -0.0162, 0.0090, -0.0854, 0.1888, 0.0571, -0.0436, -0.0650, 0.0397, -0.0275, -0.0324, 0.0090, 0.0157, 0.1238, 0.1544, -0.0860, 0.0887, 0.0653, 0.1462, 0.0261, 0.1334, -0.0229, -0.0230, -0.0923, 0.0162, 0.0082, -0.0172, -0.0773, 0.0351, -0.0260, -0.0952, -0.0462, -0.0639, 0.0171, 0.1443, 0.0348, -0.1727, -0.0009, 0.0052, -0.2032, -0.0421, -0.0181, 0.0190, -0.0139, -0.0207, 0.0066, 0.0760, 0.0392, 0.1311, 0.0092, -0.0109, 0.0429, -0.0505, -0.0078, -0.0091, -0.0296, 0.0020, -0.0031, 0.2792, -0.1135, 0.1052, -0.0417, -0.0782, -0.0158, -0.0227, -0.0260, -0.1655, 0.0947, -0.0046, -0.0235, 0.0215, -0.1576, 0.0578, -0.0154, -0.0280, 0.0196, 0.0573, -0.0190, -0.0927, 0.0420, -0.0584, -0.0229, 0.0071, 0.1487, 0.0083, -0.0452, -0.0107, 0.0014, 0.2013, -0.0141, -0.0509, -0.0130, 0.0955, -0.0446, 0.0585, -0.0069, 0.0399, 0.0201, -0.0682, 0.0056, 0.1061, 0.0802, 0.0272, 0.0542, 0.0215, -0.0122, -0.0753, 0.0225, 0.0610, 0.0024, 0.0188, -0.0191, 0.0058, 0.0873, 0.0624, -0.0347, 0.0141, -0.0766, 0.2215, 0.0201, 0.0419, 0.0597, 0.0221, -0.2568, 0.0120, -0.1241, -0.0684, -0.0342, -0.0096, -0.0562, -0.0006, -0.0333, -0.0074, -0.2118, -0.0612, 0.0365, 0.0101, 0.1018, 0.0136, 0.0191, 0.0285, -0.1057, -0.1356, -0.0782, 0.0568, -0.0835, 0.1255, 0.0990, -0.0718, 0.2092, 0.0873, -0.0022, 0.0294, 0.0006, -0.0624, -0.0358, -0.1144, -0.0437, -0.1613, -0.0970, 0.1164, -0.0039, -0.3344, 0.0049, 0.0625, -0.1097, -0.0049, -0.0278, -0.0063, 0.0180, 0.0359, -0.0053, 0.1422, 0.1220, -0.1016, 0.1296, 0.0387, 0.0216, -0.0006, 0.0101, -0.0122, 0.2136, -0.0013, 0.0149, 0.1652, 0.0763, 0.0376, 0.0189, -0.0896, -0.1277, -0.0648, -0.0209, -0.0255, -0.1004, -0.0901, -0.0889, -0.0059, -0.0385, -0.0166, -0.0056, -0.0121, -0.2326, 0.0084, -0.0247, -0.0422, 0.0096, -0.0334, 0.0219, 0.0359, -0.0148, 0.1334, -0.0291, -0.0854, -0.2142, 0.1189, -0.0415, -0.0239, 0.0952, 0.0176, 0.0094, -0.1306, 0.1261, 0.0541, 0.0128, 0.0234, 0.0181, -0.1183, 0.0383, 0.1946, -0.0637, 0.0529, -0.0419, -0.0300, -0.0186, -0.0614, 0.0672, 0.0310, -0.1865, 0.0081, 0.1364, -0.0484, 0.0145, 0.0100, -0.0125, 0.0348, -0.0813, 0.0084, 0.0014, 0.0053, -0.0928, -0.0915, 0.0183, 0.1873, -0.0180, -0.3091, -0.0630, -0.0263, -0.0390, 0.0951, 0.0196, -0.0136, 0.0398, -0.0134, -0.0901, 0.0362, -0.0687, 0.0876, 0.0430, -0.0464, 0.0644, 0.0051, 0.0777, 0.0769, -0.1481, -0.1501, 0.1222, -0.0614, 0.0118, -0.2154, -0.1438, 0.0308, 0.0303, -0.0325, 0.0972, 0.0071, -0.0071, 0.2177, -0.0076, -0.0034, -0.0142, 0.0383, -0.1751, 0.0185, -0.0041, -0.1558, 0.0499, 0.1815, -0.0178, 0.0024, -0.1050, -0.0878, 0.0463, 0.0846, -0.1317, 0.0196, -0.0570, 0.1549, 0.0732, 0.0597, -0.1582, -0.0538, 0.0999, 0.2004, 0.0214, 0.0053, -0.0087, 0.0151, 0.0086, -0.0049, 0.1090, -0.0960, -0.0159, -0.0137, 0.0323, -0.1232, 0.0682, -0.0840, -0.0867, -0.0241, 0.0543, -0.0061, 0.0023, -0.0098, 0.0955, 0.0511, 0.1016, -0.0696, 0.0743, -0.0123, 0.0111, 0.0404, -0.0070, -0.0115, 0.0443, -0.0072, 0.0759, -0.0051, -0.1030, 0.0153, -0.0001, -0.0756, -0.0238, 0.0763, 0.0010, -0.0413, 0.0896, 0.2307, -0.0934, -0.1193, 0.0039, 0.0229, 0.0804, -0.1127, -0.0852, 0.0877, -0.0158, -0.0728, -0.0113, 0.0490, 0.0526, -0.0144, 0.0142, 0.1149, 0.0230, -0.0294, 0.0313, -0.1481, -0.0875, 0.0062, 0.1184, -0.0253, 0.0055, 0.1821, -0.0069, 0.0883, -0.0070, 0.1052, -0.0004, -0.0287, 0.0180, -0.1365, -0.1661, 0.1943, -0.0176, -0.1320, -0.0756, -0.0823, 0.0173, -0.1228, -0.0107, -0.0088, -0.1246, -0.0759, -0.0152, 0.1079, -0.0083, -0.0169, -0.0102, -0.0385, 0.0046, 0.0253, -0.0061, -0.0009, 0.1236, -0.3652, -0.0627, -0.0598, 0.0208, -0.0026, -0.0148, -0.0187, 0.0386, 0.0017, -0.0001, 0.0165, -0.1113, 0.0510};
#endif

#endif
